SVM-light Version V6.02
2 # kernel type
3 # kernel parameter -d 
0.0078125 # kernel parameter -g 
1 # kernel parameter -s 
1 # kernel parameter -r 
empty# kernel parameter -u 
98 # highest feature index 
186 # number of training documents 
66 # number of support vectors plus 1 
1.8664508 # threshold b, each following line is a SV (starting with alpha*y)
-2.0631639020672185580451696296223 6:1 34:1 60:1 79:1 98:1 #
8 16:1 26:1 60:1 79:1 90:1 #
8 9:1 36:1 45:1 79:1 90:1 #
8 6:1 23:1 46:1 79:1 90:1 #
8 4:1 36:1 43:1 79:1 90:1 #
8 2:1 23:1 56:1 63:1 90:1 #
8 3:1 22:1 46:1 79:1 90:1 #
-0.51020148275017618288984522223473 9:1 30:1 54:1 78:1 90:1 #
8 19:1 36:1 46:1 79:1 90:1 #
-1.7764078446452629123086808249354 11:1 39:1 44:1 76:1 90:1 #
-0.52430331229892601641040528193116 10:1 22:1 41:1 79:1 98:1 #
-5.9592346608390371898167359177023 3:1 34:1 56:1 61:1 90:1 #
8 15:1 23:1 60:1 79:1 90:1 #
8 6:1 26:1 44:1 79:1 90:1 #
8 6:1 22:1 43:1 79:1 90:1 #
-8 16:1 26:1 46:1 79:1 85:1 #
-8 6:1 26:1 46:1 79:1 97:1 #
4.6648421182261472495156340301037 9:1 23:1 60:1 79:1 90:1 #
8 13:1 24:1 43:1 79:1 90:1 #
8 3:1 36:1 56:1 79:1 90:1 #
-5.1593614206439610825327690690756 4:1 24:1 57:1 74:1 90:1 #
-8 9:1 36:1 53:1 76:1 90:1 #
-8 7:1 36:1 46:1 76:1 90:1 #
8 5:1 26:1 44:1 79:1 90:1 #
8 19:1 37:1 46:1 79:1 90:1 #
-2.4902876016968207295576576143503 13:1 40:1 42:1 79:1 96:1 #
-0.82287137019858391795423813164234 13:1 25:1 55:1 79:1 96:1 #
-3.8716091215605601405513880308717 18:1 37:1 56:1 79:1 91:1 #
8 4:1 36:1 53:1 79:1 90:1 #
8 20:1 36:1 51:1 79:1 90:1 #
-7.6503819646058204284599923994392 15:1 21:1 43:1 75:1 90:1 #
-0.74896294950344000085351581219584 1:1 21:1 44:1 61:1 90:1 #
-1.0763090725227790755980095127597 16:1 29:1 49:1 79:1 96:1 #
8 3:1 37:1 60:1 79:1 90:1 #
-8 5:1 36:1 47:1 79:1 93:1 #
-2.5459753486408942535490496084094 17:1 22:1 54:1 79:1 92:1 #
-8 9:1 36:1 52:1 79:1 95:1 #
2.9510857727318580145947635173798 4:1 23:1 46:1 79:1 90:1 #
-5.2483887183982851354357990203425 6:1 31:1 54:1 71:1 90:1 #
-8 19:1 24:1 43:1 79:1 84:1 #
-4.5173948763396793992797029204667 6:1 28:1 57:1 66:1 90:1 #
8 5:1 36:1 43:1 79:1 90:1 #
-8 4:1 26:1 43:1 79:1 83:1 #
-2.3962354289432763465583775541745 4:1 27:1 42:1 79:1 89:1 #
-4.3577811815284164254080678801984 19:1 37:1 41:1 79:1 98:1 #
-8 15:1 34:1 60:1 64:1 90:1 #
-5.9498467973372122230557579314336 3:1 25:1 51:1 76:1 90:1 #
-0.70547732598593171360334963537753 10:1 30:1 53:1 79:1 81:1 #
-3.2703157761924472879400127567351 7:1 26:1 43:1 61:1 90:1 #
-1.3168465909658380041946657001972 8:1 32:1 48:1 79:1 89:1 #
-0.023762087416983490584243554621935 9:1 21:1 49:1 70:1 90:1 #
-1.815623187800682991621670225868 15:1 24:1 56:1 68:1 90:1 #
-2.9529283885829453737414951319806 9:1 37:1 44:1 76:1 90:1 #
1.6142187614546941176740801893175 20:1 36:1 43:1 79:1 90:1 #
2.2665191873771419750482891686261 14:1 23:1 43:1 79:1 90:1 #
-1.6995007742107333115200162865222 5:1 30:1 56:1 79:1 84:1 #
-1.9607317999434208388720435323194 6:1 21:1 45:1 61:1 90:1 #
-1.8612676317102554435223282780498 6:1 33:1 53:1 61:1 90:1 #
-0.88962329412820295715391694102436 13:1 21:1 53:1 64:1 90:1 #
-0.67187798232322126779081372660585 12:1 37:1 54:1 61:1 90:1 #
-3.9181170042453725699260758119635 1:1 22:1 56:1 79:1 98:1 #
-3.0211226176697447698415999184363 18:1 38:1 46:1 79:1 92:1 #
-0.44911732622863809183400007896125 6:1 24:1 46:1 79:1 85:1 #
-0.85392534716736889777166652493179 9:1 35:1 57:1 65:1 90:1 #
-0.41771165069771853950442164205015 5:1 29:1 52:1 79:1 89:1 #
