SVM-light Version V6.02
2 # kernel type
3 # kernel parameter -d 
0.0078125 # kernel parameter -g 
1 # kernel parameter -s 
1 # kernel parameter -r 
empty# kernel parameter -u 
100 # highest feature index 
108 # number of training documents 
41 # number of support vectors plus 1 
0.45867197 # threshold b, each following line is a SV (starting with alpha*y)
-6.1672412084827863409941528516356 13:1 21:1 43:1 76:1 98:1 #
-8 3:1 24:1 57:1 76:1 88:1 #
-1.3689344129358214097180734825088 13:1 33:1 53:1 73:1 84:1 #
-5.1903181636575990154369719675742 14:1 33:1 56:1 76:1 90:1 #
8 11:1 38:1 57:1 64:1 98:1 #
0.98175800294216664099167246604338 9:1 24:1 56:1 70:1 98:1 #
8 6:1 24:1 41:1 61:1 98:1 #
0.40803213320355880000533943530172 6:1 24:1 57:1 77:1 98:1 #
7.5737405195214488884403181145899 8:1 24:1 56:1 63:1 98:1 #
0.61621825486495840351608421769924 8:1 24:1 57:1 67:1 98:1 #
-8 3:1 24:1 55:1 75:1 89:1 #
-1.0772190720887886428158708440606 3:1 26:1 60:1 80:1 96:1 #
-0.67031527282382441512709192465991 10:1 28:1 54:1 76:1 96:1 #
8 9:1 34:1 57:1 76:1 98:1 #
8 15:1 24:1 56:1 64:1 88:1 #
3.1645329586813351063767640880542 10:1 34:1 56:1 61:1 98:1 #
-4.5200968954910338837294148106594 1:1 35:1 48:1 76:1 98:1 #
-5.2543782760048323154933314071968 13:1 36:1 44:1 76:1 98:1 #
-1.8865662548678210352903761304333 1:1 24:1 49:1 76:1 100:1 #
8 16:1 37:1 57:1 75:1 98:1 #
8 9:1 24:1 57:1 61:1 90:1 #
-6.009533362211364249105827184394 1:1 38:1 60:1 66:1 83:1 #
-0.58516664596499179396005274611525 13:1 31:1 60:1 78:1 83:1 #
-4.0496237917755184554380321060307 13:1 25:1 45:1 73:1 96:1 #
6.6224946897277714441543139400892 10:1 24:1 56:1 71:1 98:1 #
2.0136998632150007182417539297603 15:1 24:1 56:1 68:1 98:1 #
7.1493443716920683783655476872809 15:1 37:1 57:1 73:1 98:1 #
-4.9066682261525489394671240006573 12:1 33:1 48:1 76:1 98:1 #
-3.7860543395012307144043006701395 12:1 35:1 55:1 76:1 98:1 #
-3.4686801919888523570989491418004 7:1 25:1 55:1 79:1 92:1 #
-1.9854647547464985279930260730907 1:1 33:1 50:1 68:1 95:1 #
-1.6862913771064307333347187523032 4:1 37:1 44:1 76:1 87:1 #
-1.7373600927231984680787491015508 19:1 33:1 55:1 70:1 93:1 #
-0.65589827176167592170941134099849 13:1 30:1 60:1 72:1 96:1 #
-1.8284368769140542099194135516882 3:1 24:1 46:1 76:1 90:1 #
-1.7108472156421363763456611195579 1:1 21:1 57:1 76:1 92:1 #
-1.149101912301765615609383530682 13:1 36:1 60:1 68:1 90:1 #
0.40803214948503807590896030887961 16:1 24:1 57:1 74:1 98:1 #
-0.77385646683705022752519653295167 18:1 37:1 44:1 76:1 100:1 #
-0.46979986135351392562142791575752 13:1 33:1 49:1 73:1 85:1 #
