SVM-light Version V6.02
2 # kernel type
3 # kernel parameter -d 
0.0078125 # kernel parameter -g 
1 # kernel parameter -s 
1 # kernel parameter -r 
empty# kernel parameter -u 
100 # highest feature index 
330 # number of training documents 
81 # number of support vectors plus 1 
0.29290204 # threshold b, each following line is a SV (starting with alpha*y)
-5.9157070099588704437110209255479 18:1 33:1 54:1 62:1 81:1 #
-3.8333049198687447756128676701337 1:1 32:1 58:1 67:1 81:1 #
14.971851231015783412203745683655 8:1 28:1 41:1 79:1 98:1 #
-23.99510783785360601427782967221 1:1 33:1 55:1 76:1 98:1 #
-32 4:1 23:1 56:1 63:1 98:1 #
6.4066564129274254923984699416906 10:1 32:1 43:1 80:1 98:1 #
32 1:1 34:1 57:1 75:1 90:1 #
12.272718940402821630186736001633 1:1 35:1 44:1 80:1 98:1 #
25.488223553557162404104019515216 3:1 35:1 43:1 78:1 85:1 #
6.0395993348034942016511195106432 4:1 22:1 45:1 79:1 90:1 #
-32 9:1 24:1 57:1 61:1 90:1 #
-4.969905676226254342964239185676 18:1 37:1 56:1 74:1 90:1 #
-5.5516931304195793472899822518229 4:1 21:1 41:1 73:1 84:1 #
32 15:1 23:1 54:1 76:1 88:1 #
32 15:1 23:1 56:1 78:1 98:1 #
7.9266578452855966929746500682086 15:1 28:1 56:1 76:1 98:1 #
-32 15:1 35:1 56:1 76:1 98:1 #
-32 15:1 37:1 57:1 73:1 98:1 #
-6.4843476732450646693450835300609 18:1 21:1 58:1 76:1 93:1 #
26.545771975512309381883824244142 9:1 37:1 59:1 68:1 90:1 #
4.2709899863256879370965179987252 15:1 29:1 43:1 80:1 98:1 #
13.25815409675530887056993378792 4:1 37:1 59:1 70:1 90:1 #
-1.4237678985495580974429685738869 1:1 40:1 43:1 78:1 96:1 #
-32 6:1 23:1 57:1 76:1 90:1 #
3.68672688838432804914191365242 5:1 22:1 45:1 80:1 90:1 #
32 8:1 24:1 57:1 67:1 98:1 #
22.640873853216739064464491093531 9:1 24:1 56:1 70:1 98:1 #
1.9590221633627686870227080362383 9:1 38:1 43:1 76:1 98:1 #
-32 10:1 38:1 57:1 76:1 98:1 #
-30.479681186866315556471818126738 8:1 24:1 56:1 63:1 98:1 #
-0.96729739789071800259989686310291 13:1 24:1 55:1 71:1 83:1 #
9.8918466041552903789124684408307 6:1 26:1 44:1 73:1 90:1 #
32 10:1 24:1 57:1 76:1 90:1 #
29.87504284002039867118583060801 18:1 35:1 50:1 71:1 90:1 #
-16.452265942032404666406364412978 20:1 24:1 55:1 68:1 90:1 #
-14.837184479723418917274102568626 18:1 27:1 43:1 64:1 90:1 #
-2.6579686914324440749624045565724 4:1 24:1 44:1 64:1 86:1 #
1.2893644418515535221558820921928 17:1 26:1 48:1 74:1 98:1 #
12.572725416169532763888128101826 11:1 38:1 57:1 64:1 98:1 #
32 18:1 30:1 56:1 76:1 98:1 #
-12.816605181407183522424020338804 18:1 36:1 50:1 77:1 81:1 #
-32 8:1 34:1 57:1 74:1 88:1 #
-13.217160896049540141916622815188 1:1 39:1 56:1 78:1 96:1 #
32 4:1 25:1 48:1 66:1 81:1 #
32 15:1 38:1 56:1 61:1 90:1 #
12.795894874710096900116695906036 9:1 24:1 60:1 65:1 85:1 #
-0.27824164026444009323313366621733 19:1 23:1 56:1 76:1 91:1 #
-5.8409016851220911803466151468456 17:1 24:1 44:1 70:1 84:1 #
-19.747678874702103257732233032584 15:1 32:1 56:1 66:1 82:1 #
28.710868638070415670426882570609 6:1 24:1 57:1 77:1 98:1 #
15.576615297770043611080836853944 14:1 24:1 57:1 75:1 90:1 #
-2.3694327252468383449013344943523 3:1 36:1 56:1 72:1 82:1 #
-32 15:1 24:1 57:1 63:1 90:1 #
-16.642046867189865366754020215012 16:1 37:1 53:1 66:1 90:1 #
-7.5422307111828335024483749293722 18:1 30:1 41:1 64:1 81:1 #
28.611008845177298809403509949334 17:1 21:1 44:1 71:1 85:1 #
-13.409034103982349961370346136391 18:1 35:1 55:1 75:1 89:1 #
-15.132150557661663725639300537296 17:1 35:1 44:1 69:1 93:1 #
17.880601753725766656089035677724 11:1 30:1 57:1 63:1 98:1 #
-8.5207192859004692309099482372403 1:1 31:1 43:1 76:1 88:1 #
17.108257239060094434535130858421 10:1 34:1 56:1 61:1 98:1 #
-2.2160239688537899382936302572489 6:1 24:1 53:1 61:1 87:1 #
-13.856157969597694190611036901828 17:1 24:1 45:1 70:1 92:1 #
-2.2153533498394804013287284760736 4:1 40:1 56:1 74:1 100:1 #
26.089993837991475089665982523002 15:1 26:1 57:1 76:1 88:1 #
11.901447078184133943068445660174 15:1 26:1 51:1 76:1 88:1 #
-15.019888453563966734805035230238 15:1 24:1 56:1 64:1 88:1 #
-18.104442403825490970348255359568 17:1 23:1 43:1 71:1 99:1 #
-2.0460353136105791094223604886793 17:1 31:1 42:1 62:1 95:1 #
-1.2158172997107659085713748936541 1:1 21:1 43:1 65:1 93:1 #
8.1672936726907678917086741421372 10:1 30:1 57:1 63:1 98:1 #
-9.6579142505565407361700636101887 14:1 30:1 53:1 64:1 96:1 #
-11.195994531954239548099394596647 18:1 24:1 50:1 76:1 83:1 #
-13.773543746529462339367455570027 19:1 36:1 41:1 78:1 81:1 #
-4.1411607188785835020894410263281 18:1 36:1 56:1 67:1 86:1 #
-17.377798118147396166932594496757 16:1 37:1 43:1 68:1 85:1 #
-17.295429419631570766568984254263 1:1 34:1 44:1 61:1 84:1 #
-3.6687312369127447198025038233027 15:1 21:1 58:1 64:1 81:1 #
-0.58135033296872506980434991419315 17:1 29:1 49:1 76:1 82:1 #
-0.48813133376893347303848713636398 15:1 33:1 55:1 78:1 87:1 #
