SVM-light Version V6.02
2 # kernel type
3 # kernel parameter -d 
0.03125 # kernel parameter -g 
1 # kernel parameter -s 
1 # kernel parameter -r 
empty# kernel parameter -u 
100 # highest feature index 
60 # number of training documents 
33 # number of support vectors plus 1 
1.170327 # threshold b, each following line is a SV (starting with alpha*y)
2.1888279842785540729721560637699 16:1 32:1 56:1 63:1 98:1 #
5.2211182507351630022185418056324 12:1 24:1 56:1 80:1 96:1 #
-2.4292566599134417515415407251567 1:1 35:1 45:1 66:1 90:1 #
-0.0082523038685806682224210817366838 5:1 34:1 44:1 76:1 96:1 #
-1.8304640593321703789797538775019 5:1 23:1 50:1 64:1 81:1 #
7.4617487907317947559704407467507 1:1 23:1 56:1 74:1 98:1 #
7.702852396708438575956279237289 1:1 37:1 56:1 63:1 81:1 #
2.0718502789345194514680770225823 4:1 24:1 56:1 76:1 98:1 #
7.1812278847062191999839342315681 6:1 24:1 56:1 63:1 90:1 #
-8 12:1 24:1 56:1 69:1 98:1 #
-8 8:1 36:1 56:1 74:1 98:1 #
-8 17:1 26:1 56:1 63:1 81:1 #
6.1253804473159094712286787398625 15:1 24:1 57:1 77:1 98:1 #
8 16:1 36:1 56:1 77:1 81:1 #
8 12:1 34:1 56:1 78:1 98:1 #
-6.314828083674641767686352977762 16:1 37:1 56:1 61:1 89:1 #
-3.3721241305091282924877305049449 6:1 21:1 53:1 77:1 90:1 #
-4.4516679899664799435754503065255 15:1 34:1 56:1 73:1 93:1 #
6.2608884630730567977252576383762 16:1 24:1 56:1 69:1 98:1 #
-4.5340825823210977318922232370824 16:1 24:1 43:1 70:1 84:1 #
-2.2893022695429126045496559527237 9:1 33:1 56:1 71:1 100:1 #
-2.1691859732717415631952917465242 14:1 27:1 56:1 75:1 99:1 #
-1.762371349554996413644403219223 11:1 37:1 52:1 78:1 96:1 #
-1.2515927989361022021341796062188 18:1 30:1 47:1 69:1 98:1 #
-2.1850909634675015347227144957287 15:1 34:1 53:1 74:1 98:1 #
-0.96648186281322256974135598284192 4:1 29:1 48:1 78:1 90:1 #
-0.7946134794711952054058201611042 10:1 40:1 57:1 76:1 86:1 #
-0.56309266825815273982414055353729 14:1 31:1 54:1 63:1 94:1 #
-0.61956084257689392202905764861498 5:1 36:1 58:1 69:1 98:1 #
-0.51554298344530868902779729978647 17:1 23:1 56:1 61:1 90:1 #
-0.064565180193836724242828495334834 13:1 30:1 57:1 67:1 90:1 #
-0.091818315366255731646560889203101 12:1 32:1 51:1 74:1 94:1 #
