SVM-light Version V6.02
2 # kernel type
3 # kernel parameter -d 
0.125 # kernel parameter -g 
1 # kernel parameter -s 
1 # kernel parameter -r 
empty# kernel parameter -u 
100 # highest feature index 
162 # number of training documents 
83 # number of support vectors plus 1 
2.0703322 # threshold b, each following line is a SV (starting with alpha*y)
-0.60205914871610677341351447466877 10:1 34:1 56:1 61:1 98:1 #
2 9:1 24:1 56:1 70:1 98:1 #
2 14:1 24:1 57:1 75:1 90:1 #
-0.91203327773927567179157449572813 14:1 24:1 53:1 61:1 90:1 #
-0.0021347290770981075525014603044838 1:1 34:1 57:1 75:1 90:1 #
2 3:1 24:1 57:1 72:1 90:1 #
2 3:1 24:1 57:1 76:1 88:1 #
2 4:1 24:1 56:1 76:1 98:1 #
0.72244142111803288930360622543958 5:1 24:1 57:1 75:1 98:1 #
2 6:1 24:1 57:1 77:1 98:1 #
-2 18:1 24:1 57:1 63:1 98:1 #
-1.0227806393453340305654819530901 17:1 24:1 57:1 72:1 96:1 #
-1.3120060607713912581573367788224 12:1 24:1 56:1 69:1 98:1 #
2 9:1 34:1 57:1 76:1 98:1 #
2 8:1 22:1 57:1 75:1 98:1 #
2 15:1 24:1 56:1 61:1 88:1 #
-0.91615190172698335313583584138541 6:1 23:1 57:1 77:1 98:1 #
-0.78653869364822426302197300174157 3:1 31:1 57:1 76:1 88:1 #
-0.93760513648146726062293510040035 9:1 38:1 57:1 77:1 98:1 #
2 8:1 24:1 56:1 63:1 98:1 #
2 10:1 24:1 56:1 64:1 98:1 #
1.8562262923976025064121131435968 10:1 24:1 56:1 71:1 98:1 #
-2 15:1 24:1 56:1 78:1 98:1 #
-0.31365634141000969803414477610204 15:1 24:1 56:1 64:1 88:1 #
-1.1008609345964028847220106399618 15:1 24:1 56:1 80:1 88:1 #
2 9:1 24:1 57:1 67:1 90:1 #
1.9336908026735606380697163331206 10:1 24:1 57:1 77:1 90:1 #
2 16:1 24:1 57:1 74:1 98:1 #
-0.55754366274195898967036555404775 4:1 24:1 43:1 61:1 90:1 #
-0.15903283591263056573339440546988 9:1 29:1 56:1 61:1 90:1 #
-2 15:1 24:1 57:1 66:1 90:1 #
2 15:1 24:1 56:1 68:1 98:1 #
2 9:1 24:1 56:1 76:1 88:1 #
2 15:1 24:1 57:1 77:1 98:1 #
-0.94056271625882637010818143608049 11:1 24:1 60:1 68:1 98:1 #
-1.1552916465866438500142976408824 3:1 34:1 56:1 76:1 98:1 #
-1.3488172017423052384543780135573 16:1 24:1 56:1 76:1 83:1 #
2 9:1 24:1 57:1 61:1 90:1 #
-2 9:1 24:1 57:1 64:1 82:1 #
-1.5576940843679152326473058565171 9:1 24:1 57:1 78:1 81:1 #
-2 15:1 24:1 57:1 63:1 90:1 #
-0.87386711025614105530223696405301 9:1 33:1 56:1 75:1 98:1 #
-1.0911989737512934883767456994974 6:1 24:1 41:1 61:1 98:1 #
-0.63791092176613739539448033610824 20:1 24:1 58:1 76:1 88:1 #
-0.47993362952145118827118608351157 9:1 24:1 50:1 74:1 85:1 #
-1.7640114085499907226051163888769 16:1 24:1 56:1 69:1 98:1 #
-0.13280906936862565959067694620899 9:1 27:1 56:1 77:1 90:1 #
-0.55510051820482719797666959493654 16:1 24:1 56:1 75:1 100:1 #
1.5892216189303902673657375999028 9:1 24:1 56:1 76:1 90:1 #
1.2389033415100254575946792101604 13:1 24:1 57:1 76:1 98:1 #
-1.9529557235782739610385760897771 10:1 38:1 57:1 76:1 98:1 #
-1.0797490242980720687171469762689 18:1 24:1 42:1 76:1 98:1 #
-1.2332342399894671292059911138494 10:1 33:1 57:1 75:1 90:1 #
1.5805588464842990070735595509177 20:1 24:1 57:1 75:1 98:1 #
0.73038079226905250340706743372721 10:1 24:1 56:1 75:1 98:1 #
-0.80366559941700010938347986666486 9:1 37:1 56:1 67:1 98:1 #
-0.48784527497170437904117079597199 17:1 24:1 58:1 77:1 98:1 #
-0.58922746310848683748417897731997 17:1 24:1 56:1 75:1 92:1 #
0.66843029990463898037944545649225 10:1 24:1 57:1 76:1 90:1 #
-0.95966121201901610771045625369879 3:1 27:1 57:1 75:1 90:1 #
-0.56841246897634745138816469989251 8:1 21:1 57:1 64:1 98:1 #
-0.31830495976304939986789577233139 8:1 36:1 57:1 63:1 98:1 #
-0.2961637604341720853007302594051 15:1 24:1 56:1 70:1 94:1 #
-0.6527507073095867307088724373898 2:1 24:1 54:1 61:1 98:1 #
-1.0911780259212464638807205119519 20:1 24:1 56:1 64:1 88:1 #
-0.84111029880244247980414229459711 9:1 23:1 57:1 70:1 98:1 #
-0.75415810980769215632335544796661 1:1 24:1 47:1 77:1 90:1 #
-0.27387519008447447355081294517731 9:1 29:1 57:1 76:1 95:1 #
-0.53381594022660527887325088158832 4:1 24:1 51:1 76:1 86:1 #
-0.39593250023908621582080513690016 18:1 24:1 56:1 73:1 90:1 #
-0.46689329542387580929130308504682 1:1 24:1 57:1 73:1 94:1 #
-0.33530011860120073619029312794737 9:1 26:1 57:1 73:1 98:1 #
0.44977471405762198264355333776621 8:1 24:1 57:1 67:1 98:1 #
-0.69237964123189232878985421848483 12:1 24:1 58:1 77:1 98:1 #
-0.39837802490057205861972988714115 17:1 24:1 46:1 68:1 98:1 #
-0.27327679732597653927683722940856 8:1 34:1 57:1 74:1 88:1 #
-0.23414796705735035908801933146606 13:1 24:1 43:1 76:1 95:1 #
-0.037299868842881223063301376896561 16:1 24:1 56:1 70:1 91:1 #
-0.20486516616083938480130655079847 13:1 24:1 60:1 76:1 84:1 #
-0.073414274189465111852825884852791 20:1 31:1 57:1 72:1 98:1 #
-0.021649702491552957894782593939453 19:1 24:1 57:1 78:1 91:1 #
-0.040382131631852627440260050661891 15:1 24:1 57:1 63:1 88:1 #
