SVM-light Version V6.02
2 # kernel type
3 # kernel parameter -d 
0.125 # kernel parameter -g 
1 # kernel parameter -s 
1 # kernel parameter -r 
empty# kernel parameter -u 
100 # highest feature index 
162 # number of training documents 
62 # number of support vectors plus 1 
1.0085294 # threshold b, each following line is a SV (starting with alpha*y)
-0.39810809231926386209110546587908 17:1 24:1 44:1 62:1 96:1 #
-0.6512352842233319893949783363496 12:1 33:1 60:1 73:1 98:1 #
0.37162996450842866735797542787623 10:1 40:1 45:1 63:1 98:1 #
-1.2574406155535555740243580657989 9:1 32:1 41:1 80:1 98:1 #
-0.05567707496750495810289294240647 19:1 35:1 44:1 77:1 88:1 #
1.1558333548697845571950892917812 4:1 24:1 45:1 80:1 81:1 #
0.066661820949614453146736536837125 5:1 25:1 45:1 63:1 98:1 #
0.10355364632580554840046715980861 19:1 25:1 45:1 63:1 98:1 #
0.89045322967821505244501167908311 7:1 25:1 45:1 63:1 98:1 #
0.37991982176701633022730675293133 8:1 25:1 45:1 63:1 98:1 #
-1.0253020562504779888968187151477 7:1 29:1 45:1 75:1 83:1 #
-1.4371618958397198717591436434304 13:1 36:1 45:1 64:1 89:1 #
-0.32368108478790080795306494110264 15:1 25:1 50:1 67:1 81:1 #
0.85131233000369477270652396327932 9:1 24:1 60:1 65:1 88:1 #
2.6124812212148524892540990549605 9:1 24:1 59:1 70:1 88:1 #
2.9003543666926439037467844173079 9:1 24:1 60:1 65:1 85:1 #
-0.76398970889991746346936452027876 16:1 24:1 56:1 70:1 91:1 #
-0.85967322524667566518985495349625 8:1 24:1 57:1 70:1 95:1 #
-0.94801252539507074867941582851927 9:1 24:1 42:1 73:1 96:1 #
2.6511656967449876987075185752474 16:1 36:1 45:1 70:1 98:1 #
1.5973731619777367107815280178329 14:1 25:1 45:1 72:1 98:1 #
1.2776724861294601609529308916535 18:1 40:1 45:1 80:1 98:1 #
-0.73190968507131926035214064540924 16:1 30:1 49:1 72:1 98:1 #
-1.3179104038386357800050063815434 9:1 35:1 45:1 69:1 91:1 #
-0.86545612125174564699392476541107 10:1 24:1 50:1 74:1 98:1 #
1.3981865542918687772555585979717 12:1 24:1 45:1 80:1 81:1 #
1.3522296741765669203516608831706 15:1 40:1 45:1 63:1 88:1 #
-0.86966040884418993606175263266778 18:1 24:1 46:1 75:1 85:1 #
-0.57195965291457584456225049507339 3:1 25:1 58:1 65:1 90:1 #
-0.56740166310650819170291470072698 16:1 28:1 60:1 80:1 87:1 #
1.1177410052115102079284270075732 17:1 39:1 45:1 63:1 98:1 #
-0.99256121971834310180327065609163 15:1 27:1 51:1 70:1 98:1 #
-0.62266137279543198879139254131587 9:1 37:1 53:1 76:1 98:1 #
-0.72650843222633409990152131285868 7:1 35:1 57:1 63:1 88:1 #
0.078538829699444298593213886761077 9:1 24:1 45:1 80:1 81:1 #
-0.53759417761160954718491211679066 6:1 26:1 48:1 65:1 81:1 #
-0.18764218644119254331137369717908 20:1 38:1 54:1 65:1 97:1 #
-0.49095652492714353387626147195988 16:1 33:1 60:1 74:1 88:1 #
-0.28205445938689566176549305964727 18:1 36:1 56:1 70:1 93:1 #
-0.19238002344321772363322509136196 9:1 36:1 54:1 76:1 92:1 #
-0.29588175754479129064833387019462 10:1 24:1 54:1 71:1 84:1 #
-0.17428469490698622612612211923988 15:1 25:1 43:1 66:1 94:1 #
-0.17615809549597211125515627827554 16:1 24:1 55:1 64:1 93:1 #
-0.1261308736011576003832601600152 17:1 30:1 43:1 77:1 85:1 #
-0.13560747756057961455056215527293 17:1 25:1 56:1 69:1 81:1 #
-0.11550199622493899365149871982794 2:1 22:1 53:1 65:1 93:1 #
-0.066740599865056843276178710766544 10:1 33:1 53:1 70:1 81:1 #
-0.11667030191828564600342588164494 12:1 37:1 49:1 78:1 85:1 #
-0.09165641058331019941363138059387 17:1 33:1 56:1 66:1 88:1 #
-0.081854265529847314297740012989379 13:1 35:1 54:1 63:1 85:1 #
-0.13333632561965791385460988749401 16:1 23:1 50:1 70:1 82:1 #
-0.13240353825296874434869209835597 16:1 33:1 41:1 72:1 98:1 #
-0.041040071514651832451647806010442 4:1 23:1 60:1 75:1 90:1 #
-0.05953606659106258636171560283401 4:1 22:1 60:1 74:1 95:1 #
-0.051157534743387619857735160167067 19:1 37:1 58:1 64:1 88:1 #
-0.043757241514021424921843106403685 15:1 29:1 44:1 65:1 94:1 #
-0.072173924244592457810654195782263 18:1 38:1 54:1 80:1 87:1 #
-0.10833439495275071218216567103809 18:1 30:1 56:1 70:1 81:1 #
-0.057253412652489496514895961354341 3:1 24:1 56:1 61:1 83:1 #
-0.03614672410850107431290467729923 2:1 21:1 53:1 67:1 85:1 #
-0.012543561756059432021892519060202 6:1 24:1 50:1 79:1 89:1 #
