SVM-light Version V6.02
2 # kernel type
3 # kernel parameter -d 
0.00012207031 # kernel parameter -g 
1 # kernel parameter -s 
1 # kernel parameter -r 
empty# kernel parameter -u 
100 # highest feature index 
306 # number of training documents 
71 # number of support vectors plus 1 
2.3825414 # threshold b, each following line is a SV (starting with alpha*y)
-602.41027255333028733730316162109 9:1 29:1 57:1 61:1 93:1 #
-125.39960916014388203620910644531 10:1 27:1 57:1 67:1 88:1 #
-334.04706976012676022946834564209 13:1 34:1 56:1 79:1 94:1 #
-622.57186140475096181035041809082 15:1 37:1 47:1 72:1 98:1 #
2048 6:1 29:1 43:1 80:1 98:1 #
997.87740113824111176654696464539 1:1 35:1 44:1 80:1 98:1 #
2048 1:1 36:1 52:1 80:1 98:1 #
-242.60786523687420412898063659668 18:1 24:1 57:1 78:1 98:1 #
-1485.831700742768589407205581665 5:1 29:1 44:1 68:1 90:1 #
-1474.615683076204732060432434082 14:1 36:1 57:1 61:1 98:1 #
-364.88470691879047080874443054199 18:1 36:1 57:1 66:1 90:1 #
-1086.7621616240357980132102966309 15:1 36:1 57:1 64:1 90:1 #
2048 9:1 24:1 56:1 70:1 98:1 #
2048 9:1 32:1 41:1 80:1 98:1 #
-331.37163351201161276549100875854 2:1 35:1 56:1 66:1 98:1 #
859.82072392199188470840454101562 5:1 35:1 57:1 65:1 98:1 #
-2048 9:1 24:1 60:1 80:1 98:1 #
-2048 9:1 29:1 52:1 80:1 98:1 #
-2048 10:1 26:1 41:1 80:1 98:1 #
2048 10:1 36:1 57:1 67:1 90:1 #
2048 18:1 23:1 57:1 75:1 98:1 #
2048 5:1 36:1 57:1 62:1 98:1 #
-487.25325834052637219429016113281 18:1 22:1 57:1 69:1 98:1 #
-1906.304901871946640312671661377 1:1 34:1 57:1 75:1 90:1 #
-1090.4113338920142268761992454529 16:1 35:1 57:1 75:1 90:1 #
2048 15:1 29:1 43:1 80:1 98:1 #
467.86741588299628347158432006836 9:1 40:1 43:1 80:1 98:1 #
2048 16:1 29:1 44:1 80:1 98:1 #
-494.27882920647971332073211669922 16:1 37:1 56:1 63:1 98:1 #
-1799.2686586948111653327941894531 8:1 28:1 41:1 79:1 98:1 #
-507.65046703303232789039611816406 9:1 38:1 44:1 70:1 98:1 #
2048 19:1 35:1 57:1 79:1 90:1 #
-2.9353626347146928310394287109375 9:1 24:1 45:1 80:1 81:1 #
-317.91407908860128372907638549805 20:1 36:1 57:1 67:1 85:1 #
-140.34973901184275746345520019531 13:1 30:1 58:1 79:1 84:1 #
2048 8:1 29:1 56:1 79:1 98:1 #
-1942.9530631458837888203561306 15:1 36:1 56:1 70:1 98:1 #
2048 10:1 34:1 57:1 79:1 88:1 #
2048 20:1 35:1 57:1 80:1 90:1 #
2048 9:1 37:1 55:1 79:1 84:1 #
-272.97241499180381651967763900757 19:1 27:1 53:1 79:1 90:1 #
-2048 20:1 35:1 50:1 79:1 88:1 #
-761.00954625282793131191283464432 10:1 25:1 53:1 79:1 84:1 #
1372.071291631596977822482585907 9:1 36:1 54:1 80:1 98:1 #
-2048 17:1 29:1 52:1 80:1 98:1 #
-801.39615107068675570189952850342 20:1 24:1 43:1 80:1 100:1 #
-535.04903405136428773403167724609 12:1 40:1 54:1 80:1 95:1 #
1845.3043247413006611168384552002 15:1 34:1 57:1 79:1 98:1 #
-373.52137859759386628866195678711 16:1 33:1 57:1 62:1 98:1 #
-742.90474290691781789064407348633 16:1 23:1 57:1 69:1 98:1 #
-623.40655409517057705670595169067 10:1 32:1 46:1 73:1 98:1 #
-599.03954845755652058869600296021 9:1 36:1 41:1 67:1 98:1 #
-428.92227341886609792709350585938 10:1 29:1 57:1 63:1 82:1 #
2048 5:1 37:1 50:1 79:1 90:1 #
257.10938773880479857325553894043 8:1 29:1 57:1 80:1 90:1 #
-1113.1432905690162442624568939209 19:1 33:1 43:1 79:1 96:1 #
-44.801163636147975921630859375 18:1 37:1 49:1 70:1 98:1 #
994.94800901075359433889389038086 10:1 37:1 46:1 80:1 98:1 #
-504.60311135835945606231689453125 5:1 23:1 43:1 78:1 90:1 #
-800.29758176673203706741333007812 3:1 23:1 51:1 80:1 90:1 #
-1423.3898964711333974264562129974 18:1 37:1 57:1 62:1 81:1 #
-361.40114560164511203765869140625 11:1 30:1 57:1 64:1 98:1 #
-2048 10:1 38:1 57:1 76:1 98:1 #
-79.240558356250403448939323425293 8:1 22:1 48:1 80:1 89:1 #
523.12031935414415784180164337158 20:1 37:1 57:1 79:1 90:1 #
-1807.5619211405719397589564323425 6:1 34:1 60:1 79:1 98:1 #
-331.67418212012853473424911499023 19:1 36:1 53:1 79:1 91:1 #
1795.0764937312342226505279541016 10:1 38:1 57:1 79:1 98:1 #
-156.72631971322698518633842468262 13:1 36:1 57:1 77:1 90:1 #
-424.31229566905312822200357913971 16:1 35:1 55:1 77:1 98:1 #
