SVM-light Version V6.02
2 # kernel type
3 # kernel parameter -d 
0.0078125 # kernel parameter -g 
1 # kernel parameter -s 
1 # kernel parameter -r 
empty# kernel parameter -u 
100 # highest feature index 
342 # number of training documents 
45 # number of support vectors plus 1 
1.6480497 # threshold b, each following line is a SV (starting with alpha*y)
19.664963562154071041732095181942 15:1 37:1 46:1 79:1 90:1 #
-19.243044199940616323374342755415 15:1 30:1 55:1 79:1 97:1 #
6.8142552979505808252724818885326 20:1 36:1 58:1 79:1 90:1 #
-24.023400171503396904881810769439 5:1 25:1 55:1 75:1 90:1 #
26.173337835716438348754309117794 2:1 36:1 43:1 79:1 95:1 #
-3.8240845273202523912914330139756 7:1 36:1 46:1 73:1 96:1 #
-3.89698245655961272859713062644 9:1 36:1 42:1 77:1 98:1 #
10.393486315935092534346040338278 8:1 36:1 55:1 79:1 88:1 #
2.7136349813781066586670931428671 18:1 36:1 43:1 79:1 88:1 #
-2.7849012668355044297641143202782 11:1 30:1 45:1 61:1 90:1 #
-8.6679419863344833174778614193201 18:1 36:1 44:1 68:1 90:1 #
-7.4581398920053914025629637762904 10:1 36:1 43:1 64:1 83:1 #
59.403040578032658913798513822258 19:1 25:1 45:1 63:1 99:1 #
8.1758276045646223195717539056204 19:1 25:1 45:1 80:1 99:1 #
12.866904890544585526868104352616 8:1 36:1 53:1 79:1 98:1 #
-46.095253315374435487683513201773 13:1 39:1 46:1 79:1 99:1 #
-24.108699618288255805964581668377 2:1 21:1 56:1 79:1 94:1 #
8.4562487523469052064228890230879 10:1 36:1 44:1 79:1 88:1 #
28.717493155510624092130456119776 10:1 36:1 55:1 79:1 90:1 #
13.349339760506381935556419193745 18:1 36:1 46:1 79:1 90:1 #
-13.388295476579173737263772636652 8:1 36:1 58:1 66:1 90:1 #
-0.20550106653877264761831611394882 12:1 36:1 42:1 74:1 89:1 #
-40.601907608816674155605142004788 10:1 36:1 57:1 63:1 90:1 #
10.425766223085833672712396946736 19:1 40:1 56:1 79:1 98:1 #
11.551794492929658986213325988501 5:1 37:1 46:1 79:1 85:1 #
-15.057495877698315212001034524292 8:1 28:1 45:1 63:1 98:1 #
-2.7672930697983133541129063814878 1:1 36:1 43:1 67:1 93:1 #
-4.8619836036706942650198470801115 15:1 36:1 43:1 77:1 84:1 #
43.967842766552195143958670087159 5:1 36:1 57:1 79:1 90:1 #
2.8325399772252239927183836698532 18:1 36:1 47:1 79:1 90:1 #
-26.062966465164606688631465658545 18:1 24:1 57:1 79:1 95:1 #
-15.270919979661925935943145304918 19:1 36:1 49:1 76:1 97:1 #
-10.100808809851887559716487885453 17:1 37:1 53:1 67:1 90:1 #
8.0921585316459641035180538892746 11:1 37:1 47:1 79:1 98:1 #
-1.9836878514409335139134782366455 6:1 22:1 45:1 80:1 100:1 #
-3.3338667437976994278869824483991 5:1 32:1 45:1 70:1 87:1 #
6.5505217008595479910582071170211 17:1 37:1 46:1 79:1 90:1 #
-9.2086092080928096947900485247374 5:1 36:1 50:1 69:1 85:1 #
-4.8293879260781977791339159011841 4:1 36:1 58:1 70:1 90:1 #
-3.5076488341712774854386225342751 5:1 25:1 56:1 69:1 90:1 #
6.0797259078855745428882073611021 8:1 37:1 52:1 79:1 90:1 #
-2.9228478097819845515914494171739 7:1 37:1 48:1 72:1 88:1 #
8.6461437308034874149598181247711 10:1 36:1 46:1 79:1 91:1 #
-0.66935830032285403845548898971174 2:1 36:1 51:1 63:1 83:1 #
