SVM-light Version V6.02
2 # kernel type
3 # kernel parameter -d 
0.00048828125 # kernel parameter -g 
1 # kernel parameter -s 
1 # kernel parameter -r 
empty# kernel parameter -u 
100 # highest feature index 
882 # number of training documents 
80 # number of support vectors plus 1 
2.9679632 # threshold b, each following line is a SV (starting with alpha*y)
1052.6782776305917650461196899414 9:1 21:1 57:1 75:1 90:1 #
2048 11:1 38:1 57:1 64:1 98:1 #
-222.17710084689315408468246459961 16:1 36:1 57:1 61:1 84:1 #
-259.25560587626387132331728935242 4:1 23:1 43:1 69:1 82:1 #
-875.41489784419536590576171875 3:1 24:1 57:1 76:1 88:1 #
2048 4:1 24:1 56:1 76:1 98:1 #
-125.31845416361466050148010253906 18:1 27:1 49:1 69:1 90:1 #
2048 4:1 37:1 50:1 68:1 90:1 #
-2048 4:1 23:1 56:1 63:1 98:1 #
-600.48158791784226195886731147766 4:1 37:1 52:1 68:1 81:1 #
-1495.4743616940759238786995410919 16:1 37:1 50:1 73:1 98:1 #
2048 16:1 24:1 57:1 69:1 88:1 #
1312.9196694052661769092082977295 10:1 34:1 57:1 64:1 98:1 #
-228.59244679776747943833470344543 17:1 24:1 43:1 78:1 90:1 #
-160.93257761205313727259635925293 4:1 24:1 55:1 70:1 88:1 #
-249.15787181926680204924196004868 14:1 24:1 43:1 65:1 88:1 #
127.07857410071301274001598358154 6:1 24:1 57:1 61:1 98:1 #
-60.607315586366894422098994255066 5:1 25:1 50:1 64:1 84:1 #
1981.7724038867745548486709594727 18:1 39:1 56:1 63:1 98:1 #
-399.3409946715819387463852763176 16:1 39:1 48:1 68:1 89:1 #
-108.31325663227471522986888885498 5:1 30:1 57:1 79:1 90:1 #
-43.497144938766723498702049255371 6:1 36:1 50:1 64:1 90:1 #
-35.430613952863495796918869018555 5:1 35:1 54:1 69:1 94:1 #
2048 15:1 23:1 57:1 73:1 98:1 #
-38.743695851831944310106337070465 5:1 21:1 43:1 70:1 100:1 #
-1076.2078099329664837568998336792 15:1 28:1 56:1 76:1 98:1 #
-207.39357577823102474212646484375 15:1 26:1 49:1 72:1 98:1 #
-319.49224214421701617538928985596 15:1 21:1 51:1 80:1 98:1 #
2048 10:1 24:1 57:1 76:1 90:1 #
580.95538938359823077917098999023 15:1 21:1 57:1 75:1 90:1 #
-908.27283818367141066119074821472 10:1 33:1 57:1 75:1 90:1 #
-2048 13:1 24:1 57:1 76:1 98:1 #
-45.499889398925915884319692850113 4:1 36:1 53:1 78:1 92:1 #
305.18453917631995864212512969971 15:1 32:1 48:1 79:1 98:1 #
177.94889889784099068492650985718 14:1 36:1 56:1 75:1 98:1 #
-376.27917329202682594768702983856 9:1 38:1 44:1 70:1 98:1 #
-138.18413468240032671019434928894 9:1 31:1 44:1 69:1 88:1 #
-2048 10:1 24:1 56:1 71:1 98:1 #
1007.2250763447518693283200263977 10:1 36:1 56:1 75:1 98:1 #
747.34239795718167442828416824341 17:1 27:1 57:1 70:1 98:1 #
-14.9510917432380665559321641922 1:1 36:1 57:1 63:1 90:1 #
376.27322186736546427709981799126 6:1 37:1 43:1 68:1 99:1 #
-735.86493545553821604698896408081 17:1 34:1 57:1 66:1 99:1 #
-1462.6338708171060716267675161362 12:1 21:1 57:1 75:1 90:1 #
-2048 16:1 24:1 57:1 74:1 98:1 #
687.14601083182787988334894180298 10:1 24:1 56:1 64:1 98:1 #
-484.35998568972172506619244813919 16:1 36:1 57:1 63:1 86:1 #
-356.55153847381006926298141479492 18:1 27:1 56:1 64:1 85:1 #
-848.24764051183592528104782104492 6:1 36:1 58:1 64:1 98:1 #
-67.382984050287632271647453308105 10:1 24:1 56:1 77:1 90:1 #
648.70272918354021385312080383301 13:1 24:1 57:1 79:1 98:1 #
-41.289558653894346207380294799805 20:1 32:1 57:1 62:1 94:1 #
746.39383031880061025731265544891 12:1 24:1 57:1 78:1 98:1 #
-34.946222789440071210265159606934 10:1 34:1 56:1 61:1 98:1 #
-2048 10:1 38:1 57:1 76:1 98:1 #
1477.8305306057336565572768449783 5:1 36:1 56:1 76:1 98:1 #
2048 16:1 37:1 43:1 68:1 99:1 #
-1247.7274527106767436634982004762 1:1 37:1 56:1 68:1 90:1 #
-132.84100785679129330674186348915 18:1 36:1 59:1 72:1 99:1 #
-166.39689246073248796164989471436 11:1 37:1 56:1 79:1 91:1 #
980.70920685255259741097688674927 19:1 24:1 57:1 71:1 98:1 #
-339.38800384166847834421787410975 19:1 23:1 57:1 61:1 88:1 #
-1949.5731059011159231886267662048 11:1 30:1 57:1 64:1 98:1 #
555.13083453802391886711120605469 9:1 32:1 56:1 61:1 98:1 #
-178.55811476198141463100910186768 20:1 32:1 43:1 69:1 93:1 #
53.760576430388027802109718322754 10:1 26:1 57:1 75:1 98:1 #
-292.66528270281560253351926803589 9:1 22:1 55:1 78:1 99:1 #
-229.10111930454149842262268066406 2:1 24:1 54:1 61:1 98:1 #
-225.91701283667589450487866997719 20:1 34:1 43:1 68:1 90:1 #
-109.05911326311979792080819606781 19:1 29:1 47:1 68:1 90:1 #
-104.96712730615854525240138173103 4:1 37:1 44:1 64:1 90:1 #
530.34452085266821086406707763672 9:1 27:1 57:1 74:1 98:1 #
625.40470202197320759296417236328 8:1 24:1 56:1 63:1 98:1 #
-145.24213740379855153150856494904 17:1 24:1 41:1 69:1 90:1 #
-789.93947642248804186237975955009 18:1 24:1 56:1 73:1 90:1 #
187.80439921480137854814529418945 13:1 36:1 57:1 75:1 98:1 #
-400.20829097030218690633773803711 18:1 34:1 43:1 68:1 83:1 #
73.51421931962249800562858581543 14:1 24:1 57:1 75:1 90:1 #
-0.24045327455587539589032530784607 9:1 29:1 56:1 61:1 90:1 #
