SVM-light Version V6.02
2 # kernel type
3 # kernel parameter -d 
0.0078125 # kernel parameter -g 
1 # kernel parameter -s 
1 # kernel parameter -r 
empty# kernel parameter -u 
100 # highest feature index 
402 # number of training documents 
62 # number of support vectors plus 1 
1.4506782 # threshold b, each following line is a SV (starting with alpha*y)
-5.8696439335950127968999368022196 16:1 21:1 47:1 71:1 98:1 #
-5.3235032949745288988196989521384 3:1 30:1 56:1 78:1 98:1 #
-18.264099539207407474350475240499 5:1 30:1 57:1 79:1 90:1 #
-32 6:1 24:1 57:1 77:1 98:1 #
6.1262273971284457729780115187168 20:1 25:1 59:1 64:1 90:1 #
10.122711661539550931365738506429 5:1 37:1 57:1 70:1 90:1 #
15.263979424189756173291243612766 16:1 36:1 56:1 70:1 98:1 #
-8.0321080643904778639807773288339 17:1 22:1 50:1 71:1 90:1 #
32 8:1 25:1 56:1 77:1 90:1 #
32 9:1 24:1 56:1 70:1 98:1 #
-11.428628907407343717750336509198 8:1 28:1 54:1 70:1 87:1 #
-2.9206270619273482225253246724606 15:1 26:1 57:1 76:1 88:1 #
-4.4745034630962052801805839408189 15:1 38:1 48:1 66:1 98:1 #
22.979851167863103000854607671499 11:1 30:1 57:1 64:1 98:1 #
32 16:1 34:1 57:1 77:1 98:1 #
-32 15:1 37:1 57:1 73:1 98:1 #
-32 9:1 34:1 57:1 76:1 98:1 #
-15.095140792104960070219021872617 9:1 38:1 44:1 70:1 98:1 #
32 15:1 37:1 59:1 63:1 90:1 #
-3.5859042565646177536109462380409 15:1 38:1 55:1 70:1 84:1 #
21.020571913194984858819225337356 16:1 22:1 57:1 70:1 88:1 #
-7.4853492972476303179973911028355 15:1 30:1 49:1 69:1 90:1 #
-32 16:1 26:1 57:1 76:1 90:1 #
32 15:1 26:1 57:1 73:1 98:1 #
22.605867416605192943279689643532 14:1 28:1 57:1 69:1 98:1 #
32 18:1 23:1 57:1 75:1 98:1 #
10.718447944099921187444124370813 14:1 37:1 59:1 63:1 90:1 #
-11.061596503364157229043485131115 15:1 33:1 49:1 63:1 98:1 #
-32 10:1 24:1 56:1 71:1 98:1 #
-6.5491873017524291356039611855522 15:1 35:1 46:1 66:1 98:1 #
32 16:1 38:1 57:1 75:1 90:1 #
22.161019495497416897933362633921 16:1 27:1 57:1 71:1 90:1 #
-32 12:1 21:1 57:1 75:1 90:1 #
-6.7350464482949128353084233822301 19:1 39:1 59:1 62:1 85:1 #
-13.982596172497437692072708159685 16:1 37:1 48:1 77:1 88:1 #
32 10:1 24:1 56:1 64:1 98:1 #
19.591014017891549059413591749035 15:1 24:1 56:1 68:1 98:1 #
15.334489783682130337183480150998 15:1 24:1 56:1 64:1 88:1 #
-16.653821197527104658320240559988 9:1 25:1 56:1 61:1 96:1 #
-20.661439080898055919988109963015 15:1 29:1 55:1 64:1 88:1 #
-16.524244992807417986568907508627 16:1 27:1 44:1 73:1 98:1 #
23.097018621773731439361654338427 15:1 39:1 57:1 71:1 90:1 #
11.788968500065834632550831884146 15:1 37:1 57:1 61:1 90:1 #
-32 10:1 33:1 57:1 75:1 90:1 #
-2.4178710450517542085435707122087 20:1 35:1 41:1 75:1 90:1 #
-1.1322097155583854544147470733151 18:1 33:1 50:1 70:1 98:1 #
-15.508467294242256784286837500986 15:1 40:1 56:1 77:1 93:1 #
-1.5570294658705856605251938162837 4:1 31:1 60:1 63:1 88:1 #
-25.086237091463956971892912406474 16:1 30:1 56:1 79:1 90:1 #
8.5191636080893147209280868992209 16:1 31:1 57:1 75:1 90:1 #
-0.92505809403517247346826479770243 16:1 38:1 42:1 65:1 89:1 #
-4.5684468425185613682515395339578 18:1 38:1 45:1 70:1 81:1 #
-4.8287696499201739896989238332026 18:1 28:1 52:1 70:1 97:1 #
-0.44510158021128631844476331025362 15:1 28:1 56:1 76:1 98:1 #
-0.59740619998341770724437083117664 1:1 37:1 56:1 73:1 91:1 #
22.049743397124721866475738352165 9:1 24:1 57:1 61:1 90:1 #
-6.6012144766253371130915184039623 17:1 38:1 53:1 68:1 90:1 #
-6.6314928115919258289068238809705 10:1 34:1 56:1 61:1 98:1 #
-8.5765741136990687465413429890759 18:1 28:1 56:1 61:1 95:1 #
-6.2516991623205768746629473753273 18:1 24:1 46:1 75:1 85:1 #
-3.6040564979961402514163637533784 15:1 37:1 41:1 79:1 90:1 #
