SVM-light Version V6.02
2 # kernel type
3 # kernel parameter -d 
0.00012207031 # kernel parameter -g 
1 # kernel parameter -s 
1 # kernel parameter -r 
empty# kernel parameter -u 
100 # highest feature index 
402 # number of training documents 
100 # number of support vectors plus 1 
1.9211209 # threshold b, each following line is a SV (starting with alpha*y)
279.01000011914584320038557052612 11:1 22:1 57:1 75:1 90:1 #
427.60746290373208466917276382446 14:1 24:1 57:1 75:1 90:1 #
-512 3:1 24:1 57:1 76:1 88:1 #
512 16:1 35:1 57:1 75:1 91:1 #
512 18:1 37:1 57:1 75:1 90:1 #
512 1:1 27:1 57:1 79:1 90:1 #
512 1:1 33:1 57:1 73:1 93:1 #
-169.84977973579952958971261978149 18:1 30:1 57:1 68:1 92:1 #
324.8888650946319103240966796875 2:1 35:1 57:1 65:1 90:1 #
512 1:1 36:1 57:1 69:1 85:1 #
-512 9:1 24:1 57:1 61:1 90:1 #
-512 15:1 24:1 57:1 63:1 90:1 #
-512 18:1 26:1 57:1 63:1 90:1 #
512 9:1 24:1 56:1 70:1 98:1 #
512 17:1 21:1 56:1 70:1 85:1 #
512 8:1 24:1 57:1 67:1 98:1 #
-293.00446467436267994344234466553 20:1 28:1 57:1 70:1 97:1 #
-336.42003697087056934833526611328 17:1 36:1 41:1 72:1 90:1 #
-362.48026374373876024037599563599 17:1 31:1 57:1 73:1 87:1 #
512 10:1 24:1 57:1 76:1 90:1 #
512 2:1 35:1 57:1 61:1 90:1 #
512 17:1 37:1 56:1 76:1 90:1 #
-138.61284334226365899667143821716 18:1 26:1 57:1 67:1 82:1 #
-512 6:1 23:1 57:1 76:1 90:1 #
-512 8:1 22:1 56:1 74:1 90:1 #
512 17:1 33:1 57:1 66:1 88:1 #
512 20:1 30:1 57:1 78:1 85:1 #
512 18:1 23:1 57:1 75:1 98:1 #
-512 18:1 24:1 57:1 79:1 94:1 #
-183.34732842969242483377456665039 17:1 40:1 57:1 61:1 98:1 #
-512 18:1 23:1 57:1 64:1 85:1 #
512 16:1 36:1 56:1 77:1 90:1 #
512 8:1 35:1 56:1 75:1 90:1 #
512 3:1 24:1 57:1 72:1 90:1 #
-512 10:1 33:1 56:1 68:1 90:1 #
-37.310153611208534130128100514412 16:1 37:1 44:1 75:1 91:1 #
-512 17:1 30:1 56:1 75:1 93:1 #
512 18:1 35:1 57:1 77:1 96:1 #
512 6:1 36:1 57:1 69:1 85:1 #
512 6:1 39:1 57:1 79:1 90:1 #
-512 6:1 24:1 57:1 77:1 98:1 #
-278.02835957922070519998669624329 20:1 33:1 57:1 62:1 98:1 #
-282.818243597794207744300365448 8:1 34:1 57:1 74:1 88:1 #
512 10:1 36:1 56:1 69:1 85:1 #
308.08611579098214861005544662476 16:1 37:1 57:1 75:1 85:1 #
-512 17:1 36:1 50:1 69:1 90:1 #
-416.93313082733948249369859695435 1:1 36:1 48:1 75:1 84:1 #
-419.8753383523435331881046295166 1:1 36:1 46:1 75:1 84:1 #
512 16:1 37:1 57:1 75:1 98:1 #
512 5:1 30:1 57:1 79:1 90:1 #
512 6:1 21:1 57:1 66:1 90:1 #
-512 10:1 23:1 57:1 77:1 82:1 #
-281.62722685849439585581421852112 5:1 37:1 52:1 79:1 85:1 #
-69.341989948181435465812683105469 11:1 30:1 57:1 64:1 98:1 #
512 17:1 36:1 57:1 79:1 90:1 #
392.04644284392634290270507335663 15:1 36:1 57:1 75:1 85:1 #
-169.73645826312713325023651123047 16:1 35:1 56:1 69:1 83:1 #
-121.96337079493969213217496871948 16:1 30:1 43:1 69:1 90:1 #
-512 16:1 36:1 54:1 66:1 85:1 #
512 10:1 35:1 57:1 68:1 85:1 #
512 3:1 38:1 57:1 75:1 85:1 #
512 2:1 35:1 57:1 77:1 85:1 #
-176.29267890285700559616088867188 15:1 38:1 57:1 78:1 91:1 #
-440.37710776366293430328369140625 5:1 29:1 57:1 78:1 81:1 #
-257.09341484983451664447784423828 19:1 39:1 57:1 76:1 92:1 #
512 8:1 36:1 57:1 66:1 90:1 #
-236.52785429434152320027351379395 20:1 35:1 60:1 75:1 95:1 #
-397.6042192856548354029655456543 16:1 35:1 41:1 75:1 89:1 #
512 10:1 36:1 57:1 69:1 85:1 #
-512 6:1 35:1 58:1 65:1 85:1 #
-450.53236687861499376595020294189 14:1 21:1 55:1 70:1 85:1 #
-106.60019314430246595293283462524 5:1 36:1 44:1 73:1 90:1 #
368.79166223066567908972501754761 3:1 38:1 57:1 75:1 90:1 #
209.79259298730175942182540893555 11:1 29:1 57:1 75:1 90:1 #
-165.87114447694330010563135147095 16:1 34:1 57:1 78:1 97:1 #
-43.275318016298115253448486328125 10:1 27:1 51:1 75:1 95:1 #
-512 15:1 37:1 57:1 73:1 98:1 #
-512 17:1 21:1 59:1 69:1 90:1 #
-185.29508305928902700543403625488 7:1 35:1 43:1 64:1 90:1 #
-35.112752222827111836522817611694 20:1 32:1 57:1 65:1 98:1 #
512 15:1 21:1 57:1 75:1 85:1 #
-410.82937969897466246038675308228 15:1 24:1 57:1 77:1 98:1 #
20.373106048500631004571914672852 13:1 21:1 57:1 75:1 85:1 #
-512 10:1 38:1 57:1 76:1 98:1 #
-367.05286783585324883460998535156 19:1 35:1 49:1 75:1 100:1 #
-215.88529236506110464688390493393 9:1 36:1 52:1 71:1 90:1 #
-197.66606340568978339433670043945 11:1 30:1 50:1 66:1 90:1 #
53.656123446882702410221099853516 8:1 35:1 57:1 70:1 90:1 #
-218.02372669013857375830411911011 6:1 38:1 57:1 61:1 99:1 #
-146.71574124757898971438407897949 18:1 21:1 57:1 61:1 89:1 #
-466.65019370134314158349297940731 18:1 37:1 57:1 64:1 96:1 #
-353.48654844360135030001401901245 3:1 35:1 53:1 63:1 85:1 #
-212.52263658547599334269762039185 16:1 33:1 42:1 79:1 85:1 #
-280.14061227740603499114513397217 10:1 36:1 45:1 74:1 90:1 #
-43.770209033536957576870918273926 11:1 38:1 57:1 74:1 93:1 #
-512 20:1 38:1 57:1 69:1 88:1 #
464.50650810432853177189826965332 14:1 35:1 57:1 69:1 90:1 #
283.09218318099738098680973052979 10:1 35:1 57:1 67:1 90:1 #
-307.17666984162497101351618766785 16:1 28:1 57:1 78:1 86:1 #
