SVM-light Version V6.02
2 # kernel type
3 # kernel parameter -d 
0.125 # kernel parameter -g 
1 # kernel parameter -s 
1 # kernel parameter -r 
empty# kernel parameter -u 
100 # highest feature index 
276 # number of training documents 
93 # number of support vectors plus 1 
1.0603467 # threshold b, each following line is a SV (starting with alpha*y)
-0.022919084253050198141110627148009 6:1 30:1 50:1 69:1 84:1 #
-0.070337975064975660766108944699226 12:1 36:1 55:1 66:1 90:1 #
-0.20387615900553593406563379630825 6:1 24:1 58:1 69:1 89:1 #
0.4728354592225764152502165416081 13:1 28:1 60:1 79:1 98:1 #
-0.23350561105534872741174012844567 2:1 24:1 53:1 75:1 82:1 #
0.37803812298151973081417054345366 1:1 28:1 45:1 79:1 98:1 #
0.82286150156891091356214928964619 3:1 38:1 59:1 79:1 98:1 #
2 4:1 24:1 55:1 70:1 88:1 #
-0.39056329650228660543831438189954 13:1 24:1 44:1 73:1 88:1 #
1.9469502161130773920660885778489 6:1 25:1 51:1 79:1 88:1 #
-1.4462961691190623358949096655124 3:1 31:1 45:1 79:1 96:1 #
-1.376676443190620213741226507409 15:1 26:1 45:1 70:1 98:1 #
-0.28036590916036230325403266760986 4:1 34:1 56:1 61:1 88:1 #
2 19:1 40:1 50:1 70:1 90:1 #
2 6:1 30:1 55:1 70:1 90:1 #
2 15:1 24:1 60:1 65:1 85:1 #
-0.51749203724424530648207110061776 6:1 22:1 55:1 70:1 87:1 #
-1.5278269872034704324192944113747 10:1 24:1 48:1 70:1 85:1 #
-2 9:1 28:1 60:1 64:1 98:1 #
2 14:1 34:1 56:1 72:1 98:1 #
2 16:1 37:1 57:1 75:1 98:1 #
2 8:1 24:1 56:1 63:1 98:1 #
-2 13:1 38:1 42:1 65:1 98:1 #
-0.92564075825802283326027009024983 14:1 37:1 56:1 75:1 90:1 #
-0.66816210694910982414995714862016 14:1 25:1 56:1 75:1 90:1 #
1.8758423620492206129739543030155 18:1 24:1 60:1 65:1 85:1 #
1.6099732057867832679676212137565 17:1 24:1 59:1 65:1 85:1 #
1.6557051784387228909878331251093 9:1 28:1 45:1 79:1 98:1 #
-0.9610292647923901476758601347683 16:1 24:1 44:1 64:1 98:1 #
-0.53109536485298058927639885951066 9:1 24:1 57:1 73:1 88:1 #
-0.64471426721688551708666636841372 16:1 21:1 47:1 71:1 98:1 #
1.6296929062844465185833087161882 19:1 25:1 48:1 79:1 90:1 #
0.06364361357725513423932994783172 19:1 27:1 50:1 79:1 90:1 #
1.5232582507442800068275801095297 19:1 37:1 50:1 65:1 98:1 #
-1.1550563682705912160741945626796 19:1 25:1 55:1 76:1 95:1 #
-0.928424772790946595257821627456 19:1 22:1 48:1 65:1 86:1 #
-0.97844523455145349100092744265567 4:1 23:1 43:1 79:1 82:1 #
1.6216193392124211847260539798299 13:1 24:1 60:1 65:1 98:1 #
2 15:1 28:1 56:1 72:1 98:1 #
-1.288659467777757194895116299449 15:1 23:1 56:1 78:1 98:1 #
-1.1903956036032394827373082080157 15:1 24:1 60:1 62:1 95:1 #
-0.5820945765216698486455015881802 18:1 30:1 44:1 70:1 98:1 #
1.0163075418410403294444677158026 19:1 25:1 50:1 79:1 91:1 #
0.7898778440119393895457733378862 19:1 27:1 51:1 79:1 90:1 #
-0.86995217497025434383317588071804 6:1 28:1 49:1 65:1 94:1 #
-0.55836995800492184027774555943324 12:1 28:1 54:1 65:1 92:1 #
-0.9669061060386328065874295134563 18:1 22:1 50:1 68:1 98:1 #
0.44763762847458266058708886703243 15:1 24:1 59:1 65:1 98:1 #
-1.0783396004195533457448163972003 6:1 24:1 41:1 72:1 97:1 #
-0.80157556784995376286673263166449 15:1 34:1 56:1 70:1 90:1 #
-0.89909004280178739243467589403735 4:1 32:1 57:1 66:1 98:1 #
0.87840130329746646253852304653265 12:1 28:1 45:1 79:1 98:1 #
1.0221955763930994365296101022977 9:1 38:1 59:1 79:1 98:1 #
-1.0729656387002066697533564365585 9:1 24:1 59:1 77:1 84:1 #
-0.74967991238878717297211551340297 8:1 33:1 50:1 69:1 85:1 #
-0.75085679394897275606979292206233 15:1 30:1 56:1 65:1 91:1 #
-0.67074730064079146618638560539694 12:1 30:1 45:1 65:1 90:1 #
-0.56790134233576272659860251224018 14:1 35:1 52:1 61:1 98:1 #
0.99659193167148130143573325767647 7:1 24:1 59:1 65:1 98:1 #
-0.57019938106602108263132322463207 16:1 21:1 59:1 74:1 90:1 #
-0.59939207025428542507938800554257 7:1 36:1 50:1 65:1 89:1 #
-0.32275049394888588594199063663837 1:1 34:1 44:1 61:1 98:1 #
-0.80690461099692467605848378298106 18:1 25:1 55:1 64:1 98:1 #
-0.20731013443269208362806921286392 8:1 34:1 58:1 63:1 83:1 #
-0.46446934287494195947587627415487 15:1 28:1 47:1 72:1 96:1 #
-0.56499184315540751377682227030164 7:1 24:1 52:1 61:1 88:1 #
-0.31769886358983412399936696601799 9:1 30:1 45:1 65:1 90:1 #
-0.1562176295090536848331197461448 13:1 39:1 57:1 65:1 99:1 #
0.63732055009553401081490164870047 15:1 28:1 45:1 79:1 98:1 #
-0.25162828619070437552451835472311 15:1 40:1 50:1 75:1 89:1 #
-0.24593708300983566084063625112321 20:1 24:1 44:1 75:1 90:1 #
-0.19719133126674884270990162349335 7:1 34:1 57:1 80:1 85:1 #
-0.2656769764832011548882917395531 4:1 27:1 58:1 65:1 99:1 #
-0.28233617770039620697986038067029 9:1 24:1 57:1 74:1 90:1 #
0.4190807019346723394370712867385 15:1 38:1 59:1 79:1 98:1 #
-0.12026748089515826301010292809224 8:1 38:1 45:1 63:1 89:1 #
-0.17810030490102318756484578443633 7:1 28:1 51:1 76:1 86:1 #
-0.20431058925251432967229447967838 12:1 37:1 48:1 66:1 85:1 #
-0.22512438790656363885034352279035 15:1 24:1 57:1 70:1 97:1 #
-0.12757753217101960863111287380889 6:1 39:1 58:1 74:1 85:1 #
-0.077765498724011755671270407219708 5:1 37:1 56:1 78:1 83:1 #
-0.12838754247936712271638270976837 6:1 36:1 42:1 70:1 85:1 #
-0.12504636845450434190496480368893 18:1 24:1 53:1 61:1 81:1 #
-0.074778357691692304287656156702724 10:1 36:1 47:1 76:1 98:1 #
-0.07389094074488472552175721830281 8:1 38:1 41:1 63:1 83:1 #
-0.065047113139943810167231674768118 14:1 34:1 54:1 63:1 81:1 #
-0.069798866787266267142086917374399 17:1 21:1 46:1 63:1 92:1 #
-0.068732293406582919970126965836243 1:1 34:1 58:1 75:1 85:1 #
-0.032152403524279331292756722859849 10:1 38:1 50:1 70:1 83:1 #
-0.037443590344761398802653218353953 9:1 38:1 44:1 76:1 98:1 #
-0.021994215288759562387799206817363 15:1 27:1 56:1 69:1 90:1 #
-0.014749628024136290926904280240706 17:1 30:1 58:1 70:1 87:1 #
