SVM-light Version V6.02
2 # kernel type
3 # kernel parameter -d 
0.0078125 # kernel parameter -g 
1 # kernel parameter -s 
1 # kernel parameter -r 
empty# kernel parameter -u 
100 # highest feature index 
366 # number of training documents 
115 # number of support vectors plus 1 
-0.0099414063 # threshold b, each following line is a SV (starting with alpha*y)
2 15:1 28:1 59:1 72:1 88:1 #
2 12:1 25:1 59:1 75:1 88:1 #
2 5:1 40:1 45:1 80:1 90:1 #
-0.51623814634385212229972239583731 4:1 37:1 55:1 76:1 90:1 #
-0.93138804335480074314546072855592 12:1 36:1 44:1 70:1 84:1 #
2 2:1 40:1 59:1 69:1 88:1 #
2 5:1 28:1 45:1 77:1 88:1 #
2 5:1 30:1 46:1 70:1 85:1 #
2 5:1 36:1 45:1 65:1 85:1 #
2 5:1 36:1 60:1 80:1 90:1 #
1.6092454249090497597762805526145 19:1 39:1 50:1 63:1 88:1 #
-0.71235154989355820021046383772045 16:1 26:1 44:1 76:1 88:1 #
-2 6:1 36:1 43:1 76:1 88:1 #
2 17:1 37:1 59:1 78:1 90:1 #
2 10:1 23:1 51:1 78:1 90:1 #
2 19:1 25:1 50:1 63:1 90:1 #
-2 2:1 26:1 57:1 73:1 90:1 #
-0.53692569791900623954461480025202 4:1 37:1 55:1 74:1 84:1 #
-2 8:1 36:1 44:1 77:1 84:1 #
2 10:1 24:1 56:1 64:1 98:1 #
2 14:1 34:1 56:1 72:1 98:1 #
2 8:1 24:1 56:1 63:1 98:1 #
2 8:1 37:1 59:1 70:1 88:1 #
-2 4:1 23:1 55:1 73:1 98:1 #
0.8394372554491278393129505275283 19:1 24:1 60:1 80:1 85:1 #
2 19:1 36:1 50:1 79:1 90:1 #
2 19:1 36:1 50:1 79:1 88:1 #
2 19:1 36:1 45:1 79:1 99:1 #
-1.2547169609140489399123907787725 6:1 26:1 49:1 74:1 90:1 #
0.13927044812075362045789006515406 14:1 24:1 59:1 80:1 85:1 #
1.3975362523168701756048903916962 8:1 28:1 59:1 75:1 88:1 #
2 8:1 30:1 46:1 68:1 85:1 #
2 14:1 31:1 59:1 67:1 85:1 #
2 11:1 37:1 59:1 68:1 85:1 #
-2 18:1 26:1 44:1 65:1 90:1 #
-2 1:1 26:1 44:1 69:1 90:1 #
-1.9371579605941633417387492954731 16:1 26:1 44:1 69:1 90:1 #
2 9:1 24:1 60:1 80:1 98:1 #
2 8:1 28:1 41:1 79:1 98:1 #
2 15:1 36:1 59:1 80:1 88:1 #
-2 8:1 36:1 55:1 76:1 82:1 #
-1.4528569200829473118119494756684 9:1 36:1 55:1 76:1 95:1 #
-1.2921612780868336756157077616081 9:1 36:1 55:1 76:1 96:1 #
2 18:1 28:1 45:1 65:1 90:1 #
2 16:1 30:1 59:1 75:1 90:1 #
2 10:1 25:1 45:1 75:1 90:1 #
-2 6:1 31:1 58:1 73:1 90:1 #
-2 6:1 26:1 41:1 75:1 90:1 #
-2 4:1 24:1 44:1 73:1 85:1 #
2 9:1 22:1 59:1 80:1 90:1 #
2 19:1 36:1 50:1 79:1 98:1 #
2 10:1 23:1 48:1 79:1 88:1 #
-2 6:1 28:1 55:1 79:1 84:1 #
-2 4:1 36:1 43:1 70:1 84:1 #
-1.3538805620375455873727332800627 4:1 36:1 48:1 64:1 84:1 #
2 17:1 30:1 46:1 67:1 85:1 #
2 8:1 40:1 45:1 80:1 90:1 #
2 17:1 30:1 45:1 67:1 90:1 #
-2 9:1 26:1 47:1 73:1 90:1 #
-2 6:1 35:1 44:1 70:1 90:1 #
-2 6:1 38:1 53:1 73:1 90:1 #
2 19:1 25:1 51:1 63:1 90:1 #
2 7:1 25:1 59:1 77:1 85:1 #
2 9:1 24:1 59:1 70:1 88:1 #
-1.2253728800173817603536008391529 4:1 30:1 44:1 76:1 98:1 #
-2 4:1 25:1 44:1 76:1 98:1 #
-1.7799265821107468354966840706766 4:1 24:1 56:1 76:1 84:1 #
2 19:1 37:1 45:1 70:1 90:1 #
2 8:1 28:1 45:1 69:1 88:1 #
2 18:1 28:1 45:1 80:1 90:1 #
-2 18:1 26:1 58:1 73:1 90:1 #
-2 6:1 29:1 44:1 77:1 90:1 #
-2 12:1 26:1 53:1 73:1 90:1 #
2 11:1 25:1 59:1 75:1 90:1 #
2 19:1 40:1 50:1 63:1 90:1 #
2 19:1 25:1 60:1 63:1 90:1 #
-0.049508412423847403260879218578339 16:1 36:1 55:1 73:1 90:1 #
-2 6:1 26:1 59:1 76:1 90:1 #
-2 4:1 36:1 55:1 75:1 93:1 #
2 19:1 37:1 60:1 79:1 99:1 #
-1.1470554768822296409780392423272 11:1 26:1 55:1 79:1 84:1 #
-2 19:1 26:1 52:1 73:1 84:1 #
-2 9:1 26:1 44:1 66:1 90:1 #
-2 8:1 36:1 58:1 76:1 84:1 #
-2 6:1 21:1 44:1 69:1 90:1 #
-1.423735163247829227373131288914 18:1 36:1 41:1 76:1 84:1 #
2 19:1 24:1 50:1 70:1 88:1 #
2 19:1 23:1 45:1 67:1 90:1 #
-2 6:1 33:1 53:1 73:1 90:1 #
-1.8921130933881329383439151570201 6:1 29:1 44:1 64:1 90:1 #
-2 19:1 26:1 55:1 73:1 81:1 #
1.5694421290946634073293353139888 18:1 37:1 59:1 80:1 85:1 #
-2 4:1 28:1 55:1 70:1 84:1 #
-2 4:1 24:1 44:1 63:1 84:1 #
-2 4:1 36:1 55:1 65:1 92:1 #
-2 6:1 26:1 45:1 76:1 98:1 #
-1.149496198000255375859524065163 6:1 26:1 53:1 75:1 90:1 #
-2 8:1 36:1 44:1 73:1 97:1 #
-0.32778606082981109892671156558208 4:1 28:1 55:1 76:1 90:1 #
-2 4:1 32:1 50:1 76:1 84:1 #
-0.94475614111306072118168231099844 6:1 26:1 49:1 61:1 90:1 #
-1.591251895087282264285022392869 13:1 36:1 55:1 76:1 91:1 #
-0.94501694341307285185393993742764 4:1 36:1 44:1 75:1 83:1 #
-0.71349468237448832041991408914328 4:1 36:1 55:1 65:1 93:1 #
-1.5048238655185173229256179183722 16:1 36:1 55:1 73:1 87:1 #
-1.4863400469956786764669232070446 6:1 37:1 46:1 76:1 84:1 #
-1.3544187082037737468453997280449 6:1 26:1 42:1 64:1 90:1 #
-0.12619359227076643037435133010149 6:1 40:1 44:1 63:1 84:1 #
-0.16504071795097274844010826200247 4:1 23:1 44:1 63:1 84:1 #
-0.93376508989802076143860176671296 9:1 36:1 55:1 61:1 84:1 #
-0.058327439856835638920529163442552 6:1 26:1 52:1 76:1 88:1 #
-0.19010679452750878226652275770903 1:1 36:1 55:1 76:1 83:1 #
-0.37962373316075392892798845423386 4:1 36:1 41:1 73:1 86:1 #
-0.17910087339273772499836923088878 15:1 36:1 44:1 76:1 96:1 #
