SVM-light Version V6.02
2 # kernel type
3 # kernel parameter -d 
0.0078125 # kernel parameter -g 
1 # kernel parameter -s 
1 # kernel parameter -r 
empty# kernel parameter -u 
99 # highest feature index 
168 # number of training documents 
56 # number of support vectors plus 1 
0.53101253 # threshold b, each following line is a SV (starting with alpha*y)
-8 19:1 24:1 60:1 74:1 88:1 #
-7.7427525938538650507325655780733 3:1 24:1 58:1 74:1 88:1 #
6.771444743197065463391481898725 9:1 24:1 59:1 79:1 98:1 #
-8 6:1 34:1 60:1 79:1 98:1 #
7.3276658179212983412753601442091 16:1 26:1 59:1 65:1 98:1 #
3.4129507424508744861668674275279 5:1 26:1 45:1 79:1 98:1 #
8 15:1 23:1 48:1 65:1 98:1 #
8 5:1 26:1 58:1 65:1 98:1 #
8 7:1 24:1 55:1 79:1 98:1 #
0.58650204651572579450657940469682 8:1 26:1 48:1 79:1 98:1 #
-5.8063002148440574501364608295262 16:1 36:1 41:1 64:1 98:1 #
8 10:1 24:1 55:1 79:1 98:1 #
-3.5723060275891072024023742415011 13:1 26:1 57:1 76:1 90:1 #
8 9:1 24:1 60:1 65:1 88:1 #
8 9:1 24:1 60:1 80:1 98:1 #
8 9:1 24:1 60:1 80:1 98:1 #
-8 14:1 24:1 58:1 63:1 98:1 #
-6.0897189268690681274165399372578 8:1 24:1 57:1 77:1 98:1 #
-0.36925074619801279141029226593673 8:1 24:1 57:1 78:1 98:1 #
8 10:1 33:1 58:1 74:1 98:1 #
8 18:1 28:1 59:1 68:1 90:1 #
8 15:1 25:1 45:1 79:1 98:1 #
-5.896534715533007897647621575743 16:1 33:1 60:1 74:1 88:1 #
-2.1355156095366112367628375068307 6:1 21:1 44:1 75:1 98:1 #
-5.2889197832868788395899173337966 4:1 24:1 56:1 76:1 98:1 #
8 17:1 24:1 55:1 79:1 98:1 #
8 15:1 24:1 48:1 79:1 85:1 #
-6.0408910741350396733650995884091 18:1 24:1 42:1 76:1 98:1 #
-6.2783758173260082458000397309661 13:1 24:1 46:1 67:1 98:1 #
-1.7501044358190078753523266641423 14:1 36:1 58:1 64:1 98:1 #
8 17:1 26:1 48:1 74:1 98:1 #
-8 6:1 34:1 54:1 79:1 89:1 #
-6.1791285537701732266668841475621 11:1 33:1 51:1 73:1 98:1 #
-3.6264407581593189888735651038587 6:1 23:1 50:1 62:1 98:1 #
5.9592883564062155699048162205145 9:1 24:1 60:1 65:1 85:1 #
5.6502214775029528937011491507292 10:1 26:1 58:1 65:1 98:1 #
-1.9777795218133924493031372549012 1:1 24:1 49:1 76:1 98:1 #
-8 1:1 36:1 58:1 69:1 98:1 #
-8 13:1 24:1 46:1 74:1 98:1 #
8 17:1 26:1 48:1 74:1 98:1 #
-3.6858467232742784247534473252017 6:1 33:1 48:1 73:1 82:1 #
-3.0146326910477636573659765417688 16:1 33:1 44:1 73:1 98:1 #
-1.3687596460964499556212103925645 14:1 33:1 53:1 73:1 98:1 #
-0.49195639457792594839702360332012 18:1 37:1 58:1 76:1 98:1 #
-1.2334034786757079871222231304273 6:1 37:1 56:1 66:1 98:1 #
-0.99820978584386921284021809697151 13:1 24:1 55:1 76:1 89:1 #
-6.4020342495458208986747195012867 17:1 23:1 57:1 76:1 98:1 #
-6.9365464834857846199156483635306 18:1 24:1 57:1 78:1 98:1 #
-2.1139528251929817770360386930406 6:1 24:1 41:1 61:1 98:1 #
-1.1332539658429254814109299331903 6:1 30:1 47:1 77:1 98:1 #
-3.1571991324432246983633376657963 10:1 38:1 57:1 76:1 98:1 #
-0.012409947611416782820015214383602 11:1 24:1 57:1 77:1 98:1 #
-0.086119011343873452801744861062616 16:1 36:1 49:1 73:1 98:1 #
-0.15042322296844723439335211878642 14:1 33:1 41:1 64:1 98:1 #
-0.1693068473102194992918612115318 6:1 32:1 53:1 64:1 98:1 #
