SVM-light Version V6.02
2 # kernel type
3 # kernel parameter -d 
0.00012207031 # kernel parameter -g 
1 # kernel parameter -s 
1 # kernel parameter -r 
empty# kernel parameter -u 
100 # highest feature index 
120 # number of training documents 
40 # number of support vectors plus 1 
1.1141705 # threshold b, each following line is a SV (starting with alpha*y)
-41.128211155617464100942015647888 14:1 37:1 48:1 66:1 88:1 #
209.50904921554320026189088821411 19:1 25:1 47:1 63:1 85:1 #
-88.227582720242935465648770332336 7:1 23:1 43:1 70:1 84:1 #
-107.73176197713473811745643615723 14:1 35:1 54:1 75:1 98:1 #
-279.02061003988274023868143558502 17:1 36:1 58:1 66:1 85:1 #
512 8:1 25:1 57:1 63:1 98:1 #
512 19:1 23:1 58:1 70:1 85:1 #
512 19:1 24:1 44:1 64:1 85:1 #
65.945877781667149974964559078217 19:1 25:1 45:1 63:1 81:1 #
512 19:1 39:1 45:1 63:1 88:1 #
-512 15:1 25:1 45:1 77:1 88:1 #
-512 19:1 23:1 58:1 67:1 84:1 #
-123.5177954314858652651309967041 4:1 24:1 41:1 63:1 94:1 #
512 19:1 37:1 43:1 68:1 85:1 #
512 19:1 36:1 45:1 79:1 88:1 #
512 19:1 36:1 44:1 70:1 85:1 #
-512 19:1 34:1 58:1 69:1 85:1 #
-114.87238863314269110560417175293 3:1 30:1 45:1 78:1 85:1 #
-512 19:1 30:1 41:1 78:1 96:1 #
512 19:1 36:1 45:1 70:1 81:1 #
350.6623079403179872315376996994 19:1 39:1 48:1 63:1 98:1 #
269.09506957796838833019137382507 19:1 39:1 50:1 63:1 98:1 #
-455.01310421897142077796161174774 5:1 36:1 56:1 76:1 98:1 #
-232.93911637051496654748916625977 6:1 26:1 46:1 63:1 83:1 #
-512 8:1 21:1 48:1 64:1 98:1 #
115.16914648371312068775296211243 19:1 40:1 44:1 63:1 85:1 #
-41.671522129132881673285737633705 11:1 33:1 43:1 70:1 84:1 #
-409.00246094362137228017672896385 18:1 29:1 46:1 70:1 85:1 #
-494.19931032008025795221328735352 9:1 28:1 50:1 63:1 92:1 #
-304.20407232446086709387600421906 4:1 22:1 55:1 63:1 93:1 #
512 19:1 40:1 50:1 63:1 98:1 #
-425.57493643464113119989633560181 10:1 34:1 44:1 79:1 98:1 #
-470.66831944143632426857948303223 13:1 24:1 50:1 63:1 96:1 #
-195.49273079109116224572062492371 1:1 37:1 45:1 74:1 90:1 #
-92.552783846389502286911010742188 9:1 33:1 54:1 70:1 81:1 #
455.81090522350132232531905174255 19:1 25:1 50:1 63:1 98:1 #
432.8133803778000583406537771225 19:1 25:1 48:1 63:1 98:1 #
-32.67914236878277733922004699707 18:1 25:1 53:1 61:1 94:1 #
-38.509887453841656679287552833557 16:1 24:1 50:1 80:1 88:1 #
