SVM-light Version V6.02
2 # kernel type
3 # kernel parameter -d 
0.03125 # kernel parameter -g 
1 # kernel parameter -s 
1 # kernel parameter -r 
empty# kernel parameter -u 
100 # highest feature index 
174 # number of training documents 
48 # number of support vectors plus 1 
1.5753906 # threshold b, each following line is a SV (starting with alpha*y)
2.258176750558348544473119545728 8:1 24:1 57:1 67:1 98:1 #
-27.509400358184620927204377949238 3:1 24:1 57:1 76:1 88:1 #
1.5417266795917310417962653446011 15:1 24:1 56:1 68:1 98:1 #
-2.0578063955830430131754837930202 6:1 23:1 44:1 73:1 98:1 #
-0.69799266987789332361558081174735 17:1 38:1 43:1 63:1 83:1 #
-3.2604213467247049607067310716957 16:1 28:1 57:1 61:1 96:1 #
13.805185813608972011934383772314 3:1 24:1 57:1 72:1 90:1 #
-0.46670849618119847335151462175418 18:1 25:1 58:1 63:1 91:1 #
4.8829510703290708306667511351407 4:1 24:1 56:1 76:1 98:1 #
-0.76882255104700547576612734701484 16:1 21:1 58:1 68:1 90:1 #
-7.5830723843568925701674743322656 7:1 30:1 56:1 78:1 90:1 #
-11.352600010429998889094349578954 14:1 34:1 56:1 72:1 98:1 #
-5.4004325555876260267496036249213 12:1 21:1 57:1 75:1 90:1 #
29.225609676010208204388618469238 15:1 26:1 57:1 76:1 88:1 #
5.2210247024872815657658975396771 8:1 28:1 41:1 79:1 98:1 #
7.8794815280349155273142969235778 6:1 23:1 57:1 76:1 90:1 #
-25.221807046912580574371531838551 15:1 24:1 57:1 77:1 98:1 #
-4.8857054776054376077354390872642 15:1 26:1 51:1 66:1 86:1 #
-4.3175094306051002845947550667915 15:1 26:1 46:1 73:1 84:1 #
5.1910317585042236032677465118468 10:1 24:1 56:1 64:1 98:1 #
11.838194510070929155176600033883 14:1 24:1 57:1 75:1 90:1 #
4.7244139678630201473197303130291 9:1 24:1 56:1 70:1 98:1 #
-11.008951197190537385495190392248 10:1 33:1 57:1 75:1 90:1 #
-3.842701807188561247130564879626 18:1 37:1 57:1 80:1 90:1 #
-3.7451902992483208088003721059067 19:1 28:1 53:1 78:1 90:1 #
32 10:1 30:1 57:1 63:1 98:1 #
5.816602573907879047965252539143 8:1 25:1 57:1 63:1 98:1 #
8.848541356940756941185100004077 13:1 24:1 57:1 76:1 98:1 #
-17.532048156832498619905891246162 10:1 38:1 57:1 76:1 98:1 #
-19.569923727166912641450835508294 11:1 30:1 57:1 63:1 98:1 #
-11.871311664513399364295764826238 18:1 30:1 56:1 76:1 98:1 #
8.7055376022990813567048462573439 15:1 38:1 56:1 61:1 90:1 #
7.1427751253396252195670967921615 20:1 38:1 56:1 72:1 90:1 #
6.7994672266349880374036729335785 5:1 30:1 57:1 79:1 90:1 #
-1.4269228786691812160825065802783 17:1 26:1 53:1 70:1 87:1 #
-2.6106351622853694038894900586456 15:1 40:1 52:1 79:1 92:1 #
-0.28620183215995975700707276700996 6:1 34:1 60:1 79:1 98:1 #
20.974614617024354146224141004495 18:1 24:1 57:1 63:1 98:1 #
2.687981315342916843746934318915 13:1 23:1 56:1 79:1 98:1 #
-6.9928539344918316800203683669679 10:1 29:1 57:1 63:1 82:1 #
-12.488543928996975296286109369248 18:1 36:1 57:1 63:1 98:1 #
0.069961039264930136027942353393883 15:1 28:1 56:1 72:1 98:1 #
13.49059913337246108255840226775 15:1 28:1 56:1 76:1 98:1 #
-3.151928652617149495540616044309 15:1 39:1 56:1 69:1 100:1 #
-2.8420365169838248675659997388721 15:1 25:1 54:1 76:1 97:1 #
-2.118664677063514467647564742947 20:1 37:1 56:1 61:1 89:1 #
-0.093683288681557286281531560234725 18:1 27:1 45:1 69:1 90:1 #
