SVM-light Version V6.02
2 # kernel type
3 # kernel parameter -d 
0.0078125 # kernel parameter -g 
1 # kernel parameter -s 
1 # kernel parameter -r 
empty# kernel parameter -u 
100 # highest feature index 
222 # number of training documents 
75 # number of support vectors plus 1 
2.8810208 # threshold b, each following line is a SV (starting with alpha*y)
32 18:1 24:1 57:1 63:1 98:1 #
32 8:1 24:1 56:1 63:1 98:1 #
-15.992254430019954725139541551471 9:1 26:1 57:1 73:1 98:1 #
-17.661362320036545270340866409242 20:1 32:1 57:1 65:1 98:1 #
-24.391901134107726534239191096276 1:1 34:1 57:1 75:1 90:1 #
-2.8655026795100013714545639231801 16:1 24:1 44:1 74:1 93:1 #
32 3:1 24:1 57:1 76:1 88:1 #
32 5:1 36:1 57:1 75:1 90:1 #
32 6:1 24:1 57:1 77:1 98:1 #
-4.9702713662904898228589445352554 14:1 23:1 56:1 75:1 88:1 #
-23.487999688689342292491346597672 17:1 24:1 57:1 72:1 81:1 #
-10.83826157190081573844508966431 16:1 24:1 42:1 63:1 88:1 #
32 14:1 34:1 56:1 72:1 98:1 #
32 9:1 34:1 57:1 76:1 98:1 #
32 16:1 28:1 51:1 65:1 92:1 #
-13.85064951572320524064707569778 14:1 40:1 56:1 65:1 98:1 #
-32 15:1 28:1 56:1 76:1 98:1 #
-17.090838329573713849640625994653 14:1 28:1 57:1 69:1 98:1 #
19.791976681786110248140175826848 15:1 24:1 57:1 75:1 96:1 #
-9.4045079063582193157344590872526 1:1 24:1 54:1 80:1 98:1 #
-4.8972896605540654491051100194454 17:1 36:1 57:1 66:1 90:1 #
-17.688534813979828186347731389105 3:1 38:1 57:1 75:1 90:1 #
-12.079011888052150425210129469633 9:1 22:1 57:1 68:1 90:1 #
-32 9:1 24:1 55:1 71:1 90:1 #
32 15:1 28:1 56:1 72:1 98:1 #
32 15:1 32:1 57:1 78:1 98:1 #
-32 15:1 23:1 56:1 78:1 98:1 #
-3.415799482607326353900134563446 9:1 36:1 56:1 78:1 83:1 #
-6.7111751356655702238640515133739 18:1 27:1 57:1 76:1 98:1 #
32 14:1 23:1 57:1 75:1 90:1 #
13.060035887540834664832800626755 10:1 24:1 57:1 76:1 90:1 #
32 15:1 36:1 56:1 78:1 98:1 #
-3.0054803692243012847029604017735 16:1 24:1 56:1 66:1 85:1 #
-8.2086744359857277686387533321977 16:1 24:1 51:1 70:1 94:1 #
-20.109607348105114965619577560574 10:1 33:1 57:1 75:1 90:1 #
32 10:1 24:1 56:1 71:1 98:1 #
32 10:1 24:1 56:1 64:1 98:1 #
-32 15:1 24:1 56:1 64:1 88:1 #
-31.116377642884167187276034383103 15:1 35:1 56:1 76:1 98:1 #
-30.990312001983873813060199609026 18:1 24:1 41:1 77:1 98:1 #
32 15:1 23:1 57:1 75:1 93:1 #
32 9:1 24:1 57:1 61:1 90:1 #
-14.802063359862358993268571794033 9:1 36:1 57:1 61:1 85:1 #
-11.678157872414544726780150085688 4:1 39:1 57:1 75:1 98:1 #
-27.778970537767719406474498100579 16:1 36:1 57:1 75:1 86:1 #
32 9:1 24:1 56:1 76:1 88:1 #
-2.1420391451906652946490794420242 15:1 24:1 44:1 78:1 83:1 #
-25.572718783476830139989033341408 15:1 24:1 56:1 69:1 82:1 #
-12.897236748794561833619809476659 9:1 24:1 52:1 76:1 84:1 #
32 16:1 24:1 57:1 74:1 98:1 #
32 15:1 36:1 57:1 75:1 90:1 #
-23.211920096317442130384733900428 8:1 25:1 57:1 63:1 98:1 #
-16.158015143274525371452909894288 6:1 24:1 46:1 72:1 92:1 #
-8.1900830233695387505576945841312 16:1 36:1 57:1 61:1 96:1 #
-32 9:1 24:1 57:1 78:1 81:1 #
-20.536438650923912518919678404927 10:1 34:1 56:1 61:1 98:1 #
-18.972195765498231168066922691651 10:1 30:1 57:1 63:1 98:1 #
-11.914118866712669841945171356201 10:1 38:1 57:1 76:1 98:1 #
32 9:1 24:1 57:1 73:1 90:1 #
-25.712015923236435810395050793886 6:1 23:1 57:1 76:1 90:1 #
-21.248077408126562204415677115321 15:1 21:1 57:1 74:1 90:1 #
-4.5409950591691803367666580015793 16:1 24:1 59:1 66:1 90:1 #
9.392262334836345871735829859972 9:1 24:1 56:1 70:1 98:1 #
18.422604855760681630272301845253 9:1 24:1 56:1 80:1 98:1 #
-8.7802663765892248193267732858658 19:1 24:1 56:1 73:1 84:1 #
-19.905561535126764738379279151559 15:1 37:1 57:1 73:1 98:1 #
32 15:1 36:1 57:1 76:1 90:1 #
12.841223870221938341273926198483 15:1 24:1 56:1 68:1 98:1 #
-0.36054772106058052827393112238497 5:1 30:1 57:1 79:1 90:1 #
-3.1521698310110082275059539824724 16:1 28:1 56:1 74:1 98:1 #
-8.5741675008454194539808668196201 4:1 24:1 49:1 66:1 98:1 #
-12.915072519824065011562197469175 18:1 24:1 43:1 75:1 93:1 #
-7.9938961287341161465747063630261 9:1 36:1 54:1 80:1 98:1 #
0.30443608843253855411603581160307 8:1 24:1 57:1 67:1 98:1 #
