SVM-light Version V6.02
2 # kernel type
3 # kernel parameter -d 
0.125 # kernel parameter -g 
1 # kernel parameter -s 
1 # kernel parameter -r 
empty# kernel parameter -u 
100 # highest feature index 
78 # number of training documents 
50 # number of support vectors plus 1 
1.1089174 # threshold b, each following line is a SV (starting with alpha*y)
-0.18359492719115722003664359363029 2:1 33:1 56:1 64:1 96:1 #
-1.2770231812884844657673966139555 3:1 24:1 57:1 76:1 88:1 #
-0.59251918152605853595815688095172 18:1 22:1 57:1 71:1 98:1 #
-2.7543425397808820598299917037366 6:1 24:1 57:1 77:1 98:1 #
-0.058983273274878518510622171788782 7:1 33:1 53:1 63:1 97:1 #
1.0989358870974788029428736990667 2:1 23:1 56:1 63:1 90:1 #
2.4011218796190840762960760912392 4:1 23:1 56:1 63:1 98:1 #
3.3970544537067532964158544928068 5:1 30:1 57:1 79:1 90:1 #
3.702514403362060502189478938817 6:1 23:1 57:1 76:1 90:1 #
0.33726342804361875149510296978406 8:1 24:1 56:1 63:1 98:1 #
-0.29113778913409688042790435247298 18:1 25:1 57:1 62:1 89:1 #
-0.2392755164111587395936453503964 17:1 35:1 53:1 63:1 95:1 #
-0.088719144344327288687068744366115 20:1 21:1 53:1 63:1 92:1 #
3.9760988069241469666792454518145 13:1 24:1 57:1 76:1 98:1 #
6.3536632060031443813841178780422 11:1 38:1 57:1 64:1 98:1 #
2.1518485965645108848320887773298 8:1 24:1 57:1 67:1 98:1 #
-1.943352760232231801751368038822 14:1 24:1 57:1 75:1 90:1 #
-0.033408417244332008766427577484137 12:1 21:1 57:1 75:1 90:1 #
-0.84189612074943420694239648582879 20:1 34:1 57:1 70:1 90:1 #
3.8739006363369186125567011913517 18:1 24:1 57:1 63:1 98:1 #
3.5741791176965320708802664739778 8:1 28:1 41:1 79:1 98:1 #
3.1959720037463781316944277932635 9:1 24:1 57:1 61:1 90:1 #
-2.3720794261470383723633403860731 8:1 36:1 41:1 64:1 98:1 #
-0.77398638274068010112216597917723 8:1 40:1 60:1 69:1 98:1 #
-2.2246664446306247953089041402563 18:1 23:1 57:1 75:1 98:1 #
2.4815256412179813594320876291022 15:1 24:1 57:1 63:1 90:1 #
2.0969801158522280992713149316842 8:1 25:1 57:1 63:1 98:1 #
-3.8915070301543748243489062588196 11:1 30:1 57:1 63:1 98:1 #
-4.3608659244081984240892779780552 10:1 24:1 57:1 76:1 90:1 #
-2.367119508156934060139064968098 11:1 30:1 57:1 64:1 98:1 #
-0.84134496396180380450857683172217 8:1 25:1 46:1 61:1 96:1 #
-1.0887296436981608316330039087916 16:1 38:1 55:1 61:1 98:1 #
-0.28643460223877870163278203108348 15:1 28:1 56:1 72:1 98:1 #
-1.5398611979261080939807015965926 18:1 37:1 57:1 63:1 82:1 #
-0.91777352027747416407521541259484 17:1 22:1 57:1 68:1 90:1 #
-1.0249736412286971631857568354462 17:1 21:1 57:1 79:1 97:1 #
-1.2600579155439382006420601101127 9:1 38:1 44:1 70:1 98:1 #
-1.4494276563936121515752120103571 15:1 28:1 56:1 76:1 98:1 #
-1.0842923936753929847753852300229 7:1 39:1 45:1 63:1 98:1 #
-0.62805811702385594408326596749248 16:1 24:1 57:1 69:1 91:1 #
-0.45495853749187986636570713017136 18:1 21:1 52:1 67:1 90:1 #
-0.24447962888364904721072434767848 10:1 24:1 56:1 71:1 98:1 #
-0.29649186808361760459007427925826 15:1 37:1 57:1 73:1 98:1 #
-0.47702060961530434735067274232279 16:1 26:1 41:1 64:1 90:1 #
-1.5085083710770599285666548894369 15:1 24:1 57:1 77:1 98:1 #
-0.62583076282634086950906748825219 8:1 34:1 57:1 74:1 88:1 #
-0.56081609243577634771327211637981 20:1 33:1 57:1 62:1 98:1 #
-0.04916593250612502630225719713053 17:1 21:1 48:1 67:1 90:1 #
-0.0083551538683635864779297719451279 10:1 29:1 57:1 63:1 82:1 #
