SVM-light Version V6.02
2 # kernel type
3 # kernel parameter -d 
0.5 # kernel parameter -g 
1 # kernel parameter -s 
1 # kernel parameter -r 
empty# kernel parameter -u 
100 # highest feature index 
450 # number of training documents 
423 # number of support vectors plus 1 
0.87828857 # threshold b, each following line is a SV (starting with alpha*y)
-0.087924999050801033728674838130246 14:1 29:1 57:1 67:1 100:1 #
-0.052007849380949204565194321503441 12:1 40:1 56:1 71:1 90:1 #
-0.057786591736453472856194224505089 4:1 39:1 58:1 77:1 97:1 #
-0.31318127474936552356865604451741 7:1 35:1 44:1 66:1 85:1 #
-0.14004149714890917755027999191952 14:1 35:1 45:1 64:1 90:1 #
0.73860829465585775555069858455681 5:1 27:1 60:1 79:1 85:1 #
0.41237857413293188546532519467291 5:1 28:1 46:1 79:1 85:1 #
0.78515484054962347837403058292693 5:1 29:1 45:1 79:1 98:1 #
0.41584236849066130714547284696891 5:1 29:1 50:1 79:1 85:1 #
0.027724988046095275923130785145077 5:1 30:1 45:1 79:1 85:1 #
-2 5:1 37:1 52:1 79:1 85:1 #
-0.71415583581490604814234757213853 5:1 30:1 57:1 79:1 90:1 #
-0.21354184014518073908561746065971 5:1 29:1 46:1 75:1 97:1 #
0.92389605051965850712747396755731 18:1 37:1 55:1 79:1 90:1 #
1.1377869172344636794491634645965 10:1 37:1 60:1 79:1 90:1 #
0.57404975677801051148207989172079 10:1 37:1 45:1 79:1 90:1 #
-0.26979555410162175954624785845226 10:1 28:1 45:1 73:1 90:1 #
-0.61468599281858771199438251642277 9:1 38:1 60:1 79:1 100:1 #
-0.60409466538552591963195936841657 15:1 25:1 50:1 79:1 84:1 #
1.2189690059990108128573638168746 5:1 37:1 56:1 79:1 99:1 #
1.627962491374822961986978953064 8:1 29:1 60:1 80:1 85:1 #
0.63376716192784687819994360324927 5:1 37:1 49:1 79:1 85:1 #
-0.52794298610910306290833204911905 10:1 37:1 46:1 76:1 85:1 #
-0.17242308497450387072547073330497 5:1 29:1 49:1 63:1 92:1 #
-0.19225791941831893439029954606667 18:1 37:1 49:1 68:1 94:1 #
1.4639745964903321251426859817002 5:1 35:1 41:1 79:1 100:1 #
0.24606989904730725005066460653325 20:1 38:1 55:1 79:1 85:1 #
0.16092081855691137137753798924678 20:1 25:1 55:1 79:1 85:1 #
-0.59494021983492584304542560857954 20:1 35:1 55:1 62:1 85:1 #
-0.50599973310876045218265062430874 16:1 35:1 56:1 79:1 88:1 #
-0.24268536985666949723494667523482 5:1 33:1 45:1 78:1 81:1 #
0.58474520069668811661500740228803 15:1 37:1 51:1 79:1 85:1 #
0.89778414937803652229320050537353 15:1 36:1 45:1 79:1 98:1 #
0.78151322626350372413384093306377 7:1 36:1 45:1 79:1 98:1 #
-0.39095133856594282972807263831783 16:1 36:1 45:1 70:1 98:1 #
-0.47038558406888786311839112386224 13:1 36:1 44:1 79:1 97:1 #
-0.40163375092527509035988941832329 6:1 30:1 54:1 79:1 93:1 #
0.73758638735154380405845131463138 10:1 35:1 50:1 79:1 85:1 #
0.53856252119944492129377522360301 8:1 35:1 50:1 79:1 85:1 #
0.71591347188419418579030661931029 16:1 36:1 46:1 79:1 85:1 #
-0.346660238510793583532887396359 16:1 36:1 43:1 64:1 85:1 #
-0.33907957972557767334365053102374 9:1 26:1 50:1 61:1 85:1 #
-0.17292884064041938452227498146385 8:1 35:1 50:1 65:1 96:1 #
0.91722481950463330413469975610496 7:1 37:1 45:1 79:1 100:1 #
0.61634437874450487271360543672927 19:1 37:1 59:1 79:1 85:1 #
0.63723506413230879275033657904714 9:1 34:1 45:1 79:1 85:1 #
-0.36295074816546901708136374509195 10:1 34:1 56:1 80:1 85:1 #
-0.42341638995795316535719621242606 14:1 23:1 47:1 79:1 82:1 #
-0.17324511218899574238605509890476 17:1 37:1 53:1 67:1 90:1 #
1.0183792017462116596959731396055 10:1 31:1 45:1 79:1 98:1 #
0.82395629349256460649542077590013 18:1 34:1 51:1 79:1 85:1 #
0.75565998304637871374467295026989 5:1 37:1 50:1 79:1 98:1 #
-0.26365306589567494288672833135934 17:1 23:1 45:1 63:1 98:1 #
-0.19584870202894208435218104114028 18:1 34:1 51:1 61:1 94:1 #
-0.26634799450831814215945314572309 18:1 23:1 55:1 73:1 98:1 #
0.61193276438654808924155759086716 20:1 40:1 46:1 79:1 85:1 #
0.78336189849096971027364588735509 19:1 30:1 50:1 79:1 85:1 #
0.6482509948760504236986434989376 19:1 25:1 46:1 79:1 85:1 #
-0.29056582325476032480082722031511 12:1 30:1 41:1 73:1 85:1 #
-0.22277885029690500107157902220933 13:1 33:1 41:1 70:1 85:1 #
-0.33821986835290596129510731771006 10:1 36:1 48:1 63:1 85:1 #
0.67649189026889766651606805680785 5:1 36:1 47:1 79:1 85:1 #
0.6624658886292339454726629810466 18:1 37:1 55:1 79:1 98:1 #
0.81528876098075664380360194627428 5:1 37:1 45:1 79:1 88:1 #
-0.19231095230548422847505207755603 6:1 37:1 55:1 75:1 93:1 #
-0.12076754505790007754306714105041 1:1 37:1 56:1 69:1 89:1 #
-0.133444804587540488682861905545 14:1 37:1 59:1 69:1 86:1 #
0.52331302486688857644736572183319 10:1 23:1 45:1 79:1 85:1 #
0.50548400879122334927728843467776 7:1 22:1 45:1 79:1 85:1 #
0.58137934713704353395513635405223 8:1 29:1 51:1 79:1 85:1 #
-0.19815685832153973056080076275975 15:1 30:1 45:1 75:1 88:1 #
-0.20753215176507230910196710738091 8:1 32:1 45:1 65:1 88:1 #
-0.18368283169200419480127095539501 1:1 34:1 45:1 65:1 91:1 #
0.56519105460069141155798888576101 18:1 28:1 55:1 79:1 85:1 #
0.49778534162222859427160415179969 20:1 37:1 56:1 79:1 85:1 #
0.75687024554753690175346036994597 20:1 25:1 49:1 79:1 85:1 #
-0.34110087965070062798744743304269 18:1 35:1 56:1 70:1 85:1 #
-0.26108235327061901642764496500604 4:1 23:1 43:1 71:1 85:1 #
-0.19422464205089096100920187382144 10:1 35:1 50:1 71:1 90:1 #
0.39176868548726145879967930341081 15:1 38:1 45:1 79:1 85:1 #
0.61334418531125689533212153037312 8:1 38:1 55:1 79:1 85:1 #
0.61650386050550676220183277109754 17:1 36:1 46:1 79:1 85:1 #
-0.19322083650786112118957760230842 5:1 36:1 41:1 65:1 96:1 #
-0.14368078679620613358203229381616 8:1 29:1 49:1 64:1 89:1 #
-0.12234442455310998165707303542149 8:1 29:1 58:1 76:1 96:1 #
0.42211915478653860844815426389687 18:1 35:1 45:1 79:1 85:1 #
0.51910824447303449691304422231042 20:1 39:1 55:1 79:1 85:1 #
0.40742984331797971186972517898539 5:1 37:1 55:1 79:1 98:1 #
-0.2293405350809068488082687053975 18:1 36:1 45:1 68:1 90:1 #
-0.1877098895319966320727189668105 5:1 25:1 50:1 78:1 87:1 #
-0.18392136468829217710307943889347 12:1 36:1 45:1 78:1 95:1 #
0.53228267624755409848091858293628 5:1 30:1 46:1 79:1 85:1 #
0.27534827307969089726924494243576 19:1 37:1 60:1 79:1 85:1 #
0.26915425728823177964343926760193 7:1 37:1 55:1 79:1 85:1 #
-0.18395744185057916197933991497848 16:1 37:1 46:1 73:1 90:1 #
-0.18472217003212276775769851155928 18:1 37:1 57:1 62:1 81:1 #
-0.096889099073437484621607040935487 15:1 24:1 56:1 68:1 98:1 #
0.39337774744610248811582664529851 15:1 28:1 45:1 79:1 85:1 #
0.2858543852807883256517129666463 20:1 30:1 45:1 79:1 85:1 #
-0.11558296942286286346224244425684 15:1 28:1 53:1 66:1 99:1 #
-0.1813797502321027321769975060306 2:1 33:1 52:1 68:1 85:1 #
-0.11997452240027825509649517243815 7:1 29:1 50:1 69:1 88:1 #
-0.16502913678454445012278029025765 14:1 38:1 45:1 80:1 84:1 #
-0.1204574450497192666942325445234 11:1 24:1 51:1 61:1 98:1 #
-0.14911373108687339672506766419247 9:1 37:1 56:1 64:1 92:1 #
0.21794842741688086329432394450123 18:1 37:1 50:1 79:1 85:1 #
0.11546830427838976340648713403425 8:1 37:1 50:1 79:1 85:1 #
-0.13588486353582540644424625497777 7:1 37:1 43:1 76:1 96:1 #
-0.11519264352272147455824580219996 20:1 36:1 49:1 66:1 95:1 #
-0.083621169289042007743972817479516 7:1 26:1 49:1 80:1 95:1 #
0.35962076904461154347458773372637 20:1 34:1 55:1 79:1 85:1 #
0.19397408674384264415380130230915 5:1 36:1 55:1 79:1 85:1 #
-0.13400860753331175767577576607437 15:1 38:1 55:1 75:1 86:1 #
-0.13844584571543527840020715302671 13:1 37:1 41:1 77:1 83:1 #
-0.11891223331253371331417412193332 5:1 27:1 48:1 76:1 90:1 #
-0.10042649231187868175130262216044 9:1 36:1 57:1 77:1 98:1 #
-0.13888828724953655724405621185724 18:1 26:1 60:1 68:1 99:1 #
-0.16490642308997749410082178656012 11:1 33:1 45:1 80:1 94:1 #
-0.13262030969575064331955616125924 10:1 34:1 55:1 66:1 95:1 #
-0.15946423795529388045544294527645 14:1 37:1 54:1 68:1 100:1 #
0.12778234386122755417147800471867 8:1 36:1 45:1 79:1 85:1 #
-0.13068804161757355264406044170755 4:1 37:1 47:1 73:1 88:1 #
-0.11134863000312435199479210723439 17:1 30:1 51:1 69:1 98:1 #
-0.12979004659116558095810489703581 5:1 36:1 44:1 61:1 82:1 #
-0.13165976175441868045723481372988 16:1 29:1 55:1 65:1 90:1 #
-0.1187596320298049262786932445124 7:1 22:1 42:1 78:1 94:1 #
-0.10116827992595020524468907296978 4:1 22:1 55:1 63:1 81:1 #
0.16983717393618391611198603641242 11:1 37:1 45:1 79:1 85:1 #
-0.15366505539577221539637719160964 6:1 28:1 45:1 75:1 91:1 #
-0.12529039664116053964804109455144 19:1 33:1 46:1 68:1 88:1 #
-0.087606984436007187544426244585338 10:1 32:1 46:1 78:1 83:1 #
0.18604496648125787294780764113966 8:1 37:1 51:1 79:1 85:1 #
-0.099975414526787112490247011464817 15:1 35:1 50:1 74:1 93:1 #
-0.086845401294487589716197817324428 2:1 21:1 50:1 74:1 81:1 #
-0.14644115307780397605696975915635 5:1 29:1 56:1 69:1 89:1 #
-0.10245138514333164414527033159175 10:1 29:1 49:1 80:1 96:1 #
-0.10251510354360170163001697574146 20:1 35:1 48:1 72:1 86:1 #
-0.10985325419761127196949246354052 18:1 39:1 53:1 80:1 89:1 #
0.13207328877599855410096552077448 5:1 36:1 50:1 79:1 85:1 #
-0.12406518223697993175136389254476 6:1 37:1 56:1 61:1 96:1 #
-0.099191255585789769866345011450903 8:1 34:1 56:1 70:1 98:1 #
-0.11329031053799228090372963606569 13:1 37:1 53:1 61:1 87:1 #
-0.09377185247400413037333066768042 10:1 25:1 58:1 67:1 82:1 #
-0.12405419046600280053027631765872 15:1 39:1 60:1 68:1 87:1 #
-0.096708527301250554741862686114473 20:1 29:1 49:1 75:1 84:1 #
0.13630752703754078769549096250557 5:1 31:1 45:1 79:1 85:1 #
-0.088231068737074203056636179098859 6:1 31:1 46:1 77:1 90:1 #
-0.12441741422980734377290445991093 14:1 37:1 49:1 69:1 90:1 #
-0.085751326097290594963062915212504 16:1 30:1 50:1 76:1 99:1 #
-0.092716549900027298014570931172784 1:1 40:1 50:1 67:1 89:1 #
-0.10243643841133298622025904478505 5:1 26:1 48:1 70:1 89:1 #
-0.084966397866937951044441490466852 3:1 21:1 46:1 64:1 89:1 #
-0.093151665051231402614462240308058 8:1 27:1 53:1 75:1 97:1 #
-0.086925426778071288036464636661549 20:1 21:1 53:1 63:1 92:1 #
-0.10836800522501985333256868671015 7:1 26:1 46:1 66:1 87:1 #
-0.087016011331567763575911556017672 17:1 31:1 42:1 62:1 95:1 #
-0.11701174157169128009492453657003 4:1 37:1 58:1 64:1 84:1 #
-0.12286923548195267941185448989927 4:1 23:1 45:1 70:1 94:1 #
-0.090145541455367655947483740419557 15:1 33:1 51:1 76:1 82:1 #
-0.076505247091364414480096911574947 18:1 33:1 47:1 67:1 90:1 #
-0.08931101254852677473472510882857 9:1 29:1 55:1 69:1 81:1 #
-0.12231418195815656202452004208681 5:1 30:1 56:1 73:1 88:1 #
-0.10170369193833563026263533402016 16:1 37:1 54:1 63:1 88:1 #
-0.065122593410696497095990764591988 10:1 38:1 49:1 77:1 93:1 #
-0.10952247341618744080893321779513 9:1 37:1 57:1 61:1 90:1 #
-0.10038703541466026392114940790634 14:1 29:1 49:1 76:1 98:1 #
-0.085437873081398524321983245499723 18:1 29:1 43:1 70:1 83:1 #
-0.10876100661649509837580751536734 7:1 35:1 46:1 69:1 82:1 #
-0.09399460174443549642653294995398 18:1 36:1 47:1 77:1 97:1 #
-0.088634997764822739951817709425086 1:1 30:1 56:1 72:1 98:1 #
-0.11016568511598948121310570513742 10:1 23:1 58:1 73:1 98:1 #
-0.10011046409222060238342066895711 2:1 22:1 55:1 68:1 96:1 #
-0.087321940669652847732962186455552 18:1 21:1 41:1 62:1 88:1 #
-0.086065555224941775458447068558598 12:1 35:1 50:1 63:1 95:1 #
-0.097240646677570485856278992287116 15:1 31:1 50:1 66:1 86:1 #
-0.086163323313154654981005364788871 7:1 38:1 53:1 74:1 90:1 #
-0.085589074672041409730383065834758 9:1 21:1 55:1 75:1 90:1 #
-0.071336049798064515847784150537336 17:1 24:1 41:1 78:1 86:1 #
-0.092836506681673633400997402986832 20:1 24:1 49:1 61:1 94:1 #
-0.079577094236916640079826379405858 13:1 36:1 51:1 75:1 92:1 #
-0.084022090343856978278402891646692 11:1 40:1 51:1 76:1 89:1 #
-0.091801251693878010984306570207991 12:1 25:1 51:1 71:1 84:1 #
-0.082843809603454013346102158266149 4:1 37:1 44:1 63:1 96:1 #
-0.07313082537148202222354598234233 15:1 34:1 48:1 77:1 87:1 #
-0.090089964256433507916455027952907 16:1 39:1 50:1 72:1 82:1 #
0.068896798943569703688183381018462 20:1 25:1 46:1 79:1 85:1 #
0.10096417666487138287134683878321 20:1 38:1 45:1 79:1 85:1 #
0.1001405270703909500262795972958 5:1 37:1 60:1 79:1 85:1 #
-0.076608156135745869574904531873472 8:1 25:1 52:1 76:1 95:1 #
-0.080602578323699825002535135354265 8:1 32:1 57:1 63:1 86:1 #
-0.092874047756006467002620752282382 5:1 36:1 44:1 77:1 96:1 #
-0.087975306536916070276888035550655 10:1 30:1 50:1 63:1 90:1 #
-0.085893052114407827946074291958212 7:1 33:1 58:1 70:1 99:1 #
-0.082013799978550461222681633444154 16:1 28:1 56:1 74:1 98:1 #
-0.098958598715983225879710971639724 18:1 32:1 46:1 78:1 96:1 #
-0.084459143125495295123528194380924 3:1 34:1 49:1 80:1 82:1 #
-0.081513090641461102836551333439274 12:1 39:1 59:1 69:1 92:1 #
-0.091909808902535555796831090447085 2:1 30:1 50:1 71:1 95:1 #
-0.075317915359097376004626767098671 10:1 25:1 42:1 69:1 96:1 #
-0.078004729681589599077362606749375 15:1 28:1 54:1 70:1 95:1 #
-0.05521818466746131193190194608178 17:1 24:1 44:1 76:1 98:1 #
-0.080152068865323056190419492850197 13:1 29:1 50:1 70:1 94:1 #
-0.07776971252038210324908362736096 10:1 30:1 55:1 73:1 97:1 #
-0.080675587098314724410208498284192 18:1 34:1 57:1 77:1 84:1 #
-0.071728480376640299520651922193792 8:1 35:1 43:1 70:1 90:1 #
-0.079440894625932484407471179110871 4:1 35:1 50:1 76:1 81:1 #
-0.081647752240118609545760364198941 15:1 32:1 47:1 67:1 86:1 #
-0.058277373628564409224761533323544 6:1 24:1 41:1 72:1 97:1 #
-0.065532812002388016181519958536228 10:1 34:1 52:1 67:1 90:1 #
-0.069440812001944490772231688424654 11:1 29:1 57:1 62:1 87:1 #
-0.099258161000903386006477546743554 14:1 37:1 49:1 77:1 93:1 #
-0.061072825921327802967120135235746 9:1 27:1 44:1 80:1 84:1 #
-0.07243727463309063141494448245794 10:1 24:1 51:1 69:1 89:1 #
-0.054852914197526407569238671158018 3:1 36:1 43:1 73:1 83:1 #
-0.077398454651654166602803286423296 14:1 38:1 56:1 80:1 98:1 #
-0.071025516462679266771473862718267 11:1 24:1 46:1 78:1 90:1 #
-0.06653634171407574182666166962008 6:1 33:1 46:1 72:1 89:1 #
-0.073051961556510225381799727983889 8:1 40:1 56:1 70:1 81:1 #
-0.06501089151041938851705026536365 9:1 40:1 60:1 76:1 96:1 #
-0.062527084827766518659863947959821 10:1 30:1 53:1 80:1 81:1 #
-0.070816092992955825824452631422901 7:1 36:1 57:1 66:1 96:1 #
-0.073925759049476305606596326924773 18:1 26:1 58:1 67:1 90:1 #
-0.060628163061295682612072965866901 4:1 29:1 44:1 61:1 91:1 #
-0.067047126048287677968495756886114 4:1 27:1 41:1 67:1 90:1 #
-0.063803223888687435327859986955445 20:1 21:1 52:1 76:1 87:1 #
-0.055948533610946316052547899744241 2:1 31:1 49:1 75:1 97:1 #
-0.071566805081589718318113568784611 17:1 30:1 43:1 63:1 100:1 #
-0.077411614380122145684381962382759 13:1 35:1 50:1 62:1 87:1 #
-0.080254181695847262578702441260248 16:1 37:1 47:1 76:1 88:1 #
-0.060755886975556061546654973426485 15:1 36:1 52:1 73:1 88:1 #
-0.060848002851610676067206640027507 1:1 24:1 46:1 75:1 96:1 #
-0.077683456695149574744441167695186 13:1 36:1 55:1 70:1 81:1 #
-0.067480625503560598410501825128449 10:1 26:1 56:1 80:1 100:1 #
-0.050654967942293877003478996812191 2:1 27:1 44:1 69:1 93:1 #
-0.045077525341207222431272327867191 1:1 21:1 41:1 76:1 83:1 #
-0.052941828618886820068123455484965 3:1 21:1 41:1 76:1 92:1 #
-0.059641101689472467151098555859789 16:1 34:1 50:1 74:1 96:1 #
-0.054085338046227122987819058153036 4:1 34:1 53:1 64:1 91:1 #
-0.057369084390876047552243477412048 10:1 30:1 49:1 64:1 86:1 #
-0.061611020640599062359044069125957 8:1 26:1 57:1 61:1 95:1 #
-0.066863344351934445031204745646392 9:1 28:1 60:1 61:1 100:1 #
-0.059664767841534425973915034546735 15:1 35:1 58:1 73:1 89:1 #
-0.073853857966580865879180350930255 17:1 24:1 56:1 71:1 98:1 #
-0.045028271669665373422297705019446 3:1 35:1 53:1 69:1 95:1 #
-0.055282669223389931112411233016246 18:1 23:1 44:1 77:1 90:1 #
-0.054374298595233780395652445349697 10:1 32:1 56:1 62:1 84:1 #
-0.063753081586091830956775083905086 10:1 40:1 54:1 63:1 88:1 #
-0.060104086718630406194208148917824 14:1 32:1 42:1 74:1 88:1 #
-0.063461377360367540734209512720554 9:1 23:1 50:1 65:1 86:1 #
-0.066423782875819417648166620438133 8:1 27:1 49:1 76:1 90:1 #
-0.051375984889301937186267821289221 11:1 28:1 54:1 69:1 90:1 #
0.05048961509503330918890995349102 20:1 37:1 50:1 79:1 85:1 #
-0.059301891384830746067891027450969 13:1 31:1 41:1 75:1 95:1 #
-0.069243126731251769534480899892515 8:1 36:1 48:1 70:1 89:1 #
-0.047385701072867797423171509763051 15:1 30:1 49:1 77:1 83:1 #
-0.047158950520066050815515268368472 16:1 34:1 47:1 61:1 93:1 #
-0.055204505407734236199779331855098 12:1 34:1 57:1 71:1 93:1 #
-0.047737527600975604435973309591645 9:1 36:1 56:1 69:1 100:1 #
-0.066726981860297726600883549963328 14:1 35:1 54:1 70:1 98:1 #
-0.052500461072081151814305854941267 17:1 28:1 52:1 64:1 88:1 #
-0.055149125662017552118587815357387 4:1 35:1 48:1 77:1 92:1 #
-0.050936929842574613092054391927377 20:1 36:1 44:1 73:1 90:1 #
-0.046805312607382139333811466030966 6:1 29:1 41:1 69:1 90:1 #
-0.049570039776112809204455800227151 10:1 26:1 53:1 69:1 92:1 #
-0.052061349674512411023208358074044 7:1 33:1 49:1 75:1 81:1 #
-0.056358413943793900235945670829096 15:1 35:1 49:1 63:1 81:1 #
-0.065235733626700376230900246810052 17:1 37:1 58:1 76:1 96:1 #
-0.053336089112026058289828256420151 11:1 24:1 42:1 68:1 84:1 #
-0.042491603857581564107626093118597 3:1 30:1 44:1 78:1 92:1 #
-0.040401357118778485899568408967752 14:1 36:1 56:1 75:1 83:1 #
-0.054631205463538029531989081988286 4:1 34:1 58:1 74:1 90:1 #
-0.038143930336125383973033819984266 1:1 38:1 44:1 69:1 94:1 #
-0.047719474439168504953379112976108 3:1 23:1 53:1 62:1 97:1 #
-0.047481656512054076779705269473197 6:1 21:1 43:1 66:1 84:1 #
-0.038871320515491761260484793183423 1:1 26:1 47:1 75:1 93:1 #
-0.051849539628717120076650815008179 16:1 25:1 48:1 72:1 88:1 #
-0.057282307636451222643270142498295 7:1 29:1 44:1 68:1 96:1 #
-0.051390368042346069865633495510338 10:1 28:1 56:1 68:1 95:1 #
-0.039117483917257722669802433301811 18:1 24:1 44:1 63:1 84:1 #
-0.05656427520496221106327539018821 20:1 35:1 56:1 67:1 90:1 #
-0.052312962164251866625797049437097 1:1 35:1 53:1 66:1 87:1 #
-0.045924187098748937840841932711555 9:1 35:1 42:1 75:1 93:1 #
-0.04421566361266958400388915606527 17:1 25:1 57:1 76:1 97:1 #
-0.048207098493617435430724782463585 6:1 34:1 47:1 76:1 97:1 #
-0.045011076748053199803045743010443 15:1 36:1 57:1 64:1 90:1 #
-0.052403614819811060454579632050809 18:1 23:1 44:1 72:1 82:1 #
-0.043336985598852212353548907231016 3:1 23:1 49:1 69:1 83:1 #
-0.049173115659949133415818067760483 17:1 29:1 58:1 70:1 90:1 #
-0.046239765575314881185242654737522 13:1 36:1 56:1 74:1 93:1 #
-0.036821731942306035190171087378985 6:1 33:1 41:1 64:1 83:1 #
-0.04704000726543501598175822664416 2:1 21:1 49:1 62:1 88:1 #
-0.044324465210094608769164636896676 8:1 33:1 56:1 68:1 90:1 #
-0.052299920133142357991928861338238 3:1 35:1 48:1 73:1 97:1 #
-0.052799188537969769796642793835417 6:1 26:1 55:1 75:1 86:1 #
-0.065209119543508525795871832997364 9:1 28:1 57:1 77:1 98:1 #
-0.038945827736790623874174599450271 9:1 38:1 47:1 77:1 95:1 #
-0.051052537593978535024330511760127 4:1 38:1 56:1 70:1 98:1 #
-0.04956913842162949390690585005359 10:1 36:1 53:1 73:1 89:1 #
-0.04343959119951254499447657053679 12:1 30:1 49:1 72:1 89:1 #
-0.04520958623395324865734679065099 16:1 31:1 54:1 76:1 89:1 #
-0.04715382985511904628816992612883 9:1 29:1 49:1 65:1 81:1 #
-0.047786675413501573939090150133779 10:1 27:1 49:1 75:1 96:1 #
-0.04971858478439779294166811496325 12:1 36:1 48:1 77:1 88:1 #
-0.047792945393752513105756207778541 14:1 36:1 51:1 70:1 96:1 #
-0.054155534851180853195273812161759 10:1 34:1 58:1 80:1 88:1 #
-0.053228645395698770403924982019817 13:1 31:1 41:1 68:1 97:1 #
-0.050563134328603667744239658077277 4:1 21:1 54:1 64:1 91:1 #
-0.044248269840696255461587327317829 1:1 21:1 57:1 67:1 86:1 #
-0.041893859973287241038608641474639 15:1 33:1 44:1 64:1 92:1 #
-0.046862701583878257904913766651589 6:1 33:1 46:1 78:1 83:1 #
-0.040514221057897717437334961232409 10:1 38:1 52:1 63:1 97:1 #
-0.045658590609636034995943987269129 18:1 21:1 44:1 76:1 93:1 #
-0.046081546654559116249494366002182 3:1 32:1 57:1 78:1 92:1 #
-0.047807991631347926397843650647701 11:1 29:1 49:1 75:1 87:1 #
-0.024544076672777605935271694193034 3:1 24:1 44:1 64:1 83:1 #
-0.044853382600530289359141988825286 12:1 34:1 48:1 68:1 90:1 #
-0.037939836205959386050690085312453 9:1 38:1 50:1 62:1 90:1 #
-0.041213412771159876890614270905644 10:1 29:1 56:1 70:1 93:1 #
-0.039016150801565917249913439945885 6:1 29:1 53:1 69:1 84:1 #
-0.042197864952184215014963086787247 15:1 24:1 52:1 71:1 97:1 #
-0.037709191505459274673661695942428 16:1 38:1 53:1 61:1 95:1 #
-0.036978951849626670589366028707445 1:1 31:1 49:1 69:1 90:1 #
-0.043431563833995108503405191413549 10:1 21:1 52:1 75:1 83:1 #
-0.035431620369019478644645460008178 16:1 33:1 49:1 62:1 83:1 #
-0.0459632732020258880090146647035 14:1 29:1 46:1 69:1 89:1 #
-0.042023482907567195898668188647207 10:1 34:1 53:1 77:1 96:1 #
-0.045096784302118615717080984950371 15:1 26:1 49:1 77:1 87:1 #
-0.037907257970615663988933619066302 20:1 30:1 44:1 69:1 90:1 #
-0.039306989157823060687668714763277 17:1 35:1 44:1 72:1 88:1 #
-0.035845958662362183144711735849341 16:1 22:1 56:1 68:1 91:1 #
0.031295675323457325389675531823741 5:1 35:1 50:1 79:1 85:1 #
-0.033830386995664513127834993611032 9:1 29:1 56:1 76:1 83:1 #
-0.042044103261221092704413848650802 6:1 30:1 51:1 69:1 92:1 #
-0.039374455787088022407083087728097 2:1 38:1 56:1 63:1 96:1 #
-0.0343364888970490583774974879816 9:1 36:1 49:1 62:1 95:1 #
-0.035472939774463710382867986936617 1:1 33:1 44:1 74:1 94:1 #
-0.034812616049604762358260501287077 15:1 24:1 50:1 75:1 90:1 #
-0.039452672030670217495629259474299 10:1 30:1 53:1 67:1 97:1 #
-0.031374924473413542957977995229157 1:1 30:1 47:1 76:1 84:1 #
-0.036769058625059886091790417594893 1:1 29:1 49:1 70:1 84:1 #
-0.03845588531952272987046725916116 17:1 29:1 52:1 69:1 81:1 #
-0.033281688408269657908356009556883 6:1 28:1 48:1 61:1 90:1 #
-0.032582234382382890824914056793205 14:1 29:1 56:1 61:1 93:1 #
-0.039257115109261858654221555298136 16:1 35:1 47:1 77:1 95:1 #
-0.033254571904848942431875968850363 16:1 31:1 44:1 64:1 84:1 #
-0.036222517609467153043567577697104 16:1 36:1 56:1 62:1 82:1 #
-0.031258108289019953529574991080153 4:1 22:1 53:1 61:1 96:1 #
-0.031595558135881766925745495200317 13:1 26:1 49:1 78:1 90:1 #
-0.031877819745805814621864016089603 1:1 24:1 57:1 73:1 94:1 #
-0.033057640308138749873911876875354 10:1 36:1 43:1 64:1 83:1 #
-0.029246097609305615055985683170547 9:1 26:1 44:1 72:1 94:1 #
-0.028796379980732016851119325906438 14:1 24:1 43:1 69:1 87:1 #
-0.034006756255841597003097831475316 16:1 24:1 50:1 74:1 90:1 #
-0.03272920459978264501321731927419 10:1 24:1 53:1 63:1 95:1 #
-0.030461386080905563517040590681972 9:1 22:1 58:1 70:1 96:1 #
-0.035656383982746349403658570054176 15:1 38:1 56:1 68:1 90:1 #
-0.028844744460119760287586387903502 16:1 22:1 56:1 78:1 93:1 #
-0.030444503208470224953074989571178 12:1 30:1 57:1 74:1 83:1 #
-0.030893454409688235473563366895178 16:1 34:1 54:1 73:1 96:1 #
-0.028161503807161043788642729168714 5:1 30:1 43:1 69:1 90:1 #
-0.028498718323141200570169928596442 14:1 32:1 53:1 71:1 90:1 #
-0.02604225187679091307879630790012 9:1 33:1 50:1 69:1 89:1 #
-0.028815616099111960451972791474873 9:1 38:1 52:1 66:1 92:1 #
-0.022475900004227455236671673333149 17:1 33:1 56:1 76:1 86:1 #
-0.027128337839358036831516329812075 2:1 30:1 49:1 61:1 93:1 #
-0.024758302663056716563794168450841 1:1 36:1 44:1 64:1 83:1 #
-0.026834286059850876587917767324143 14:1 24:1 53:1 74:1 96:1 #
-0.024514134666422316560785432670855 1:1 30:1 43:1 76:1 94:1 #
-0.028199776633799057690143996524057 15:1 24:1 44:1 72:1 84:1 #
-0.024865820937058264600283408185533 17:1 23:1 56:1 76:1 92:1 #
-0.025205264285736186241626555215589 3:1 21:1 49:1 69:1 96:1 #
-0.025118628612506542496785044704666 17:1 26:1 49:1 75:1 93:1 #
-0.025572530972268435467409375405623 6:1 36:1 49:1 63:1 95:1 #
-0.026828296633807927756842914845947 14:1 25:1 56:1 75:1 90:1 #
-0.026163175102206986250008569072634 6:1 26:1 50:1 70:1 90:1 #
-0.022506848022169293616068230790006 1:1 33:1 57:1 78:1 93:1 #
-0.024211817221571601405072371449023 9:1 36:1 43:1 76:1 83:1 #
-0.026952500584523624710397982084942 10:1 37:1 46:1 76:1 86:1 #
-0.02575808635546829664098034129438 17:1 30:1 48:1 70:1 96:1 #
-0.022690515851066187652529393403711 4:1 35:1 49:1 69:1 89:1 #
-0.024846304356078437181043483406029 9:1 33:1 49:1 72:1 90:1 #
-0.021793973803660566385120844756784 13:1 21:1 56:1 64:1 97:1 #
-0.022650310019138444189712444654106 1:1 28:1 56:1 76:1 89:1 #
-0.021675078930461635223769789604376 11:1 24:1 44:1 63:1 93:1 #
-0.020954519334905358229903526989801 6:1 26:1 44:1 64:1 83:1 #
-0.019634362937612757221694792519884 13:1 35:1 57:1 66:1 96:1 #
-0.023941760902194155619104876109304 9:1 21:1 47:1 75:1 93:1 #
-0.023120616058311990737017538322107 13:1 29:1 44:1 76:1 94:1 #
-0.022093928099065879289142344532593 12:1 35:1 58:1 73:1 88:1 #
-0.02010762629422636199594265349333 4:1 24:1 44:1 77:1 95:1 #
-0.020595338219892348613493382458728 9:1 26:1 52:1 74:1 88:1 #
-0.019981856505818136604535339984068 6:1 32:1 53:1 61:1 93:1 #
-0.019916363703530195333746277697173 13:1 21:1 57:1 61:1 95:1 #
-0.019241355115811788895063827453669 16:1 33:1 41:1 78:1 81:1 #
-0.021731834345899869731510989367962 9:1 36:1 54:1 69:1 90:1 #
-0.019082954682171974353233068200097 6:1 21:1 56:1 76:1 86:1 #
-0.019966378617568440734242329881454 17:1 36:1 57:1 76:1 96:1 #
-0.019741287783503116276540012563601 3:1 24:1 44:1 63:1 83:1 #
-0.014703452647823352789080431080038 1:1 24:1 56:1 61:1 84:1 #
-0.015448406485504332513736258647441 9:1 28:1 57:1 69:1 89:1 #
-0.014524319771608203491486399627775 3:1 33:1 57:1 78:1 96:1 #
-0.013864096857146911839775427210952 1:1 30:1 47:1 67:1 90:1 #
-0.011620310079949500159379738306598 6:1 30:1 49:1 77:1 84:1 #
-0.011018777154227880898940128417962 16:1 36:1 52:1 61:1 90:1 #
-0.0069363895636885249465497516041523 6:1 24:1 44:1 63:1 83:1 #
-0.0094606453034552853709193698250601 16:1 30:1 49:1 75:1 89:1 #
-0.0083830172248664982376231691318935 6:1 23:1 57:1 65:1 90:1 #
-0.0086386015050509620816221456607309 1:1 34:1 57:1 65:1 90:1 #
-0.007052463268646339683565216205352 2:1 33:1 53:1 76:1 96:1 #
-0.0092473108295930556144170964216755 5:1 24:1 57:1 61:1 90:1 #
-0.0091145087335304537240476818737989 4:1 24:1 44:1 64:1 83:1 #
-0.0074493871409357752255697704413251 12:1 35:1 44:1 69:1 96:1 #
-0.0074803484499325291132154625017847 6:1 30:1 58:1 73:1 89:1 #
-0.0070233960450463116254038453689645 9:1 35:1 49:1 69:1 89:1 #
-0.0064330716202486018864825645380279 4:1 30:1 48:1 61:1 90:1 #
-0.0048663519658827258940192450609175 16:1 26:1 43:1 64:1 81:1 #
-0.0057085875933354530281649275025302 6:1 24:1 49:1 69:1 93:1 #
-0.0039721347158404749985716186699847 16:1 36:1 43:1 76:1 84:1 #
0.0072394568885979140165920497906882 10:1 35:1 45:1 79:1 85:1 #
-0.0031557772148417461907654590902439 3:1 30:1 54:1 63:1 93:1 #
-0.0018586612072688281360743900449961 1:1 33:1 56:1 75:1 89:1 #
-0.0011672768603067803193373830339397 16:1 36:1 52:1 68:1 88:1 #
