SVM-light Version V6.02
2 # kernel type
3 # kernel parameter -d 
0.0078125 # kernel parameter -g 
1 # kernel parameter -s 
1 # kernel parameter -r 
empty# kernel parameter -u 
100 # highest feature index 
360 # number of training documents 
75 # number of support vectors plus 1 
1.7309399 # threshold b, each following line is a SV (starting with alpha*y)
-0.93859131230276204860274447128177 5:1 32:1 58:1 71:1 90:1 #
8 12:1 39:1 46:1 79:1 98:1 #
8 8:1 28:1 41:1 79:1 98:1 #
8 5:1 30:1 46:1 79:1 96:1 #
8 5:1 31:1 50:1 79:1 91:1 #
4.6212074862486112181159114697948 5:1 22:1 45:1 79:1 88:1 #
-0.2919988257589647417944433982484 15:1 29:1 43:1 80:1 98:1 #
8 17:1 36:1 45:1 79:1 98:1 #
-4.9754318669548966980187287845183 20:1 33:1 57:1 62:1 98:1 #
-3.3570353824028842382176662795246 5:1 28:1 52:1 77:1 96:1 #
-5.2648931345803973158581356983632 5:1 22:1 41:1 70:1 90:1 #
-8 5:1 29:1 44:1 68:1 90:1 #
8 20:1 25:1 45:1 62:1 86:1 #
8 15:1 36:1 57:1 79:1 98:1 #
8 19:1 30:1 57:1 79:1 98:1 #
-4.2791080176756537412074976600707 8:1 30:1 60:1 64:1 98:1 #
-8 18:1 38:1 50:1 79:1 87:1 #
-2.3400854148197538506792625412345 17:1 25:1 43:1 79:1 87:1 #
-6.6263740457766306946041368064471 19:1 24:1 43:1 79:1 84:1 #
8 5:1 35:1 50:1 65:1 90:1 #
8 5:1 30:1 46:1 65:1 98:1 #
8 5:1 30:1 46:1 69:1 98:1 #
-1.6010572752467184809432865222334 20:1 36:1 45:1 69:1 90:1 #
8 5:1 31:1 50:1 79:1 90:1 #
-8 7:1 39:1 45:1 63:1 98:1 #
8 6:1 33:1 59:1 79:1 98:1 #
8 19:1 26:1 48:1 79:1 98:1 #
-6.9500406108176635555651046161074 6:1 26:1 46:1 66:1 98:1 #
-1.2880537675209424719469097908586 9:1 28:1 41:1 62:1 98:1 #
-8 8:1 34:1 48:1 65:1 98:1 #
4.7171831962580315078525927674491 5:1 34:1 45:1 79:1 90:1 #
8 5:1 29:1 58:1 79:1 90:1 #
-3.9429797086011597606614031974459 4:1 36:1 50:1 78:1 98:1 #
-8 5:1 30:1 56:1 67:1 90:1 #
-8 17:1 36:1 58:1 79:1 88:1 #
-5.6678874486842278912490655784495 16:1 26:1 54:1 79:1 93:1 #
-8 18:1 33:1 50:1 79:1 83:1 #
-6.8789239197192522112800361355767 16:1 29:1 49:1 79:1 96:1 #
7.0978854943370492946996819227934 5:1 30:1 51:1 79:1 88:1 #
6.7647099856913683879611198790371 5:1 35:1 48:1 79:1 88:1 #
-7.7062098077326695033661962952465 5:1 24:1 46:1 64:1 90:1 #
-8 5:1 23:1 57:1 73:1 90:1 #
-2.1252329215775329629423140431754 5:1 25:1 55:1 69:1 88:1 #
7.5879256738193952003257436444983 10:1 28:1 59:1 79:1 98:1 #
8 10:1 33:1 45:1 79:1 98:1 #
-8 10:1 30:1 50:1 74:1 98:1 #
-5.5699943630414221473756697378121 17:1 22:1 54:1 79:1 92:1 #
-5.2204232680703785973719277535565 19:1 30:1 53:1 75:1 98:1 #
3.6803684571154011706539677106775 5:1 38:1 59:1 79:1 90:1 #
4.8662792208722329689862817758694 5:1 37:1 48:1 79:1 90:1 #
8 5:1 29:1 50:1 79:1 90:1 #
-8 16:1 34:1 41:1 79:1 86:1 #
-8 18:1 37:1 42:1 79:1 82:1 #
-7.0715091985038887045789124385919 5:1 36:1 50:1 75:1 81:1 #
8 8:1 30:1 46:1 79:1 98:1 #
-8 17:1 31:1 47:1 79:1 96:1 #
-0.36763843367951043461516746901907 10:1 38:1 57:1 76:1 98:1 #
-5.3646649836433013547321024816483 5:1 30:1 49:1 72:1 94:1 #
5.3503191592303771528804645640776 5:1 37:1 50:1 79:1 91:1 #
-8 3:1 25:1 55:1 79:1 84:1 #
-8 11:1 24:1 58:1 79:1 97:1 #
7.0238688793939942911492835264653 15:1 36:1 59:1 79:1 98:1 #
-8 10:1 21:1 46:1 71:1 98:1 #
-0.81505453568149732745951041579247 5:1 29:1 60:1 68:1 88:1 #
-1.5658735588778069924842384352814 5:1 21:1 56:1 72:1 90:1 #
8 10:1 21:1 45:1 79:1 98:1 #
-3.5362233471956372454769734758884 3:1 33:1 46:1 69:1 98:1 #
-3.1727495479779053155766632698942 17:1 30:1 46:1 74:1 98:1 #
8 5:1 37:1 50:1 79:1 90:1 #
5.6921658794232286027181544341147 5:1 30:1 46:1 79:1 97:1 #
0.87504566255708127187062927987427 12:1 36:1 45:1 79:1 98:1 #
-0.32832963466211495529023522976786 1:1 35:1 44:1 80:1 98:1 #
-0.88727970377133758006493735592812 18:1 37:1 54:1 79:1 84:1 #
-0.14331505966985513822464781696908 6:1 30:1 50:1 65:1 90:1 #
