SVM-light Version V6.02
2 # kernel type
3 # kernel parameter -d 
0.00012207031 # kernel parameter -g 
1 # kernel parameter -s 
1 # kernel parameter -r 
empty# kernel parameter -u 
100 # highest feature index 
174 # number of training documents 
45 # number of support vectors plus 1 
1.3838949 # threshold b, each following line is a SV (starting with alpha*y)
512 10:1 24:1 57:1 79:1 90:1 #
234.65874893905129283666610717773 15:1 24:1 57:1 79:1 90:1 #
-512 15:1 27:1 55:1 79:1 89:1 #
19.180592584481928497552871704102 20:1 25:1 57:1 79:1 90:1 #
512 13:1 35:1 57:1 79:1 85:1 #
512 3:1 39:1 57:1 75:1 90:1 #
345.98941527225542813539505004883 19:1 24:1 57:1 79:1 90:1 #
490.18388940335717052221298217773 5:1 39:1 57:1 79:1 98:1 #
126.54501522006466984748840332031 7:1 36:1 57:1 79:1 90:1 #
-512 12:1 24:1 57:1 76:1 90:1 #
-512 9:1 36:1 57:1 61:1 85:1 #
-16.857697575658676214516162872314 5:1 39:1 50:1 75:1 85:1 #
512 13:1 36:1 56:1 79:1 98:1 #
512 8:1 21:1 57:1 70:1 98:1 #
462.17959182016784325242042541504 15:1 27:1 57:1 79:1 90:1 #
-512 11:1 21:1 57:1 70:1 91:1 #
-443.80425717076286673545837402344 16:1 21:1 57:1 67:1 99:1 #
-512 13:1 33:1 57:1 66:1 88:1 #
512 9:1 28:1 57:1 65:1 90:1 #
512 9:1 38:1 57:1 79:1 88:1 #
-512 9:1 38:1 60:1 79:1 100:1 #
-344.54632788410526700317859649658 5:1 38:1 49:1 72:1 90:1 #
-281.69089854041885701008141040802 9:1 29:1 54:1 69:1 90:1 #
512 13:1 21:1 57:1 63:1 90:1 #
362.76168291596695780754089355469 17:1 24:1 57:1 79:1 90:1 #
-512 13:1 24:1 45:1 65:1 90:1 #
-260.89807685252162627875804901123 10:1 24:1 57:1 61:1 94:1 #
-383.37364159453136380761861801147 20:1 32:1 57:1 62:1 94:1 #
438.92558875260874629020690917969 9:1 22:1 57:1 79:1 90:1 #
60.234355008171405643224716186523 9:1 34:1 57:1 79:1 90:1 #
295.90972956627956591546535491943 15:1 38:1 57:1 79:1 90:1 #
-376.40567815187387168407440185547 13:1 22:1 58:1 68:1 90:1 #
-443.80425722268410027027130126953 1:1 23:1 57:1 63:1 81:1 #
512 20:1 24:1 57:1 79:1 90:1 #
-375.48641788364329840987920761108 4:1 24:1 57:1 64:1 96:1 #
-174.63822846986295189708471298218 18:1 24:1 57:1 76:1 97:1 #
-145.74048547454731306061148643494 17:1 37:1 56:1 78:1 98:1 #
-111.2187606102816062048077583313 9:1 28:1 60:1 66:1 90:1 #
-264.32636410766281187534332275391 15:1 24:1 44:1 68:1 90:1 #
-85.987524175783619284629821777344 7:1 37:1 53:1 64:1 90:1 #
-46.924680948337481822818517684937 10:1 26:1 57:1 76:1 89:1 #
-129.7499170338414842262864112854 19:1 35:1 49:1 76:1 90:1 #
-56.841277170227840542793273925781 6:1 33:1 41:1 77:1 90:1 #
81.725881384452804923057556152344 13:1 24:1 57:1 79:1 90:1 #
