SVM-light Version V6.02
2 # kernel type
3 # kernel parameter -d 
0.00012207031 # kernel parameter -g 
1 # kernel parameter -s 
1 # kernel parameter -r 
empty# kernel parameter -u 
100 # highest feature index 
78 # number of training documents 
32 # number of support vectors plus 1 
1.1015395 # threshold b, each following line is a SV (starting with alpha*y)
-431.48159062091144733130931854248 10:1 34:1 44:1 79:1 98:1 #
512 4:1 36:1 44:1 79:1 90:1 #
-271.2014089239819440990686416626 1:1 37:1 45:1 74:1 90:1 #
-512 4:1 30:1 52:1 62:1 88:1 #
512 4:1 36:1 46:1 79:1 90:1 #
512 3:1 28:1 57:1 76:1 90:1 #
512 4:1 33:1 53:1 79:1 90:1 #
128.77906074072234332561492919922 4:1 36:1 41:1 79:1 90:1 #
512 4:1 37:1 43:1 79:1 90:1 #
512 4:1 36:1 43:1 79:1 91:1 #
-512 16:1 36:1 57:1 70:1 90:1 #
-244.01657933762180618941783905029 10:1 33:1 47:1 74:1 90:1 #
-512 16:1 36:1 46:1 79:1 85:1 #
512 6:1 24:1 56:1 63:1 90:1 #
512 5:1 30:1 57:1 79:1 90:1 #
512 4:1 36:1 53:1 66:1 90:1 #
-289.38086113361350726336240768433 12:1 32:1 56:1 69:1 90:1 #
-289.38086113282770384103059768677 14:1 25:1 56:1 67:1 90:1 #
-459.73241480012075044214725494385 9:1 24:1 56:1 64:1 90:1 #
-512 4:1 37:1 44:1 75:1 83:1 #
-348.41469176081591285765171051025 18:1 35:1 54:1 68:1 90:1 #
-64.987483779048488941043615341187 6:1 37:1 57:1 76:1 96:1 #
425.59725106763653457164764404297 4:1 36:1 53:1 79:1 91:1 #
-146.32518094260012730956077575684 15:1 38:1 53:1 71:1 93:1 #
-227.11351865692995488643646240234 6:1 33:1 53:1 73:1 98:1 #
-98.915698265307582914829254150391 8:1 36:1 50:1 70:1 96:1 #
-90.30436565709533169865608215332 16:1 36:1 48:1 76:1 92:1 #
-32.260059531196020543575286865234 13:1 28:1 44:1 63:1 100:1 #
-34.462165994133101776242256164551 6:1 34:1 57:1 76:1 97:1 #
-74.259091953746974468231201171875 15:1 22:1 42:1 78:1 91:1 #
-12.1403393186628818511962890625 7:1 28:1 49:1 66:1 85:1 #
