SVM-light Version V6.02
2 # kernel type
3 # kernel parameter -d 
0.0078125 # kernel parameter -g 
1 # kernel parameter -s 
1 # kernel parameter -r 
empty# kernel parameter -u 
98 # highest feature index 
80 # number of training documents 
17 # number of support vectors plus 1 
0.99982136 # threshold b, each following line is a SV (starting with alpha*y)
-0.00048376308696413544696568465042219 1:1 32:1 53:1 64:1 88:1 #
-0.016833616500506104474155222305853 9:1 40:1 43:1 80:1 98:1 #
-0.025495265917067411187701964081498 10:1 33:1 58:1 74:1 98:1 #
-2.0335208628097234395681880414486e-08 1:1 33:1 55:1 76:1 98:1 #
-0.0054051569291971440778254986980755 1:1 34:1 57:1 75:1 90:1 #
0.03125 7:1 39:1 45:1 63:1 98:1 #
0.03125 9:1 36:1 54:1 80:1 98:1 #
0.03125 10:1 26:1 41:1 80:1 98:1 #
0.03125 14:1 36:1 58:1 64:1 98:1 #
0.03125 17:1 26:1 48:1 74:1 98:1 #
-0.019556406928850925130980442645523 9:1 36:1 41:1 67:1 98:1 #
-0.018506915758305986230425332905725 9:1 24:1 60:1 80:1 98:1 #
-0.020901153668619693037911133615125 6:1 36:1 58:1 64:1 98:1 #
-0.020718861032793883802938239568903 16:1 36:1 45:1 70:1 98:1 #
-0.014317617762296008798728053079685 15:1 26:1 51:1 76:1 88:1 #
-0.014037638116784129094227751011204 8:1 25:1 57:1 63:1 98:1 #
