SVM-light Version V6.02
2 # kernel type
3 # kernel parameter -d 
0.0078125 # kernel parameter -g 
1 # kernel parameter -s 
1 # kernel parameter -r 
empty# kernel parameter -u 
99 # highest feature index 
72 # number of training documents 
34 # number of support vectors plus 1 
1.8385417 # threshold b, each following line is a SV (starting with alpha*y)
32 11:1 26:1 57:1 79:1 98:1 #
-0.35161551042372707343020010739565 6:1 21:1 51:1 79:1 97:1 #
17.742363909780351605149917304516 19:1 40:1 57:1 79:1 98:1 #
-8.3665749571727445754731888882816 19:1 26:1 58:1 80:1 98:1 #
-1.5141994604307846827850880799815 10:1 40:1 57:1 66:1 98:1 #
32 5:1 30:1 57:1 79:1 90:1 #
16.009214223648442043668183032423 5:1 36:1 57:1 79:1 98:1 #
-6.5769169416802597538662666920573 19:1 26:1 53:1 66:1 98:1 #
-26.103273759279417731704597827047 11:1 30:1 57:1 64:1 98:1 #
-5.0624871223260470287641510367393 16:1 26:1 49:1 79:1 84:1 #
-6.1534524965846166821847873507068 8:1 28:1 41:1 79:1 98:1 #
32 19:1 39:1 57:1 63:1 98:1 #
-2.221658791082774087044526822865 4:1 27:1 57:1 66:1 98:1 #
9.3723226690866052734918412170373 19:1 25:1 57:1 79:1 98:1 #
0.9622309502198049813159741461277 5:1 26:1 57:1 79:1 98:1 #
-13.718846748740354257733997656032 5:1 40:1 57:1 76:1 93:1 #
-11.815804984498811336379731073976 15:1 24:1 57:1 63:1 90:1 #
-13.03609188491003578747040592134 8:1 25:1 57:1 63:1 98:1 #
-1.9880879817724697034009295748547 17:1 37:1 57:1 72:1 98:1 #
-5.0257115409037806941228154755663 14:1 27:1 57:1 72:1 98:1 #
-4.9475081947474706112188869155943 17:1 40:1 57:1 61:1 98:1 #
-10.365761657651017202397270011716 1:1 34:1 47:1 79:1 98:1 #
-7.1211930609853055784697062335908 13:1 36:1 44:1 79:1 97:1 #
-2.6735924564213746634777635335922 20:1 35:1 45:1 79:1 89:1 #
3.756925178729716208181343972683 19:1 27:1 57:1 79:1 98:1 #
-5.0872119766320338385412469506264 6:1 22:1 57:1 68:1 98:1 #
-4.2834211564702400210080668330193 16:1 26:1 55:1 79:1 81:1 #
-2.283020256612616094571421854198 16:1 33:1 57:1 69:1 98:1 #
-2.6105175041939787661249283701181 9:1 29:1 50:1 79:1 89:1 #
-1.7306963435432862752350047230721 7:1 40:1 55:1 79:1 99:1 #
-0.33646467462767404299484041985124 10:1 38:1 57:1 76:1 98:1 #
-0.27369962348252840911300154402852 14:1 24:1 57:1 75:1 90:1 #
-0.19524784629155078619078267365694 9:1 22:1 49:1 79:1 91:1 #
