SVM-light Version V6.02
2 # kernel type
3 # kernel parameter -d 
0.03125 # kernel parameter -g 
1 # kernel parameter -s 
1 # kernel parameter -r 
empty# kernel parameter -u 
100 # highest feature index 
222 # number of training documents 
82 # number of support vectors plus 1 
2.0322773 # threshold b, each following line is a SV (starting with alpha*y)
8 8:1 28:1 41:1 79:1 98:1 #
5.6603685619463135481055360287428 15:1 24:1 56:1 68:1 98:1 #
8 5:1 39:1 57:1 63:1 98:1 #
-1.9803333263254183638224503738456 19:1 24:1 57:1 65:1 84:1 #
-2.901139493328361851354202372022 20:1 23:1 46:1 70:1 98:1 #
8 3:1 26:1 57:1 68:1 98:1 #
8 3:1 36:1 57:1 68:1 98:1 #
8 4:1 24:1 56:1 76:1 98:1 #
8 5:1 23:1 56:1 78:1 98:1 #
8 14:1 24:1 57:1 75:1 90:1 #
-8 4:1 23:1 56:1 63:1 98:1 #
-8 3:1 30:1 56:1 78:1 98:1 #
-8 9:1 24:1 56:1 70:1 98:1 #
8 19:1 37:1 50:1 70:1 90:1 #
8 19:1 37:1 50:1 70:1 88:1 #
-2.7187320098266543055842703324743 19:1 37:1 57:1 76:1 95:1 #
-0.77995425954938468748878221958876 10:1 24:1 57:1 76:1 90:1 #
-2.1325711637729956038356249337085 19:1 29:1 56:1 63:1 82:1 #
8 8:1 34:1 56:1 70:1 98:1 #
5.5255534375073764863373071420938 8:1 24:1 56:1 63:1 98:1 #
8 13:1 36:1 56:1 70:1 98:1 #
-8 16:1 24:1 56:1 69:1 98:1 #
-6.2386059130323525678818441519979 16:1 36:1 56:1 78:1 98:1 #
-6.1241350137332055680872144876048 16:1 35:1 56:1 70:1 98:1 #
8 5:1 30:1 57:1 79:1 90:1 #
8 18:1 37:1 57:1 63:1 82:1 #
8 15:1 28:1 56:1 76:1 98:1 #
-7.3099748946483611433677651803009 15:1 37:1 57:1 73:1 98:1 #
-2.1887409038000953387381741777062 19:1 21:1 50:1 63:1 90:1 #
1.3184634004371922344489576062188 19:1 24:1 56:1 65:1 98:1 #
8 10:1 24:1 56:1 64:1 98:1 #
8 12:1 24:1 56:1 69:1 98:1 #
8 10:1 24:1 56:1 71:1 98:1 #
-8 15:1 28:1 56:1 72:1 98:1 #
-4.8079447701840791751237702555954 14:1 34:1 56:1 72:1 98:1 #
-0.87894675182813841729512205347419 10:1 38:1 56:1 68:1 82:1 #
8 16:1 24:1 57:1 74:1 98:1 #
8 11:1 38:1 57:1 64:1 98:1 #
-8 18:1 24:1 57:1 63:1 98:1 #
-3.2008522703962203337368919164874 5:1 36:1 57:1 64:1 89:1 #
-5.5460763053611259465469629503787 6:1 24:1 57:1 77:1 98:1 #
8 15:1 23:1 56:1 78:1 98:1 #
8 19:1 36:1 56:1 63:1 98:1 #
-5.7624155859662415934963064501062 13:1 23:1 56:1 70:1 96:1 #
-3.9812326820194305909694776346441 11:1 24:1 56:1 74:1 91:1 #
-1.350080385779660829825843393337 13:1 26:1 56:1 78:1 94:1 #
8 13:1 24:1 57:1 76:1 98:1 #
-8 8:1 25:1 57:1 63:1 98:1 #
-4.7870636240042827580509765539318 18:1 23:1 57:1 75:1 98:1 #
-0.21926509835944685278263932559639 19:1 26:1 56:1 75:1 95:1 #
-8 8:1 36:1 41:1 64:1 98:1 #
-5.8444575052387222058314364403486 10:1 34:1 56:1 61:1 98:1 #
-3.2118852924077030408511745918076 19:1 24:1 43:1 79:1 84:1 #
-1.1219516802064095628566064988263 11:1 30:1 57:1 63:1 98:1 #
-3.7430772960376117453051847405732 11:1 30:1 57:1 64:1 98:1 #
-3.9527290892011599510169617133215 17:1 36:1 60:1 68:1 98:1 #
-1.6255872100607038355235545168398 8:1 37:1 49:1 70:1 86:1 #
-1.8455611621953806888996041379869 15:1 24:1 56:1 64:1 88:1 #
-1.992246038290611309662381245289 19:1 24:1 53:1 79:1 91:1 #
8 8:1 24:1 57:1 67:1 98:1 #
2.3262951644736968859206172055565 13:1 36:1 56:1 68:1 98:1 #
-2.3158770377436628251643924158998 10:1 29:1 56:1 62:1 98:1 #
-2.7263172776704180932938470505178 13:1 23:1 52:1 62:1 98:1 #
-7.8670026978716762755539093632251 10:1 38:1 57:1 76:1 98:1 #
8 19:1 23:1 56:1 70:1 98:1 #
-4.0880057766709114730474539101124 19:1 26:1 41:1 70:1 90:1 #
-3.8799461320310566492253201431595 19:1 36:1 50:1 70:1 93:1 #
-1.7760294097903739363175645848969 20:1 37:1 51:1 75:1 98:1 #
-7.5342803047512703074062301311642 15:1 24:1 57:1 77:1 98:1 #
-5.3464942763830123340085265226662 3:1 24:1 57:1 76:1 88:1 #
-3.8563131673843145108548924326897 8:1 27:1 57:1 67:1 90:1 #
-4.397543749483396879895735764876 17:1 24:1 44:1 76:1 98:1 #
-1.2159640643937663639917445834726 19:1 36:1 50:1 70:1 89:1 #
-1.4235687459959169842704795883037 19:1 30:1 50:1 68:1 81:1 #
-2.6887515899701792676523837144487 9:1 24:1 56:1 76:1 90:1 #
-0.48484552214606502218430250650272 13:1 39:1 57:1 65:1 99:1 #
-3.6595056180109395427280105650425 10:1 33:1 56:1 68:1 90:1 #
-1.0289112862352949306909977167379 17:1 40:1 53:1 68:1 98:1 #
1.4033305796779416141362162306905 19:1 24:1 57:1 70:1 98:1 #
-1.7125115193037272476317411928903 16:1 37:1 57:1 75:1 98:1 #
-1.986583242652804948136235907441 15:1 24:1 56:1 69:1 82:1 #
