SVM-light Version V6.02
2 # kernel type
3 # kernel parameter -d 
0.5 # kernel parameter -g 
1 # kernel parameter -s 
1 # kernel parameter -r 
empty# kernel parameter -u 
100 # highest feature index 
90 # number of training documents 
90 # number of support vectors plus 1 
0.87192649 # threshold b, each following line is a SV (starting with alpha*y)
-0.11802308682662319971878872593152 12:1 26:1 42:1 67:1 88:1 #
-0.1347386681879166880904108438699 12:1 27:1 60:1 75:1 95:1 #
-0.099961905406529674711357813521317 19:1 29:1 50:1 74:1 100:1 #
-0.27690786195596295282683740879293 15:1 24:1 44:1 76:1 86:1 #
-0.093069476413784393842298925392242 1:1 37:1 54:1 74:1 89:1 #
0.54223340858828816823944407587987 3:1 24:1 60:1 65:1 90:1 #
0.67511949747685195966084847896127 6:1 24:1 59:1 65:1 90:1 #
0.65572705082371784968131578352768 7:1 24:1 59:1 65:1 90:1 #
0.54838160027086935155438141009654 8:1 24:1 60:1 65:1 90:1 #
1.0489627406049675251153985300334 9:1 24:1 59:1 65:1 88:1 #
-0.19909338941059845362602231944038 6:1 29:1 48:1 65:1 89:1 #
-0.22028397998495455323286762450152 14:1 28:1 54:1 65:1 91:1 #
-0.56745756009693959498463300406002 15:1 24:1 60:1 62:1 95:1 #
1.1090126688557742085095014772378 15:1 24:1 60:1 79:1 90:1 #
1.109950437518146371118632487196 15:1 24:1 60:1 80:1 90:1 #
1.0796188345391262153327716077911 15:1 24:1 59:1 65:1 88:1 #
-0.16228342630774253430026021760568 4:1 26:1 56:1 70:1 90:1 #
-0.16191969138082162871228320000228 2:1 26:1 56:1 69:1 90:1 #
-0.20687873353148691912828383010492 15:1 30:1 60:1 67:1 83:1 #
0.36073950052866798898776323767379 14:1 24:1 60:1 65:1 90:1 #
0.5403230887702961116048072653939 14:1 24:1 59:1 65:1 90:1 #
0.54873647264508240706248898277408 10:1 24:1 60:1 65:1 90:1 #
-0.19091652442118384191971358632145 12:1 24:1 44:1 70:1 84:1 #
-0.13694298441248403674919131844945 7:1 23:1 45:1 71:1 88:1 #
-0.14529686888936582667142261016124 1:1 25:1 60:1 66:1 98:1 #
0.54888546960326556334308634177432 18:1 24:1 60:1 65:1 90:1 #
0.2824440486400413008460930086585 9:1 24:1 59:1 65:1 90:1 #
-0.11522249627945700678477436440517 18:1 21:1 49:1 77:1 88:1 #
-0.11611097437386917741175551554988 18:1 28:1 49:1 63:1 88:1 #
-0.12786251939287096579533908879966 5:1 27:1 46:1 64:1 88:1 #
-0.12315652560432105433463334520638 15:1 35:1 57:1 66:1 85:1 #
-0.10289890191298395327734738202707 6:1 33:1 58:1 73:1 96:1 #
-0.1121262515033870366121249162461 10:1 36:1 48:1 73:1 93:1 #
-0.11073015678939053529905578443504 14:1 34:1 41:1 63:1 84:1 #
-0.10517069630273474800663535688727 9:1 25:1 49:1 76:1 94:1 #
-0.089445078458794360920514066037867 9:1 33:1 50:1 69:1 86:1 #
-0.13035199911219999546752035257668 1:1 31:1 52:1 72:1 88:1 #
-0.11500334197113976086868092352233 3:1 30:1 43:1 70:1 92:1 #
-0.15959184934710510250788217945228 12:1 34:1 60:1 70:1 88:1 #
-0.10741185016607759927786958087381 10:1 35:1 50:1 75:1 82:1 #
-0.10828518506572756829875459061441 19:1 36:1 41:1 78:1 81:1 #
-0.10101302373149285973585875808567 8:1 25:1 46:1 75:1 100:1 #
-0.10369004423445925266999978475724 18:1 23:1 55:1 73:1 98:1 #
-0.10351920820991475369332590616978 6:1 23:1 46:1 63:1 87:1 #
-0.11748948396911074176784950395813 15:1 29:1 54:1 77:1 83:1 #
-0.11630947122952194072720288886558 14:1 25:1 45:1 74:1 97:1 #
-0.093125322998879322966558902407996 9:1 35:1 58:1 74:1 89:1 #
-0.11184661144506941043985648320813 13:1 32:1 45:1 70:1 82:1 #
-0.12076388249129955954064286061111 17:1 33:1 44:1 77:1 88:1 #
-0.10633393718115168036231210635378 20:1 30:1 47:1 73:1 85:1 #
-0.11297567850651672738404585061289 15:1 26:1 44:1 75:1 81:1 #
-0.12130962902933038749520022747674 15:1 34:1 49:1 76:1 97:1 #
-0.1064162074973137445121906807799 6:1 37:1 41:1 64:1 84:1 #
-0.11521226834849604414579005151609 14:1 28:1 47:1 61:1 84:1 #
-0.11687749306464914611503047581209 4:1 35:1 48:1 72:1 88:1 #
-0.10819024793138175277729118306524 4:1 39:1 57:1 75:1 98:1 #
-0.10034439274027895372398688778048 13:1 35:1 53:1 66:1 96:1 #
-0.10833680938945053351396552443475 1:1 38:1 49:1 78:1 96:1 #
-0.10730683766130479084299764735988 16:1 21:1 41:1 67:1 81:1 #
-0.1042249235968645548755517893369 9:1 30:1 50:1 67:1 94:1 #
-0.10220660902034937878024578594705 8:1 25:1 56:1 64:1 83:1 #
-0.10752987118195458937641717511724 18:1 28:1 58:1 64:1 86:1 #
-0.092889701383894726638423833264824 6:1 33:1 56:1 76:1 93:1 #
-0.10856444105298333757669837495996 15:1 23:1 46:1 62:1 100:1 #
-0.10050657595776675556908941189249 14:1 35:1 55:1 70:1 96:1 #
-0.084973926787699285978483487724588 9:1 29:1 46:1 73:1 89:1 #
-0.10437233544170705645814933859583 6:1 30:1 55:1 63:1 86:1 #
-0.10425164769782506446471614935945 6:1 23:1 54:1 64:1 92:1 #
-0.099242148336992908053133533030632 1:1 21:1 57:1 66:1 92:1 #
-0.10237063837473696359392505428332 4:1 25:1 58:1 78:1 81:1 #
-0.095600979615402495448428510371741 10:1 26:1 49:1 77:1 83:1 #
-0.098879474543472817282818709827552 8:1 36:1 46:1 74:1 89:1 #
-0.10038559226011579961213016076726 13:1 29:1 43:1 76:1 100:1 #
-0.095559680943898134275471534238022 1:1 29:1 58:1 67:1 85:1 #
-0.10031018435527747079127891538519 9:1 36:1 50:1 69:1 100:1 #
-0.097444109902733069827895917569549 4:1 23:1 41:1 71:1 86:1 #
-0.088199353371171476667633726265194 9:1 37:1 50:1 76:1 89:1 #
-0.09384043761482487033820376609583 4:1 35:1 51:1 77:1 83:1 #
-0.096550193559487726413514963041962 10:1 30:1 46:1 73:1 98:1 #
-0.084015256163989235349554007825645 8:1 26:1 44:1 69:1 83:1 #
-0.092358432575014512422306722783105 1:1 23:1 56:1 73:1 97:1 #
-0.090278806184777737886548720780411 5:1 35:1 55:1 75:1 95:1 #
-0.091812653062871188436311342684348 13:1 33:1 41:1 73:1 89:1 #
-0.08980838659581905081275010616082 9:1 33:1 56:1 69:1 93:1 #
-0.090594357218413523735733861030894 16:1 29:1 57:1 70:1 89:1 #
-0.08901824022961170312928658177043 1:1 26:1 53:1 66:1 85:1 #
-0.077141705645850822126163848224678 9:1 35:1 55:1 76:1 89:1 #
-0.071013529192605381878955483898608 2:1 26:1 44:1 69:1 93:1 #
0.012011906169091000895488008382017 15:1 24:1 59:1 65:1 90:1 #
