SVM-light Version V6.02
2 # kernel type
3 # kernel parameter -d 
0.00012207031 # kernel parameter -g 
1 # kernel parameter -s 
1 # kernel parameter -r 
empty# kernel parameter -u 
100 # highest feature index 
510 # number of training documents 
72 # number of support vectors plus 1 
0.7484414 # threshold b, each following line is a SV (starting with alpha*y)
-69.668649778817780315876007080078 16:1 27:1 56:1 63:1 82:1 #
-512 6:1 23:1 57:1 76:1 90:1 #
-225.1906405347690451890230178833 6:1 24:1 57:1 77:1 98:1 #
-512 7:1 26:1 57:1 76:1 88:1 #
-512 20:1 24:1 57:1 77:1 98:1 #
84.185054890462197363376617431641 5:1 23:1 57:1 67:1 85:1 #
512 2:1 23:1 57:1 69:1 85:1 #
512 9:1 24:1 57:1 61:1 90:1 #
453.3541522332743625156581401825 2:1 23:1 57:1 80:1 85:1 #
-262.50244012898474466055631637573 8:1 28:1 56:1 72:1 98:1 #
-512 10:1 33:1 57:1 75:1 90:1 #
512 8:1 24:1 57:1 67:1 98:1 #
134.6368344826150860171765089035 20:1 32:1 57:1 75:1 85:1 #
-512 17:1 36:1 43:1 74:1 90:1 #
512 10:1 34:1 56:1 61:1 98:1 #
512 11:1 32:1 49:1 73:1 98:1 #
512 8:1 23:1 57:1 67:1 85:1 #
-225.66967734857644245494157075882 9:1 28:1 43:1 64:1 85:1 #
-512 18:1 37:1 57:1 64:1 86:1 #
512 6:1 36:1 56:1 79:1 90:1 #
512 19:1 36:1 56:1 75:1 91:1 #
512 10:1 24:1 57:1 76:1 90:1 #
-512 2:1 24:1 56:1 70:1 98:1 #
-318.96578929369570687413215637207 20:1 23:1 46:1 70:1 98:1 #
-454.29253039461036678403615951538 19:1 23:1 56:1 68:1 98:1 #
512 16:1 28:1 51:1 65:1 92:1 #
512 18:1 24:1 57:1 69:1 85:1 #
512 18:1 37:1 57:1 75:1 90:1 #
-222.86368732008850201964378356934 16:1 32:1 49:1 73:1 88:1 #
-512 15:1 37:1 57:1 73:1 98:1 #
-244.1749351828766521066427230835 8:1 33:1 56:1 73:1 95:1 #
512 12:1 23:1 56:1 70:1 90:1 #
512 17:1 23:1 56:1 65:1 90:1 #
334.29748685879167169332504272461 4:1 23:1 56:1 65:1 90:1 #
68.908217717951629310846328735352 15:1 36:1 57:1 70:1 90:1 #
-512 6:1 23:1 41:1 69:1 84:1 #
-512 10:1 23:1 56:1 63:1 84:1 #
512 14:1 37:1 57:1 79:1 85:1 #
512 6:1 36:1 57:1 80:1 85:1 #
-299.47691532014869153499603271484 17:1 35:1 57:1 76:1 87:1 #
-94.124481055656360695138573646545 16:1 36:1 56:1 76:1 96:1 #
-173.55919832800282165408134460449 20:1 36:1 52:1 76:1 83:1 #
512 20:1 38:1 56:1 72:1 90:1 #
512 4:1 32:1 57:1 74:1 90:1 #
512 7:1 23:1 57:1 79:1 91:1 #
-512 18:1 24:1 57:1 64:1 97:1 #
-512 18:1 24:1 57:1 64:1 81:1 #
-122.09807746403384953737258911133 16:1 26:1 57:1 78:1 98:1 #
512 20:1 36:1 57:1 75:1 91:1 #
73.930869385632831836119294166565 5:1 23:1 57:1 79:1 91:1 #
484.02051026236222242005169391632 5:1 24:1 57:1 70:1 90:1 #
-497.86426941049285233020782470703 10:1 30:1 43:1 74:1 85:1 #
-129.1827442773064831271767616272 17:1 36:1 46:1 79:1 98:1 #
-167.87389264046214520931243896484 9:1 33:1 44:1 65:1 88:1 #
-263.40319823968457058072090148926 18:1 24:1 57:1 78:1 98:1 #
-200.62769937287521315738558769226 15:1 36:1 56:1 76:1 95:1 #
-352.29345007138363143894821405411 8:1 37:1 43:1 75:1 89:1 #
-361.33669778471812605857849121094 4:1 23:1 41:1 63:1 83:1 #
-351.7494530251678952481597661972 16:1 36:1 53:1 74:1 93:1 #
194.53451616433449089527130126953 15:1 26:1 57:1 79:1 90:1 #
-73.863181548585998825728893280029 16:1 30:1 56:1 66:1 96:1 #
-303.75246919289929792284965515137 17:1 38:1 57:1 76:1 96:1 #
-34.325152295379666611552238464355 10:1 26:1 56:1 78:1 82:1 #
-149.31004930723361212585587054491 11:1 21:1 56:1 76:1 94:1 #
-231.97001879719027783721685409546 17:1 32:1 49:1 77:1 92:1 #
-332.37939765973078465322032570839 9:1 38:1 56:1 67:1 98:1 #
-10.358997794828610494732856750488 17:1 26:1 44:1 75:1 93:1 #
300.69822521958849392831325531006 20:1 36:1 56:1 75:1 90:1 #
-128.20437855430873241857625544071 17:1 24:1 56:1 66:1 82:1 #
77.190459697332698851823806762695 7:1 39:1 57:1 69:1 90:1 #
-0.6742547898156772134825587272644 17:1 26:1 57:1 63:1 88:1 #
