SVM-light Version V6.02
2 # kernel type
3 # kernel parameter -d 
0.125 # kernel parameter -g 
1 # kernel parameter -s 
1 # kernel parameter -r 
empty# kernel parameter -u 
100 # highest feature index 
318 # number of training documents 
111 # number of support vectors plus 1 
2.4197372 # threshold b, each following line is a SV (starting with alpha*y)
-1.1898767985252909351601147136535 7:1 24:1 57:1 68:1 98:1 #
2.1254818122045784356544118054444 10:1 21:1 57:1 79:1 98:1 #
-0.054203189793931891293787828089989 3:1 24:1 57:1 74:1 90:1 #
2.3357821474405540129737346433103 18:1 23:1 56:1 79:1 98:1 #
0.86707807482833310075420740759 5:1 24:1 57:1 79:1 88:1 #
-0.51140469981423375411822007663432 13:1 24:1 57:1 73:1 91:1 #
-0.96670391751623707676799313048832 20:1 32:1 57:1 65:1 98:1 #
5.2323525444692329244844586355612 4:1 36:1 43:1 79:1 90:1 #
-0.62754618805395312453043743516901 10:1 34:1 57:1 67:1 98:1 #
-1.2571650666759710546216410875786 9:1 36:1 44:1 79:1 98:1 #
-0.76594190460940869691341958969133 14:1 35:1 56:1 79:1 98:1 #
-0.61069758497836534871794356149621 4:1 21:1 43:1 79:1 96:1 #
8 9:1 24:1 57:1 61:1 90:1 #
8 10:1 23:1 58:1 73:1 98:1 #
7.1075232510160422094713794649579 8:1 24:1 57:1 67:1 98:1 #
-0.0043705295522107785732845997017648 3:1 23:1 41:1 79:1 89:1 #
-1.7933870206552304793490293377545 16:1 24:1 57:1 61:1 90:1 #
-1.1566258711818959703521159099182 13:1 23:1 57:1 61:1 90:1 #
2.8638208675967513627824700961355 20:1 23:1 44:1 79:1 98:1 #
1.2717534539288966044523476739414 5:1 24:1 56:1 79:1 98:1 #
3.3947524526678485301545151742175 10:1 24:1 56:1 79:1 90:1 #
-0.99702008596052937861031750799157 10:1 23:1 44:1 70:1 98:1 #
-0.82189594254478282042697401266196 19:1 23:1 56:1 68:1 98:1 #
-0.22863804262086340202131395926699 10:1 23:1 49:1 68:1 98:1 #
8 13:1 24:1 57:1 76:1 98:1 #
4.1996080043066692510933535231743 19:1 23:1 57:1 65:1 98:1 #
-4.3377952705880105099822685588151 9:1 24:1 57:1 67:1 90:1 #
-0.18520916545675469855325445678318 9:1 24:1 57:1 75:1 90:1 #
-1.4659412589442437635511851112824 4:1 24:1 57:1 76:1 90:1 #
2.8890853733282111370783695747377 10:1 23:1 44:1 79:1 98:1 #
1.5818682919499065242519009188982 7:1 23:1 56:1 79:1 98:1 #
1.3416710659493684687504355679266 15:1 23:1 56:1 79:1 98:1 #
-0.28286403479721666798241130891256 6:1 23:1 46:1 73:1 98:1 #
-0.65845684170337592799882031613379 6:1 23:1 44:1 73:1 98:1 #
-0.68217453586864940096035070382641 18:1 23:1 55:1 73:1 98:1 #
3.2741373804644702261157362954691 18:1 24:1 57:1 79:1 90:1 #
-1.9872244852874128007158560649259 20:1 24:1 57:1 77:1 98:1 #
-0.6573233268967524356440890187514 19:1 24:1 57:1 65:1 84:1 #
-2.3808773831989182845347841066541 14:1 24:1 57:1 61:1 98:1 #
-1.9237777253455246029290037768078 10:1 33:1 58:1 73:1 98:1 #
-0.14830723574998594394003248453373 10:1 22:1 58:1 79:1 87:1 #
-3.6265011685833181687144133320544 10:1 34:1 44:1 79:1 98:1 #
4.1303353708220136297768476651981 20:1 23:1 57:1 65:1 98:1 #
1.1151811535512456963203931081807 15:1 24:1 57:1 79:1 90:1 #
-1.0030094482556080048851754327188 12:1 24:1 57:1 78:1 98:1 #
-1.3825072848228603383802237658529 18:1 24:1 57:1 63:1 98:1 #
-0.2472460663451003515245218977725 18:1 24:1 57:1 78:1 98:1 #
-0.8390436982303999258192561683245 15:1 23:1 53:1 79:1 82:1 #
-1.4400901226322124770717891806271 10:1 23:1 42:1 76:1 98:1 #
-1.0230832926607904553861772001255 8:1 28:1 41:1 79:1 98:1 #
-0.34623023050798940047911855799612 10:1 23:1 52:1 78:1 98:1 #
-1.4057721751648029062664591037901 13:1 24:1 57:1 69:1 90:1 #
-1.4651969579235530893868144630687 13:1 32:1 57:1 65:1 98:1 #
-0.0077566071935822513555569557297531 9:1 37:1 57:1 61:1 90:1 #
-0.19250801636348136014476040145382 1:1 23:1 56:1 74:1 98:1 #
-1.7232513489559626584934903803514 8:1 24:1 58:1 79:1 86:1 #
2.8935004347581383399301557801664 5:1 34:1 57:1 79:1 98:1 #
-0.29087554170810658860091280075721 5:1 34:1 57:1 64:1 98:1 #
-0.76086692984647341653214880352607 5:1 36:1 57:1 64:1 98:1 #
-1.0770493579234796666099782669335 4:1 23:1 44:1 79:1 83:1 #
-0.6881046461861077823130017350195 4:1 23:1 50:1 79:1 94:1 #
-1.5226254928095226404138884390704 9:1 23:1 58:1 76:1 98:1 #
1.1935918885095757602243793371599 10:1 24:1 57:1 79:1 88:1 #
-0.82060990123246935201706264706445 10:1 24:1 57:1 61:1 94:1 #
-1.0670419883339925526399838418001 10:1 38:1 57:1 76:1 98:1 #
-0.7196417391355054427037885034224 19:1 24:1 57:1 76:1 88:1 #
-1.7107524071400270759824024935369 20:1 23:1 57:1 73:1 90:1 #
-0.64231868170830286324246571894037 16:1 30:1 56:1 79:1 90:1 #
-0.63769195464119643457223673976841 10:1 23:1 58:1 80:1 90:1 #
-0.6901188679694526539876164861198 13:1 24:1 46:1 67:1 98:1 #
-1.1011660957712414710130133244093 7:1 21:1 57:1 65:1 98:1 #
-2.1596904424746239392618463170948 18:1 23:1 57:1 75:1 98:1 #
-1.2827483598660369690236393580562 9:1 24:1 56:1 79:1 89:1 #
-0.58499096486490909097000212568673 20:1 24:1 56:1 67:1 98:1 #
-1.7909821368054097412425562652061 10:1 23:1 56:1 77:1 98:1 #
-0.85077547205929504592347711877665 14:1 23:1 57:1 72:1 98:1 #
-0.47515916188466605918350182946597 19:1 29:1 41:1 79:1 98:1 #
-1.3783152912139122747703368077055 18:1 24:1 57:1 76:1 90:1 #
-0.66338160115593924892607446963666 8:1 36:1 57:1 78:1 98:1 #
-0.53125949660660387596777809449122 15:1 25:1 59:1 79:1 90:1 #
-0.80781156047524627084044368530158 18:1 21:1 48:1 79:1 90:1 #
-1.3164238083227879361203349617426 4:1 24:1 56:1 79:1 87:1 #
0.49841560361821812819016486173496 5:1 27:1 57:1 79:1 98:1 #
-0.75220230476349170256611387230805 13:1 23:1 60:1 67:1 98:1 #
-0.24154995029982501142384876402502 13:1 26:1 57:1 80:1 98:1 #
-0.53375738987757082032459265974467 5:1 27:1 57:1 70:1 98:1 #
-0.40768277575653538713496004675108 11:1 24:1 58:1 79:1 97:1 #
-0.55141531597372295259162910952 15:1 28:1 54:1 79:1 98:1 #
-0.44445106887161972553101918492757 15:1 30:1 53:1 79:1 98:1 #
-0.83072517491146147250447029364295 6:1 23:1 57:1 65:1 90:1 #
-0.7690990188219597456509291077964 1:1 24:1 56:1 79:1 96:1 #
-0.54510269560146973333303321851417 20:1 32:1 55:1 79:1 98:1 #
-0.29150942230383147801831000833772 19:1 23:1 57:1 61:1 88:1 #
-0.24604024870226132160055954045674 10:1 40:1 57:1 66:1 98:1 #
-0.48814844637794674309105857901159 8:1 24:1 56:1 63:1 98:1 #
-0.31413155755006522129590962322254 5:1 36:1 58:1 65:1 98:1 #
-0.47113459637557220105463784420863 19:1 37:1 41:1 79:1 98:1 #
-0.010365355530782632831332534806279 5:1 36:1 57:1 63:1 98:1 #
-0.067456580892604825483438446553919 9:1 24:1 57:1 73:1 88:1 #
-0.1440991402350130234921721239516 13:1 23:1 52:1 62:1 98:1 #
-0.17642158453604261936220609641168 1:1 24:1 57:1 76:1 90:1 #
-0.20400650885676138712732097246771 4:1 36:1 57:1 61:1 90:1 #
-0.13389850347609238978563439559366 17:1 24:1 57:1 77:1 98:1 #
-0.18189686001065630271966711006826 10:1 23:1 41:1 64:1 98:1 #
-0.19137143306887108296088229053566 10:1 23:1 49:1 78:1 98:1 #
-0.026566359219805553426585476017863 13:1 23:1 44:1 62:1 98:1 #
-0.10125716072591292582494304497231 13:1 23:1 49:1 62:1 98:1 #
-0.1662543848775718258181655073713 8:1 22:1 57:1 68:1 98:1 #
-0.055187065912280203194839600655541 5:1 23:1 57:1 76:1 81:1 #
-0.0021818437856153394260871891674469 12:1 24:1 57:1 76:1 90:1 #
