SVM-light Version V6.02
2 # kernel type
3 # kernel parameter -d 
0.0078125 # kernel parameter -g 
1 # kernel parameter -s 
1 # kernel parameter -r 
empty# kernel parameter -u 
100 # highest feature index 
324 # number of training documents 
90 # number of support vectors plus 1 
2.5192562 # threshold b, each following line is a SV (starting with alpha*y)
-32 1:1 34:1 57:1 75:1 90:1 #
-18.242007832992612748057581484318 20:1 34:1 57:1 75:1 92:1 #
32 9:1 24:1 56:1 76:1 88:1 #
32 9:1 38:1 57:1 75:1 98:1 #
16.869790274863774470759381074458 15:1 36:1 57:1 75:1 98:1 #
29.001897461511418896407121792436 6:1 24:1 57:1 77:1 98:1 #
32 8:1 24:1 57:1 67:1 98:1 #
-5.6601839958953377163197728805244 15:1 23:1 56:1 78:1 98:1 #
32 9:1 24:1 56:1 70:1 98:1 #
-19.780111435765128646835364634171 9:1 24:1 57:1 78:1 81:1 #
-32 9:1 24:1 59:1 70:1 88:1 #
-32 9:1 24:1 56:1 76:1 90:1 #
32 19:1 37:1 51:1 69:1 90:1 #
32 19:1 37:1 50:1 72:1 90:1 #
-26.290670704057689022192789707333 18:1 22:1 57:1 69:1 98:1 #
-32 19:1 38:1 57:1 64:1 98:1 #
4.8677771280094077610556269064546 11:1 37:1 57:1 75:1 98:1 #
32 9:1 38:1 57:1 76:1 88:1 #
23.017124229443538752093445509672 10:1 24:1 57:1 76:1 90:1 #
29.485889862040068010173854418099 15:1 24:1 57:1 76:1 90:1 #
-21.41871102058934184242389164865 3:1 24:1 57:1 76:1 88:1 #
-32 14:1 24:1 57:1 75:1 90:1 #
-32 19:1 24:1 57:1 76:1 88:1 #
32 11:1 38:1 57:1 64:1 98:1 #
32 10:1 24:1 56:1 64:1 98:1 #
-32 9:1 38:1 56:1 67:1 98:1 #
-20.238246777669580467318155569956 10:1 28:1 56:1 74:1 98:1 #
21.268273128349065359543601516634 9:1 37:1 57:1 75:1 88:1 #
32 15:1 24:1 57:1 75:1 88:1 #
32 16:1 24:1 57:1 75:1 90:1 #
32 10:1 34:1 56:1 61:1 98:1 #
-30.892788755771725561771745560691 15:1 37:1 50:1 66:1 90:1 #
-32 15:1 24:1 57:1 63:1 90:1 #
-18.418113420971366167577798478305 16:1 37:1 51:1 75:1 100:1 #
32 15:1 28:1 56:1 76:1 98:1 #
32 12:1 36:1 51:1 70:1 86:1 #
32 15:1 24:1 56:1 64:1 88:1 #
-32 10:1 24:1 56:1 71:1 98:1 #
-32 4:1 24:1 56:1 76:1 98:1 #
-1.8919821099450402357433631550521 15:1 36:1 50:1 76:1 94:1 #
32 19:1 22:1 51:1 75:1 90:1 #
32 19:1 37:1 51:1 77:1 90:1 #
-32 17:1 36:1 57:1 75:1 90:1 #
-5.1941910376126463333434912783559 15:1 24:1 56:1 69:1 82:1 #
-10.647104315055806011969252722338 15:1 35:1 51:1 80:1 90:1 #
32 20:1 24:1 57:1 76:1 98:1 #
10.884075918018808692977472674102 13:1 24:1 57:1 76:1 98:1 #
3.0635475258719111479877028614283 9:1 32:1 57:1 76:1 98:1 #
-32 10:1 38:1 57:1 76:1 98:1 #
-32 11:1 30:1 57:1 64:1 98:1 #
-32 15:1 37:1 53:1 76:1 98:1 #
-5.50095636119183950540900696069 20:1 33:1 57:1 62:1 98:1 #
19.331261691330773544450494227931 10:1 22:1 57:1 75:1 98:1 #
32 10:1 24:1 57:1 73:1 90:1 #
-32 3:1 24:1 57:1 72:1 90:1 #
-32 16:1 24:1 57:1 61:1 90:1 #
-32 19:1 34:1 51:1 77:1 95:1 #
32 15:1 36:1 57:1 76:1 98:1 #
24.481200207835328797045804094523 15:1 27:1 57:1 76:1 98:1 #
-10.751504453750825973656901624054 15:1 37:1 41:1 75:1 92:1 #
-32 15:1 26:1 57:1 76:1 88:1 #
32 9:1 24:1 57:1 61:1 90:1 #
-8.673366510602573242749713244848 19:1 24:1 56:1 73:1 84:1 #
-32 16:1 24:1 51:1 73:1 98:1 #
32 16:1 24:1 57:1 75:1 98:1 #
-6.6164355419045932649169117212296 3:1 28:1 57:1 75:1 90:1 #
-9.7419753776530697564339789096266 8:1 24:1 56:1 63:1 98:1 #
32 15:1 34:1 57:1 76:1 90:1 #
-15.565337233537491101742489263415 5:1 22:1 57:1 70:1 90:1 #
-1.5333749564707659374107606709003 20:1 36:1 57:1 62:1 90:1 #
-16.885733591662301478208974003792 15:1 38:1 57:1 61:1 90:1 #
12.2497024379758556733577279374 19:1 37:1 50:1 75:1 98:1 #
32 15:1 24:1 56:1 76:1 98:1 #
-27.736301499234286893624812364578 9:1 38:1 43:1 76:1 98:1 #
-10.956770208460000048944493755698 9:1 36:1 54:1 80:1 98:1 #
32 9:1 34:1 57:1 76:1 90:1 #
-2.377621049221064097878297616262 19:1 34:1 54:1 75:1 89:1 #
-18.076506038027918776833757874556 19:1 24:1 49:1 75:1 81:1 #
32 19:1 37:1 51:1 72:1 90:1 #
-25.338010540061787878585164435208 15:1 36:1 57:1 63:1 98:1 #
-14.479373962267693798366963164881 10:1 33:1 57:1 76:1 91:1 #
-0.9021962000971726070019940380007 19:1 22:1 57:1 65:1 96:1 #
-14.500714091742125333439616952091 16:1 24:1 57:1 74:1 98:1 #
-6.7455020597818133865075651556253 16:1 24:1 57:1 64:1 88:1 #
-21.747013197498802128393435850739 17:1 37:1 56:1 76:1 90:1 #
-12.731860673922154703063824854326 15:1 26:1 51:1 76:1 88:1 #
-8.4927148436867749836665097973309 15:1 37:1 60:1 76:1 82:1 #
-0.37850217640543348807113943621516 15:1 36:1 54:1 68:1 98:1 #
-0.1146578917432066191395279020071 9:1 24:1 60:1 65:1 85:1 #
