SVM-light Version V6.02
2 # kernel type
3 # kernel parameter -d 
0.0078125 # kernel parameter -g 
1 # kernel parameter -s 
1 # kernel parameter -r 
empty# kernel parameter -u 
100 # highest feature index 
216 # number of training documents 
46 # number of support vectors plus 1 
1.5624484 # threshold b, each following line is a SV (starting with alpha*y)
-5.5655940487250390447115933056921 18:1 26:1 48:1 80:1 98:1 #
-32 3:1 24:1 57:1 76:1 88:1 #
0.15751960174422663385485066100955 20:1 24:1 57:1 63:1 90:1 #
-11.362408871844024815800366923213 4:1 23:1 56:1 65:1 90:1 #
2.6672478904865215554309543222189 5:1 24:1 57:1 75:1 90:1 #
18.320060571035838847819832153618 3:1 24:1 57:1 72:1 90:1 #
32 4:1 26:1 43:1 79:1 88:1 #
-9.6553751925144535306344550917856 16:1 26:1 55:1 79:1 81:1 #
1.3887145068196389274817192927003 13:1 26:1 43:1 79:1 90:1 #
-12.989948836376740359810355585068 16:1 27:1 43:1 64:1 90:1 #
32 9:1 34:1 57:1 76:1 98:1 #
27.97318855237993773243942996487 15:1 24:1 57:1 76:1 88:1 #
17.667824564107348805919173173606 15:1 24:1 57:1 76:1 91:1 #
-10.020584838190444543215562589467 6:1 37:1 57:1 76:1 96:1 #
-1.7017129064810596617007831810042 8:1 33:1 41:1 69:1 90:1 #
-8.5291327236115872523214420652948 17:1 34:1 57:1 61:1 99:1 #
25.789081519114418483695772010833 16:1 24:1 57:1 65:1 90:1 #
15.621109591640220060071442276239 16:1 24:1 57:1 63:1 90:1 #
-0.26086216288014618669421906815842 18:1 24:1 46:1 75:1 85:1 #
-13.93568261519838813455862691626 16:1 24:1 43:1 69:1 93:1 #
-12.937302384689926881833343941253 20:1 24:1 58:1 76:1 88:1 #
19.757685713427576956746634095907 8:1 24:1 57:1 67:1 98:1 #
8.663147822470371295366931008175 14:1 26:1 43:1 79:1 90:1 #
31.926495878119183657872781623155 18:1 26:1 43:1 79:1 90:1 #
-15.457085684595515573391821817495 18:1 34:1 44:1 79:1 98:1 #
-11.490956230296552220693229173776 18:1 26:1 59:1 76:1 98:1 #
-7.3904781661586369523320172447711 17:1 36:1 57:1 72:1 89:1 #
-13.698414633898920556021039374173 15:1 40:1 49:1 78:1 90:1 #
-5.2689818080576884540278115309775 13:1 38:1 41:1 63:1 90:1 #
-1.8726666873356556664020899916068 18:1 35:1 54:1 68:1 90:1 #
-1.2795099416251360935348202474415 18:1 30:1 46:1 77:1 90:1 #
-2.0139255297728908544740988872945 5:1 29:1 46:1 73:1 90:1 #
-5.1754408294112863586633466184139 16:1 21:1 57:1 70:1 86:1 #
-12.892548043626129938843405398075 14:1 24:1 43:1 66:1 81:1 #
-4.6757141385375788900091720279306 19:1 37:1 57:1 70:1 97:1 #
-4.9199251780449060333921806886792 9:1 38:1 56:1 79:1 83:1 #
-9.0392072324353804901875264476985 17:1 23:1 57:1 76:1 98:1 #
-5.0719901178588440160410755197518 16:1 36:1 57:1 75:1 95:1 #
-3.9485736451758839393733069300652 4:1 33:1 50:1 64:1 90:1 #
-1.4390140201240484429945354349911 18:1 24:1 53:1 76:1 82:1 #
-4.3127644799941151632083347067237 16:1 28:1 57:1 65:1 81:1 #
-3.8999094820776232239722958183847 16:1 24:1 53:1 73:1 91:1 #
-0.43783797975019922432693419978023 16:1 26:1 54:1 74:1 98:1 #
-0.45903735066463013936299830675125 16:1 33:1 55:1 67:1 90:1 #
-0.22949045139231571965865441597998 19:1 29:1 41:1 79:1 98:1 #
