SVM-light Version V6.02
2 # kernel type
3 # kernel parameter -d 
0.00048828125 # kernel parameter -g 
1 # kernel parameter -s 
1 # kernel parameter -r 
empty# kernel parameter -u 
100 # highest feature index 
120 # number of training documents 
41 # number of support vectors plus 1 
2.2561635 # threshold b, each following line is a SV (starting with alpha*y)
66.51752302037493791431188583374 11:1 23:1 57:1 79:1 98:1 #
66.517523019909276627004146575928 20:1 23:1 57:1 79:1 98:1 #
-301.5126765253980920533649623394 8:1 24:1 56:1 63:1 98:1 #
-54.218952290080778766423463821411 14:1 23:1 57:1 73:1 87:1 #
-35.838069356114829133730381727219 6:1 40:1 57:1 68:1 99:1 #
-28.766159743689058814197778701782 13:1 35:1 55:1 79:1 90:1 #
141.02342086685530375689268112183 17:1 23:1 57:1 79:1 98:1 #
288.4409512465499574318528175354 5:1 26:1 57:1 79:1 98:1 #
67.315293115254462463781237602234 7:1 23:1 57:1 79:1 98:1 #
-74.651773318764753639698028564453 17:1 23:1 57:1 70:1 82:1 #
-33.647963882740441476926207542419 5:1 25:1 51:1 63:1 90:1 #
135.42313527611258905380964279175 19:1 23:1 57:1 79:1 98:1 #
603.18471768363451701588928699493 9:1 24:1 57:1 61:1 90:1 #
1301.1028839545033406466245651245 15:1 24:1 57:1 67:1 90:1 #
-1223.1720959680096711963415145874 15:1 24:1 57:1 77:1 98:1 #
-171.67035686066446942277252674103 15:1 24:1 57:1 70:1 97:1 #
-27.845384678043046733364462852478 10:1 29:1 41:1 61:1 98:1 #
1188.9149943768861703574657440186 10:1 24:1 57:1 63:1 98:1 #
402.52459135320350469555705785751 18:1 24:1 57:1 63:1 98:1 #
335.99989285214905976317822933197 10:1 23:1 57:1 79:1 98:1 #
-1141.8169412633205865859054028988 10:1 24:1 57:1 76:1 90:1 #
-182.29671946162488893605768680573 10:1 23:1 57:1 75:1 85:1 #
-210.63440184638602659106254577637 5:1 23:1 43:1 63:1 90:1 #
68.367904533282853662967681884766 8:1 24:1 57:1 79:1 98:1 #
-334.10237107606371864676475524902 18:1 24:1 57:1 71:1 88:1 #
-5.4873668309337517712265253067017 6:1 34:1 57:1 72:1 86:1 #
-54.589614280266687273979187011719 14:1 24:1 49:1 67:1 100:1 #
221.81581731574988225474953651428 5:1 24:1 57:1 61:1 90:1 #
-297.24953021052351687103509902954 9:1 26:1 58:1 63:1 98:1 #
-87.681656352222489658743143081665 9:1 29:1 47:1 63:1 98:1 #
-103.29108230318524874746799468994 4:1 29:1 50:1 67:1 98:1 #
-44.096094948152313008904457092285 13:1 24:1 57:1 70:1 97:1 #
-5.6572640441066823768778704106808 6:1 34:1 57:1 65:1 86:1 #
-79.802825724786089267581701278687 12:1 34:1 44:1 67:1 90:1 #
-81.570460573711898177862167358398 1:1 23:1 57:1 73:1 83:1 #
-45.322164048076956532895565032959 5:1 28:1 53:1 61:1 90:1 #
-69.108176525076487450860440731049 19:1 24:1 53:1 79:1 91:1 #
-65.196321486444503534585237503052 4:1 23:1 57:1 74:1 96:1 #
-107.41680748022554325871169567108 10:1 36:1 54:1 79:1 90:1 #
-20.505417535910964943468570709229 13:1 38:1 57:1 69:1 89:1 #
