SVM-light Version V6.02
2 # kernel type
3 # kernel parameter -d 
0.0078125 # kernel parameter -g 
1 # kernel parameter -s 
1 # kernel parameter -r 
empty# kernel parameter -u 
100 # highest feature index 
300 # number of training documents 
50 # number of support vectors plus 1 
1.1808416 # threshold b, each following line is a SV (starting with alpha*y)
-32 1:1 34:1 57:1 75:1 90:1 #
-32 3:1 27:1 57:1 75:1 90:1 #
-32 6:1 21:1 57:1 66:1 90:1 #
-1.1344796363855849108404072467238 6:1 30:1 48:1 63:1 89:1 #
-15.825530103194978437386453151703 8:1 34:1 57:1 74:1 88:1 #
-3.0726999975467563785969105083495 16:1 34:1 56:1 80:1 95:1 #
-4.7605871898040614809133330709301 18:1 34:1 57:1 67:1 85:1 #
7.1229089332279045265750028192997 3:1 24:1 57:1 76:1 88:1 #
16.618040362314502544904826208949 7:1 27:1 57:1 63:1 90:1 #
-32 9:1 24:1 57:1 78:1 81:1 #
-5.9988740787573533452814444899559 16:1 35:1 44:1 75:1 90:1 #
-0.062715982925283242366276681423187 15:1 38:1 49:1 69:1 91:1 #
32 12:1 21:1 57:1 75:1 90:1 #
32 9:1 34:1 57:1 76:1 98:1 #
22.589886526305804181902203708887 15:1 34:1 56:1 63:1 90:1 #
-11.892878357441109216097174794413 9:1 38:1 43:1 76:1 98:1 #
-32 10:1 30:1 57:1 63:1 98:1 #
-32 10:1 38:1 57:1 76:1 98:1 #
23.622939786042721266312582883984 14:1 36:1 57:1 70:1 90:1 #
19.209370214004742649649415398017 6:1 23:1 57:1 76:1 90:1 #
-3.0159544389803869535171543247998 16:1 29:1 57:1 66:1 88:1 #
-30.894874396736810240327031351626 18:1 37:1 56:1 74:1 90:1 #
-9.3902457016001221745682414621115 17:1 23:1 57:1 70:1 82:1 #
-3.3944993009654211846282123588026 15:1 33:1 44:1 69:1 92:1 #
18.506420159820720527932280674577 8:1 24:1 57:1 67:1 98:1 #
32 16:1 24:1 57:1 74:1 98:1 #
20.139146137591296792379580438137 6:1 24:1 57:1 77:1 98:1 #
-16.105796419829324861439090454951 20:1 32:1 57:1 65:1 98:1 #
-8.8272179113527045046794228255749 19:1 23:1 56:1 68:1 98:1 #
-2.9789441263887965760659426450729 15:1 39:1 58:1 73:1 96:1 #
32 15:1 38:1 56:1 61:1 90:1 #
27.66269328554890449822778464295 5:1 30:1 57:1 79:1 90:1 #
15.979893013630132259095262270421 7:1 26:1 57:1 76:1 88:1 #
12.5286656113497230080611188896 15:1 26:1 57:1 76:1 88:1 #
20.000700768491284975425514858216 18:1 24:1 57:1 63:1 98:1 #
-10.32443125562343766432604752481 16:1 36:1 57:1 61:1 81:1 #
-8.1527966309037509518020669929683 15:1 30:1 57:1 74:1 96:1 #
-5.6256442918680589215796317148488 15:1 38:1 53:1 61:1 99:1 #
6.9386418312373763228606549091637 5:1 34:1 56:1 63:1 90:1 #
21.231182435795275864620634820312 10:1 24:1 57:1 65:1 90:1 #
0.10084593998217705745901184855029 9:1 24:1 56:1 76:1 88:1 #
-0.73478221725895309646148234605789 14:1 36:1 56:1 75:1 83:1 #
-8.6524748152164789871676475740969 17:1 35:1 57:1 61:1 98:1 #
-10.231206411651172061283432412893 15:1 34:1 48:1 77:1 87:1 #
-3.4395010393996230391167046036571 15:1 34:1 52:1 64:1 86:1 #
-2.315170629631129628478447557427 17:1 21:1 57:1 64:1 88:1 #
-0.15435891419844693928098422475159 19:1 22:1 57:1 65:1 96:1 #
-0.6328656690807434870293946005404 18:1 21:1 44:1 76:1 93:1 #
-0.63280548860216789819332916522399 16:1 36:1 56:1 75:1 88:1 #
