SVM-light Version V6.02
2 # kernel type
3 # kernel parameter -d 
0.0078125 # kernel parameter -g 
1 # kernel parameter -s 
1 # kernel parameter -r 
empty# kernel parameter -u 
100 # highest feature index 
162 # number of training documents 
58 # number of support vectors plus 1 
1.0163231 # threshold b, each following line is a SV (starting with alpha*y)
5.2413171044588189317892101826146 6:1 40:1 46:1 79:1 90:1 #
-0.168919861225404588367382530123 10:1 32:1 43:1 80:1 98:1 #
8 10:1 30:1 46:1 68:1 85:1 #
5.4346926470764387318013177718967 5:1 30:1 46:1 80:1 85:1 #
-0.21526226561548278404245593264932 17:1 30:1 41:1 73:1 95:1 #
8 8:1 28:1 41:1 79:1 98:1 #
8 2:1 30:1 46:1 66:1 99:1 #
8 20:1 25:1 46:1 66:1 90:1 #
8 3:1 40:1 46:1 71:1 85:1 #
3.0178804336904221372606116347015 5:1 25:1 46:1 65:1 85:1 #
-8 2:1 24:1 56:1 61:1 85:1 #
-1.5076023710359400809011276578531 17:1 21:1 44:1 71:1 85:1 #
-4.177829075475330000699614174664 16:1 30:1 56:1 66:1 99:1 #
8 16:1 24:1 57:1 76:1 98:1 #
8 15:1 29:1 43:1 80:1 98:1 #
-4.5023228175942406892318103928119 16:1 40:1 57:1 70:1 98:1 #
-1.547592440171680294724865234457 19:1 30:1 41:1 78:1 96:1 #
-1.142310059774537034371633126284 9:1 36:1 54:1 80:1 98:1 #
8 5:1 30:1 57:1 79:1 90:1 #
8 9:1 24:1 60:1 65:1 85:1 #
-4.8190792515127327533264178782701 20:1 29:1 43:1 71:1 100:1 #
-1.9720302674347180982294958084822 20:1 24:1 51:1 65:1 84:1 #
-0.37859668918600952736142062349245 15:1 23:1 54:1 76:1 88:1 #
8 20:1 40:1 46:1 75:1 85:1 #
-8 17:1 24:1 46:1 67:1 94:1 #
-8 18:1 32:1 46:1 78:1 93:1 #
-3.5924200738179408176620199810714 17:1 33:1 57:1 66:1 85:1 #
8 19:1 40:1 46:1 65:1 85:1 #
-2.6841910752177859933453873964027 19:1 35:1 53:1 79:1 93:1 #
-7.7649456722446075218613259494305 19:1 34:1 58:1 69:1 85:1 #
-3.4128533783167434023653186159208 20:1 40:1 53:1 74:1 94:1 #
8 18:1 30:1 46:1 79:1 85:1 #
-4.4361067239149978291834486299194 18:1 30:1 50:1 66:1 98:1 #
-3.720045405802672178197099128738 18:1 40:1 45:1 76:1 97:1 #
-4.6075871987667795792731340043247 11:1 30:1 57:1 64:1 98:1 #
-3.4613523544445712332162656821311 17:1 30:1 43:1 65:1 89:1 #
-4.8907992177043979609152302145958 15:1 24:1 57:1 63:1 90:1 #
-1.4375302678790600197089588618837 4:1 25:1 48:1 66:1 81:1 #
8 19:1 40:1 46:1 79:1 90:1 #
-6.7793930016706411834093159995973 14:1 40:1 51:1 75:1 98:1 #
-6.3991033693233916324061283376068 19:1 36:1 48:1 80:1 90:1 #
-3.7598730450792317014929722063243 7:1 27:1 44:1 79:1 93:1 #
-0.17648286870598894893191754817963 16:1 33:1 41:1 69:1 90:1 #
-0.36782858965511877613607794046402 16:1 33:1 56:1 77:1 85:1 #
-1.9112486167202433762213331647217 19:1 30:1 60:1 67:1 96:1 #
-1.6269905534281403625129769352498 9:1 38:1 43:1 76:1 98:1 #
-2.6913386621136403675791370915249 18:1 32:1 57:1 77:1 85:1 #
-1.6928850884653456887463107705116 17:1 34:1 50:1 68:1 85:1 #
-2.525572626742068393923545954749 17:1 21:1 42:1 62:1 85:1 #
-1.987764460676167743713449453935 16:1 30:1 49:1 75:1 89:1 #
-0.12347289464709376716200495138764 16:1 28:1 41:1 74:1 84:1 #
3.4860175468483092231508635450155 10:1 30:1 46:1 65:1 85:1 #
-1.7814805490272647148231044411659 10:1 27:1 53:1 65:1 96:1 #
-1.8534798970028134590393165126443 16:1 30:1 56:1 65:1 96:1 #
-1.1029957964994565600136411376297 10:1 38:1 57:1 76:1 98:1 #
-1.7410743858283339591253024991602 16:1 33:1 55:1 71:1 90:1 #
-0.21954685935338780211623088689521 20:1 28:1 54:1 78:1 88:1 #
