SVM-light Version V6.02
2 # kernel type
3 # kernel parameter -d 
0.125 # kernel parameter -g 
1 # kernel parameter -s 
1 # kernel parameter -r 
empty# kernel parameter -u 
100 # highest feature index 
114 # number of training documents 
51 # number of support vectors plus 1 
0.96287872 # threshold b, each following line is a SV (starting with alpha*y)
-0.40206925512483054907519886000955 9:1 24:1 57:1 61:1 90:1 #
-0.63950563474888344472901735571213 18:1 30:1 47:1 69:1 98:1 #
-1.5843138739063338249479784280993 6:1 24:1 41:1 61:1 98:1 #
-0.83652262904235097362715123381349 6:1 24:1 57:1 77:1 98:1 #
-0.049600717056529353143901062139776 18:1 35:1 41:1 63:1 89:1 #
1.9349471588531608201577682848438 4:1 23:1 56:1 63:1 98:1 #
2 5:1 30:1 57:1 79:1 90:1 #
2 8:1 24:1 57:1 67:1 98:1 #
1.4937515952446334122072357786237 8:1 28:1 41:1 79:1 98:1 #
1.9944797363290298619631357723847 8:1 36:1 41:1 64:1 98:1 #
-1.1041868910548766624657446300262 11:1 30:1 57:1 63:1 98:1 #
-1.9285656525931809124330129634473 11:1 30:1 57:1 64:1 98:1 #
-2 9:1 26:1 45:1 67:1 98:1 #
2 9:1 34:1 57:1 76:1 98:1 #
2 9:1 24:1 56:1 70:1 98:1 #
0.24927122573017890250213213221286 10:1 24:1 56:1 71:1 98:1 #
-2 15:1 35:1 56:1 76:1 98:1 #
-2 9:1 28:1 56:1 76:1 90:1 #
-0.62836054715512368318286462454125 19:1 21:1 56:1 70:1 94:1 #
2 11:1 38:1 57:1 64:1 98:1 #
2 10:1 26:1 41:1 80:1 98:1 #
2 9:1 35:1 43:1 80:1 98:1 #
-1.4943885102771963246937048097607 9:1 38:1 44:1 70:1 98:1 #
-1.9237983434815668637440921884263 20:1 36:1 44:1 80:1 98:1 #
-1.1118327794252604867608624772402 18:1 26:1 48:1 80:1 98:1 #
2 15:1 28:1 56:1 76:1 98:1 #
2 18:1 30:1 56:1 76:1 98:1 #
1.6679353501584599506202266638866 15:1 28:1 56:1 72:1 98:1 #
-0.60378503494574720100729336991208 17:1 28:1 53:1 64:1 98:1 #
-1.6808017903518097657666885424987 15:1 24:1 56:1 64:1 88:1 #
-1.0654473833188582432285329559818 18:1 37:1 57:1 76:1 98:1 #
1.9174201866334468213892705534818 9:1 36:1 41:1 67:1 98:1 #
0.84292185872223568399164150832803 9:1 32:1 41:1 80:1 98:1 #
1.0021268211068981024425283976598 10:1 32:1 43:1 80:1 98:1 #
-2 17:1 28:1 41:1 70:1 98:1 #
-1.2336997489538417127619140956085 16:1 26:1 41:1 61:1 98:1 #
-1.2857083110331044562002489328734 15:1 38:1 46:1 63:1 98:1 #
1.8738593968006396206504859947017 15:1 24:1 56:1 68:1 98:1 #
-0.75367105086049412943083325444604 10:1 24:1 57:1 76:1 90:1 #
-0.63201652339187264217912343156058 18:1 30:1 56:1 77:1 81:1 #
-0.60754465963014880891535085538635 20:1 30:1 56:1 76:1 100:1 #
1.4384564828775858735809833888197 10:1 34:1 56:1 61:1 98:1 #
-1.5458094461883438164306880935328 6:1 34:1 60:1 79:1 98:1 #
-1.0370557964606326173395700607216 15:1 37:1 57:1 73:1 98:1 #
-0.41696450374624183243810193744139 16:1 23:1 43:1 76:1 83:1 #
-0.40112238798890520463658049266087 10:1 33:1 57:1 75:1 90:1 #
-0.41449145323929564854736895540555 17:1 36:1 41:1 64:1 96:1 #
-0.69098894399061883131452077577705 18:1 32:1 48:1 64:1 98:1 #
-0.26348043523527076015255943275406 19:1 33:1 41:1 66:1 95:1 #
-0.079437509254953936332910302553501 16:1 35:1 41:1 75:1 97:1 #
