SVM-light Version V6.02
2 # kernel type
3 # kernel parameter -d 
0.03125 # kernel parameter -g 
1 # kernel parameter -s 
1 # kernel parameter -r 
empty# kernel parameter -u 
100 # highest feature index 
192 # number of training documents 
61 # number of support vectors plus 1 
1.2629694 # threshold b, each following line is a SV (starting with alpha*y)
-2.0230006156209547896196454530582 10:1 38:1 49:1 76:1 95:1 #
-3.3888547396340529260783114295918 10:1 34:1 50:1 65:1 93:1 #
-4.3125528568580007160448985814583 8:1 25:1 46:1 75:1 100:1 #
-0.79690261046561472468852116435301 16:1 25:1 44:1 65:1 97:1 #
-0.16455348352340504192170556052588 17:1 35:1 49:1 74:1 89:1 #
8.8627718772827766002819771529175 4:1 28:1 45:1 79:1 81:1 #
12.599367010778157904837826208677 5:1 26:1 41:1 68:1 85:1 #
-0.93791531524712024037171431700699 10:1 37:1 52:1 70:1 85:1 #
16.02096821362476575245636922773 6:1 30:1 48:1 65:1 100:1 #
8.2478791128932833487397147109732 6:1 39:1 50:1 65:1 100:1 #
-8.4793792077807523810406564734876 4:1 26:1 45:1 61:1 100:1 #
-4.8848348573718194387538460432552 5:1 28:1 55:1 67:1 90:1 #
-8.5087630493406720688653877004981 16:1 26:1 60:1 80:1 100:1 #
12.055655365690558511460039881058 10:1 35:1 58:1 76:1 86:1 #
11.596906305155343375190568622202 17:1 31:1 45:1 76:1 85:1 #
-0.38477479098625400055766476725694 11:1 31:1 53:1 63:1 92:1 #
-16.897930533450445267362738377415 8:1 23:1 59:1 70:1 86:1 #
-14.578586262349261915005627088249 6:1 25:1 48:1 70:1 94:1 #
-7.5067350443670628479253537079785 10:1 24:1 48:1 70:1 85:1 #
3.0065054704240128380376972927479 9:1 25:1 51:1 79:1 81:1 #
22.653828618348981649432971607894 10:1 26:1 48:1 78:1 90:1 #
5.498896581050560783410219301004 10:1 38:1 45:1 79:1 98:1 #
-15.423897937299942739741709374357 12:1 26:1 41:1 65:1 98:1 #
-3.3555928171648332636323175393045 2:1 39:1 45:1 73:1 83:1 #
-4.9462729109454448561677963880356 13:1 26:1 58:1 66:1 96:1 #
22.906606307556678814307815628126 8:1 25:1 59:1 70:1 88:1 #
15.532332401928277576530490478035 18:1 30:1 60:1 70:1 98:1 #
12.684194070029136014454707037657 16:1 25:1 60:1 65:1 86:1 #
-7.3915677617414781153115654888097 20:1 27:1 60:1 78:1 81:1 #
-2.8193371236460369466669817484217 3:1 25:1 44:1 64:1 90:1 #
-10.042411418557623647984655690379 16:1 30:1 45:1 70:1 88:1 #
4.3712464215082444951576690073125 10:1 26:1 48:1 68:1 88:1 #
6.9697277212531325574218499241397 13:1 27:1 45:1 79:1 98:1 #
-9.7550571600934450344766446505673 10:1 36:1 48:1 78:1 85:1 #
-4.3494088656683107529943299596198 10:1 21:1 58:1 66:1 85:1 #
-2.5076330576241048220254015177488 18:1 36:1 59:1 72:1 99:1 #
8.7941480038661765661345270927995 8:1 26:1 59:1 70:1 90:1 #
3.8050978726674662411255667393561 9:1 28:1 59:1 65:1 88:1 #
-5.0364223341293978819521726109087 8:1 30:1 44:1 76:1 88:1 #
-6.0504572232051003766173380427063 8:1 29:1 43:1 65:1 90:1 #
-4.3489358770313550905939337098971 17:1 38:1 45:1 69:1 88:1 #
8.8885779591520588382991263642907 6:1 39:1 58:1 70:1 85:1 #
-2.8317432556297501555775397719117 9:1 35:1 52:1 77:1 90:1 #
-6.2555830759223232107046896999236 6:1 30:1 48:1 74:1 97:1 #
-2.5192219482106090744366611033911 6:1 25:1 52:1 72:1 91:1 #
3.3755819872615493437706390977837 17:1 40:1 59:1 65:1 90:1 #
-2.1690865577168860767187652527355 14:1 35:1 54:1 70:1 98:1 #
-0.25103081847363251100091474654619 15:1 25:1 54:1 76:1 97:1 #
-5.3506428805734911335889592010062 10:1 40:1 55:1 65:1 88:1 #
-1.0094108482597841103256541828159 6:1 40:1 57:1 71:1 81:1 #
-2.7845668144822042222585878334939 9:1 38:1 50:1 78:1 85:1 #
-0.010156399253347103694977704435587 17:1 30:1 44:1 80:1 86:1 #
-0.59343609367995142633844807278365 18:1 30:1 45:1 66:1 96:1 #
-3.8610901505373860231884464155883 18:1 33:1 56:1 76:1 88:1 #
-2.8703231193057092696108156815171 17:1 21:1 53:1 70:1 90:1 #
-4.8604927185957729207643751578871 10:1 34:1 54:1 76:1 90:1 #
-1.9502317076788777683304942911491 14:1 30:1 50:1 73:1 90:1 #
-0.96582839108072526812520663952455 18:1 24:1 57:1 63:1 98:1 #
-0.66937414626938274153644670150243 4:1 33:1 56:1 68:1 82:1 #
-0.026294520698826734372843816345267 6:1 29:1 49:1 78:1 88:1 #
