SVM-light Version V6.02
2 # kernel type
3 # kernel parameter -d 
0.5 # kernel parameter -g 
1 # kernel parameter -s 
1 # kernel parameter -r 
empty# kernel parameter -u 
100 # highest feature index 
216 # number of training documents 
214 # number of support vectors plus 1 
0.82569114 # threshold b, each following line is a SV (starting with alpha*y)
-0.19423846216849632861922714255343 1:1 32:1 53:1 64:1 88:1 #
-0.1690359664598589106709880525159 1:1 32:1 58:1 67:1 81:1 #
-0.12835361700791672601162929368002 1:1 33:1 53:1 78:1 93:1 #
-0.33192936687765883796430443908321 1:1 33:1 55:1 76:1 98:1 #
-0.15429196461016542185618050098128 1:1 34:1 57:1 75:1 90:1 #
1.9273261937979997426850786723662 1:1 23:1 50:1 68:1 88:1 #
1.2704236912752013832772490786738 6:1 29:1 43:1 80:1 98:1 #
1.5129764615491632095967133864178 8:1 21:1 57:1 70:1 98:1 #
1.7054738268924301003437449253397 8:1 24:1 57:1 67:1 98:1 #
1.5609235804432377570094558905112 8:1 28:1 41:1 79:1 98:1 #
-1.0458072530178799119937593786744 8:1 24:1 56:1 63:1 98:1 #
-0.51717076844997234008616260325653 6:1 24:1 57:1 77:1 98:1 #
-0.40858495778221598504487133141083 18:1 24:1 57:1 63:1 98:1 #
1.5745029576133333648613188415766 9:1 28:1 56:1 76:1 90:1 #
1.7973965299454524036093516770052 10:1 38:1 56:1 68:1 82:1 #
1.5373275484619384201323555316776 10:1 34:1 56:1 61:1 98:1 #
-0.44140018639156397561862377187936 8:1 36:1 57:1 70:1 97:1 #
-0.43819661823867078753735881946341 16:1 29:1 44:1 80:1 98:1 #
-0.32506166832902549934658509300789 16:1 36:1 56:1 76:1 90:1 #
0.41684941605461611757732498517726 15:1 22:1 56:1 63:1 98:1 #
0.63014949056274605077021533361403 15:1 27:1 56:1 63:1 98:1 #
0.092054488701130671168826324901602 15:1 35:1 56:1 63:1 98:1 #
-1.2737518563877452404398127328022 15:1 24:1 56:1 68:1 98:1 #
-0.91723018252719279441720345857902 4:1 23:1 56:1 63:1 98:1 #
-0.70715627114207491032971120148432 10:1 24:1 56:1 71:1 98:1 #
1.7791518498298795059042731736554 16:1 36:1 43:1 76:1 98:1 #
2 11:1 38:1 57:1 64:1 98:1 #
1.3416311336386010921728484390769 8:1 36:1 43:1 68:1 99:1 #
-1.0842362052208254219465288770152 11:1 30:1 57:1 64:1 98:1 #
-0.94394507957852136215137761610094 10:1 38:1 57:1 76:1 98:1 #
-0.39562473449967938687876767289708 18:1 36:1 43:1 68:1 85:1 #
1.6857054378729661170410736303893 9:1 24:1 56:1 70:1 98:1 #
1.2283438153284997884640006304835 15:1 23:1 56:1 78:1 98:1 #
1.4400505552330775671521223557647 15:1 37:1 57:1 73:1 98:1 #
-0.75440087817325240937549324371503 9:1 38:1 44:1 70:1 98:1 #
-0.48019473292753062088067395052349 9:1 37:1 60:1 72:1 98:1 #
-0.36435510553226274632621084492712 16:1 36:1 41:1 78:1 98:1 #
1.4788441687067361840490775648504 10:1 32:1 43:1 80:1 98:1 #
1.4619040429089444899091176921502 9:1 38:1 43:1 76:1 98:1 #
0.7617308133938662795259233462275 15:1 28:1 57:1 75:1 98:1 #
-0.61585932198894388633902963192668 9:1 32:1 41:1 80:1 98:1 #
-0.25754246925044826932449382184132 15:1 23:1 54:1 76:1 88:1 #
-0.30523889538254489472990371723427 17:1 37:1 43:1 80:1 88:1 #
0.35702921608984033996492257756472 9:1 28:1 56:1 63:1 98:1 #
1.1588634877844856685413788000005 9:1 35:1 56:1 63:1 98:1 #
0.62645724161244709105034189633443 9:1 28:1 56:1 75:1 98:1 #
-0.3195000248408884080397740490298 9:1 36:1 43:1 66:1 93:1 #
-0.30311498169053507911741007774253 15:1 38:1 46:1 67:1 82:1 #
-0.21295053249731979438941209537006 18:1 27:1 56:1 61:1 84:1 #
1.3174983276159517586734182259534 8:1 37:1 43:1 68:1 99:1 #
0.85095994203524105703451141380356 15:1 29:1 43:1 80:1 98:1 #
0.51804520601825376768800879290211 15:1 38:1 56:1 75:1 98:1 #
-0.36440651090256953592572131128691 20:1 34:1 48:1 75:1 98:1 #
-0.32014611593537212197446706340997 2:1 37:1 43:1 76:1 96:1 #
-0.30005947213336425782870264811208 15:1 37:1 41:1 75:1 92:1 #
0.64227591674385409170611183071742 15:1 28:1 56:1 72:1 98:1 #
0.78357326426406670449864577676635 15:1 28:1 57:1 63:1 98:1 #
0.47046452964542923025348386545375 15:1 28:1 56:1 76:1 98:1 #
-0.50993450918700156115903610043461 18:1 30:1 56:1 76:1 98:1 #
-0.27288405566283324699128343127086 17:1 38:1 56:1 70:1 88:1 #
-0.19256975810968221529684285542317 16:1 35:1 50:1 66:1 98:1 #
0.65724099963272575308792511350475 15:1 35:1 56:1 75:1 98:1 #
0.60251659135131030442522614976042 15:1 22:1 56:1 75:1 98:1 #
0.50431365426577323685108922290965 15:1 29:1 56:1 63:1 98:1 #
-0.23121257216071763873621591756091 15:1 35:1 49:1 78:1 85:1 #
-0.26039649116812207951809909900476 14:1 35:1 56:1 77:1 91:1 #
-0.26479498326162537180650247137237 17:1 23:1 43:1 71:1 99:1 #
-0.33866534191049363355929813224066 6:1 33:1 58:1 73:1 98:1 #
-0.29777709239712091271456984031829 19:1 32:1 49:1 69:1 98:1 #
-0.27056237334490884638427132813376 15:1 24:1 56:1 69:1 82:1 #
0.4550463004008945544498487834062 15:1 34:1 56:1 63:1 98:1 #
-0.31325574993188287642453815351473 8:1 34:1 57:1 74:1 88:1 #
-0.46625828731404456162223937099043 9:1 36:1 54:1 80:1 98:1 #
-0.23131422888818742311656251331442 17:1 28:1 57:1 65:1 93:1 #
-0.36902103487680198989906443785003 18:1 38:1 45:1 76:1 98:1 #
-0.24598692892855705816046452127921 15:1 38:1 42:1 65:1 87:1 #
-0.21002046617139358275494487315882 16:1 30:1 43:1 63:1 82:1 #
-0.23667011962666767432850178920489 9:1 24:1 57:1 61:1 90:1 #
-0.27240501162961755499125615642697 15:1 24:1 57:1 63:1 90:1 #
-0.30932607191912653288312640142976 16:1 29:1 41:1 70:1 98:1 #
-0.340328312541158917170491804427 18:1 35:1 48:1 63:1 98:1 #
-0.23050352645312546795430819202011 17:1 29:1 56:1 61:1 87:1 #
-0.25957221534772206839036812198174 20:1 35:1 58:1 74:1 98:1 #
0.33731749476009559307598806299211 15:1 38:1 56:1 63:1 98:1 #
-0.1841126736456772383654367786221 15:1 36:1 50:1 76:1 94:1 #
-0.14309217952078925883974136468169 16:1 37:1 56:1 73:1 94:1 #
-0.20305317422577481845102909119305 19:1 36:1 50:1 76:1 99:1 #
-0.26066617587872409345095547905657 20:1 34:1 56:1 75:1 84:1 #
-0.24308999104220577192059238313959 15:1 38:1 47:1 71:1 81:1 #
-0.28284478847999200423757315547846 18:1 36:1 53:1 75:1 98:1 #
-0.20813430605104596415877438175812 15:1 37:1 55:1 67:1 96:1 #
-0.21269933548294153724533828153653 16:1 25:1 50:1 64:1 98:1 #
-0.19606684639790933344372092506092 15:1 37:1 46:1 61:1 96:1 #
-0.34565173421498956995989715323958 1:1 35:1 44:1 80:1 98:1 #
-0.23656980749377290451640476476314 15:1 36:1 57:1 77:1 83:1 #
-0.25867386023266492056649212827324 18:1 22:1 41:1 64:1 98:1 #
-0.20959993512889035782720270617574 17:1 23:1 56:1 64:1 82:1 #
-0.20872402960044722508570202990086 19:1 33:1 46:1 68:1 88:1 #
-0.25516056337368636652840336864756 17:1 23:1 41:1 66:1 98:1 #
-0.20363361713177824396936443918094 12:1 21:1 57:1 75:1 90:1 #
-0.1543295396212560899318333440533 16:1 26:1 54:1 74:1 98:1 #
-0.16216912581918438429617879137368 16:1 40:1 56:1 70:1 81:1 #
-0.20439429401407066544393842377758 18:1 23:1 56:1 79:1 92:1 #
-0.16857765901521673534979584019311 17:1 33:1 50:1 68:1 97:1 #
-0.16343091529243863879727882704174 18:1 37:1 43:1 70:1 100:1 #
-0.1869652397398773313597075684811 16:1 36:1 60:1 76:1 100:1 #
-0.21327791277880878140216225347103 15:1 35:1 46:1 72:1 84:1 #
-0.18706697354816159695189980993746 20:1 33:1 56:1 80:1 94:1 #
-0.14512307715914204986340507730347 20:1 28:1 49:1 69:1 97:1 #
-0.19597560776808692351025342759385 15:1 26:1 57:1 76:1 88:1 #
-0.20948339993641490464071353017061 19:1 23:1 57:1 61:1 88:1 #
-0.19231465607094708203383959244093 17:1 36:1 43:1 74:1 90:1 #
-0.19002023052201177932829523342662 14:1 24:1 43:1 66:1 81:1 #
-0.16844502135442498969020164167887 17:1 38:1 59:1 63:1 86:1 #
-0.1804970514851232388231494496722 9:1 24:1 60:1 65:1 85:1 #
-0.20396355052695536169693468764308 16:1 37:1 50:1 69:1 98:1 #
-0.12248577478449403088678337780948 16:1 22:1 42:1 68:1 94:1 #
-0.20260902618070977809772159616841 18:1 33:1 50:1 70:1 98:1 #
-0.19588018864810857744274130709528 15:1 35:1 55:1 76:1 87:1 #
-0.18244408652300664330780932687048 20:1 35:1 43:1 71:1 100:1 #
-0.18033577572873243921591779326263 15:1 37:1 49:1 64:1 94:1 #
-0.16271995709503386806638047801243 17:1 39:1 56:1 77:1 95:1 #
-0.15594848247441536748247870036721 16:1 36:1 56:1 75:1 88:1 #
-0.15191527462308296314574818097753 17:1 28:1 49:1 70:1 96:1 #
-0.20506031554145356943230638080422 15:1 36:1 57:1 69:1 93:1 #
-0.20288526321126834628394419723918 17:1 26:1 48:1 74:1 98:1 #
-0.16332741323249697074082575909415 19:1 21:1 50:1 63:1 94:1 #
-0.21911313673617696662354603631684 15:1 24:1 56:1 64:1 88:1 #
-0.15088596370374296462557595077669 20:1 27:1 60:1 65:1 99:1 #
-0.10902813750057127606396534247324 16:1 38:1 49:1 79:1 92:1 #
-0.15079779102720217154320891950192 12:1 40:1 54:1 65:1 82:1 #
-0.12525058335596467307126999912725 20:1 22:1 41:1 73:1 90:1 #
-0.11737613985996633858555071583396 16:1 21:1 47:1 70:1 97:1 #
-0.15725107407045343932416869847657 6:1 23:1 57:1 76:1 90:1 #
-0.16255070327193082979633231843763 17:1 36:1 56:1 72:1 89:1 #
-0.12909757373872626784461203897081 16:1 33:1 56:1 76:1 84:1 #
-0.15190580615184190449440393422265 10:1 33:1 57:1 75:1 90:1 #
-0.095735436316530697631321800145088 16:1 29:1 56:1 69:1 96:1 #
-0.11073024179439154568438397063801 17:1 28:1 58:1 69:1 84:1 #
-0.13053493959482093123014578850416 20:1 25:1 42:1 61:1 95:1 #
-0.10841438047941515110395016563416 16:1 35:1 54:1 68:1 86:1 #
-0.16671113924318323173956457594613 18:1 24:1 50:1 73:1 98:1 #
-0.14047352957877223822436008049408 17:1 22:1 48:1 68:1 90:1 #
-0.10522064398547241459436207833278 16:1 38:1 53:1 62:1 96:1 #
-0.1304869298377780428843664140004 20:1 37:1 53:1 63:1 92:1 #
-0.10864715754695858374034855842183 16:1 23:1 56:1 66:1 90:1 #
-0.1273992603660347167071620333445 18:1 29:1 53:1 78:1 82:1 #
-0.11809915422369482440601018424786 16:1 36:1 52:1 68:1 94:1 #
-0.14237234193706330143136540300475 16:1 36:1 56:1 73:1 82:1 #
-0.10689306322656884351562922574885 16:1 22:1 49:1 76:1 86:1 #
-0.13101234899742986161896851626807 18:1 30:1 43:1 61:1 93:1 #
-0.1292501872953311647940211059904 5:1 30:1 57:1 79:1 90:1 #
-0.095490564838307104289505389260739 20:1 29:1 50:1 69:1 87:1 #
-0.13647418481396686451567745734792 16:1 26:1 54:1 66:1 98:1 #
-0.09850668131238610181199533144536 16:1 23:1 48:1 75:1 95:1 #
-0.1120602102063365523854088223743 4:1 25:1 48:1 66:1 81:1 #
-0.10292834518253950182309353067467 20:1 38:1 49:1 70:1 90:1 #
-0.12421386211197089910474034013532 18:1 37:1 49:1 68:1 94:1 #
-0.11462812391886340046553982574551 17:1 35:1 53:1 73:1 83:1 #
-0.10571612958552650818333518145664 20:1 26:1 58:1 64:1 82:1 #
-0.090708050721230323865107436631661 16:1 32:1 44:1 75:1 89:1 #
-0.10661197161516043629969630046617 16:1 24:1 56:1 76:1 93:1 #
-0.11984204180706753417595678001817 20:1 36:1 56:1 69:1 87:1 #
-0.08137799387574808085421551595573 20:1 34:1 50:1 70:1 97:1 #
-0.070342868356827181752777278234134 16:1 39:1 55:1 63:1 82:1 #
-0.1043121468587900613211871814201 16:1 36:1 58:1 76:1 90:1 #
-0.098071784487492111304085540268716 16:1 29:1 56:1 64:1 84:1 #
-0.13593930007838858631252776376641 15:1 26:1 51:1 76:1 88:1 #
-0.088261294281472155165424453571177 16:1 30:1 52:1 68:1 85:1 #
-0.081201716127363682273809786238417 16:1 30:1 50:1 72:1 99:1 #
-0.091148292551892107216104932376766 18:1 34:1 50:1 64:1 81:1 #
-0.093849686034031126746768336488458 16:1 37:1 56:1 77:1 90:1 #
-0.05536921032416176891022274730858 16:1 38:1 41:1 77:1 86:1 #
-0.08838622166026342819034056219607 17:1 21:1 44:1 71:1 85:1 #
-0.08569416813701984103612829812846 17:1 29:1 49:1 66:1 89:1 #
-0.090147408111544258257907813458587 18:1 25:1 50:1 75:1 97:1 #
-0.11003651645617316956471398725625 17:1 28:1 58:1 69:1 81:1 #
-0.072525610419734778955280773971026 16:1 39:1 45:1 70:1 86:1 #
-0.087030090252027070274465359034366 20:1 35:1 55:1 70:1 94:1 #
-0.086186257721498391037862063512875 17:1 35:1 60:1 61:1 85:1 #
-0.068360336595744322640832990600757 16:1 34:1 44:1 72:1 93:1 #
-0.072832986730575990930169893999846 16:1 38:1 41:1 74:1 84:1 #
-0.087429442414372351977114306009753 14:1 24:1 57:1 75:1 90:1 #
-0.10217786773967416080743930706376 18:1 37:1 43:1 70:1 96:1 #
-0.075682808698642189959571169310948 16:1 25:1 50:1 76:1 95:1 #
-0.071841812516995104398453975136363 16:1 27:1 52:1 64:1 90:1 #
-0.067305450444705136603396056216297 16:1 40:1 50:1 78:1 86:1 #
-0.065686194422168081574753273343958 16:1 29:1 58:1 67:1 90:1 #
-0.071533936939253722764320286842121 16:1 26:1 56:1 66:1 93:1 #
-0.068191674735357907244370778698794 16:1 35:1 55:1 62:1 82:1 #
-0.06956884333145250953744920252575 20:1 34:1 58:1 70:1 84:1 #
-0.065904462276146394406062256621226 20:1 36:1 49:1 66:1 95:1 #
-0.063319107399017277026942451811919 16:1 37:1 49:1 75:1 87:1 #
-0.05839608676124639213833589224123 16:1 38:1 49:1 69:1 89:1 #
-0.056185565901396471166773238792302 16:1 25:1 53:1 69:1 91:1 #
-0.057807836315861345355404665724564 16:1 40:1 45:1 70:1 85:1 #
-0.051767896774556981798198762589891 16:1 35:1 46:1 70:1 100:1 #
-0.056783309511504925781721908606414 16:1 21:1 48:1 69:1 93:1 #
-0.056378978989602340776698952140578 16:1 36:1 50:1 63:1 86:1 #
-0.054580119586254902119826226680743 18:1 30:1 55:1 62:1 84:1 #
-0.053129736370711715121029072861347 16:1 34:1 53:1 70:1 97:1 #
-0.043533642103655283139840292960798 16:1 29:1 45:1 66:1 96:1 #
-0.045717445683028420932991764402686 16:1 33:1 56:1 77:1 94:1 #
-0.032363287965987828920244595565237 16:1 29:1 50:1 77:1 96:1 #
-0.041491421783180923443801191297098 16:1 36:1 52:1 71:1 93:1 #
-0.047367304257551645640944570914144 16:1 38:1 41:1 77:1 92:1 #
-0.048296248514395019590939028830689 16:1 39:1 55:1 63:1 90:1 #
-0.032666143614537235251304991834331 10:1 24:1 57:1 76:1 90:1 #
-0.018036075909514552584322899519975 16:1 29:1 41:1 77:1 85:1 #
-0.013070609137873260077733483797147 16:1 29:1 50:1 70:1 84:1 #
-0.0073501164027943771336892631040882 16:1 35:1 49:1 66:1 92:1 #
-0.0056965295226028200489820640939342 16:1 29:1 58:1 69:1 84:1 #
-0.00095433802053612216964584291645224 16:1 26:1 46:1 86:1 #
