SVM-light Version V6.02
2 # kernel type
3 # kernel parameter -d 
0.00012207031 # kernel parameter -g 
1 # kernel parameter -s 
1 # kernel parameter -r 
empty# kernel parameter -u 
100 # highest feature index 
150 # number of training documents 
67 # number of support vectors plus 1 
0.95570632 # threshold b, each following line is a SV (starting with alpha*y)
-71.247315130203787703067064285278 13:1 23:1 44:1 70:1 87:1 #
128 15:1 39:1 48:1 79:1 98:1 #
-128 11:1 29:1 55:1 61:1 98:1 #
128 15:1 39:1 48:1 79:1 85:1 #
-128 17:1 25:1 57:1 79:1 99:1 #
128 1:1 39:1 45:1 79:1 85:1 #
128 5:1 39:1 48:1 79:1 90:1 #
128 5:1 39:1 55:1 79:1 98:1 #
128 6:1 39:1 48:1 79:1 98:1 #
128 7:1 39:1 48:1 79:1 88:1 #
-128 10:1 36:1 54:1 79:1 90:1 #
-128 10:1 39:1 50:1 62:1 95:1 #
-110.07421140990300045814365148544 10:1 37:1 48:1 68:1 90:1 #
128 11:1 37:1 45:1 72:1 100:1 #
128 16:1 36:1 45:1 70:1 98:1 #
128 17:1 39:1 45:1 79:1 85:1 #
-128 17:1 38:1 45:1 77:1 84:1 #
-87.739532602386589132947847247124 5:1 26:1 55:1 76:1 100:1 #
-128 6:1 32:1 51:1 71:1 85:1 #
128 10:1 39:1 55:1 79:1 98:1 #
128 15:1 39:1 50:1 79:1 85:1 #
128 15:1 39:1 50:1 79:1 98:1 #
-128 15:1 24:1 41:1 63:1 98:1 #
-128 8:1 21:1 43:1 79:1 82:1 #
-128 1:1 37:1 56:1 73:1 98:1 #
128 9:1 39:1 48:1 79:1 90:1 #
128 16:1 39:1 48:1 79:1 90:1 #
128 13:1 39:1 48:1 79:1 88:1 #
-128 12:1 25:1 48:1 80:1 92:1 #
-32.565351018700312124565243721008 18:1 22:1 50:1 70:1 90:1 #
-91.538096032425528392195701599121 16:1 24:1 59:1 68:1 88:1 #
128 15:1 39:1 59:1 79:1 98:1 #
128 9:1 39:1 55:1 79:1 98:1 #
128 15:1 39:1 55:1 79:1 98:1 #
-125.97902139540383359417319297791 15:1 37:1 55:1 78:1 96:1 #
-128 9:1 28:1 41:1 62:1 98:1 #
-110.68116329843178391456604003906 11:1 37:1 53:1 65:1 98:1 #
128 16:1 39:1 50:1 79:1 85:1 #
128 15:1 39:1 48:1 79:1 90:1 #
128 15:1 39:1 45:1 79:1 85:1 #
-128 15:1 36:1 57:1 64:1 90:1 #
-104.23142986267339438199996948242 15:1 37:1 50:1 66:1 90:1 #
-48.254796225999598391354084014893 16:1 30:1 50:1 77:1 91:1 #
128 9:1 39:1 45:1 79:1 98:1 #
128 13:1 39:1 48:1 79:1 98:1 #
128 15:1 39:1 45:1 79:1 98:1 #
-128 10:1 33:1 44:1 61:1 98:1 #
-111.44524743586953263729810714722 20:1 34:1 53:1 69:1 85:1 #
-81.633319272725202608853578567505 1:1 31:1 43:1 76:1 85:1 #
-124.71629372521420009434223175049 8:1 26:1 48:1 62:1 96:1 #
-69.197327981146372621878981590271 15:1 35:1 56:1 76:1 90:1 #
-47.312490726471878588199615478516 16:1 35:1 54:1 75:1 88:1 #
-51.586597095010802149772644042969 15:1 35:1 53:1 80:1 100:1 #
-20.056053049716865643858909606934 15:1 21:1 53:1 66:1 86:1 #
-24.824152926754322834312915802002 9:1 38:1 49:1 71:1 89:1 #
-17.535849115978635381907224655151 9:1 36:1 46:1 64:1 93:1 #
-58.792108355868549551814794540405 16:1 29:1 50:1 74:1 83:1 #
-21.351854977488983422517776489258 6:1 22:1 47:1 70:1 86:1 #
-12.232967605010799161391332745552 14:1 22:1 49:1 63:1 88:1 #
-29.335182072650241025257855653763 15:1 21:1 41:1 66:1 93:1 #
-24.339533501413825433701276779175 5:1 30:1 50:1 80:1 94:1 #
-19.877763624695944599807262420654 4:1 38:1 55:1 68:1 88:1 #
-10.325144059897866100072860717773 6:1 30:1 49:1 70:1 97:1 #
-13.931455043100868351757526397705 7:1 36:1 52:1 75:1 93:1 #
-13.405266557001596083864569664001 13:1 40:1 46:1 76:1 86:1 #
-1.7904758981676422990858554840088 13:1 33:1 43:1 70:1 81:1 #
