SVM-light Version V6.02
2 # kernel type
3 # kernel parameter -d 
0.00012207031 # kernel parameter -g 
1 # kernel parameter -s 
1 # kernel parameter -r 
empty# kernel parameter -u 
100 # highest feature index 
78 # number of training documents 
44 # number of support vectors plus 1 
0.47776221 # threshold b, each following line is a SV (starting with alpha*y)
-45.545974229229614138603210449219 8:1 37:1 49:1 76:1 100:1 #
-4.0005621542222797870635986328125 15:1 37:1 46:1 61:1 96:1 #
-512 8:1 25:1 57:1 63:1 98:1 #
-512 9:1 34:1 57:1 76:1 98:1 #
512 17:1 26:1 48:1 74:1 98:1 #
512 4:1 36:1 58:1 69:1 88:1 #
512 6:1 26:1 44:1 73:1 90:1 #
512 6:1 34:1 60:1 79:1 98:1 #
512 7:1 39:1 45:1 63:1 98:1 #
512 8:1 24:1 57:1 67:1 98:1 #
-512 16:1 21:1 41:1 67:1 99:1 #
-108.04569423243810888379812240601 18:1 24:1 52:1 76:1 90:1 #
-189.1806433110905345529317855835 9:1 30:1 56:1 70:1 90:1 #
512 12:1 21:1 57:1 75:1 90:1 #
512 13:1 25:1 60:1 76:1 98:1 #
512 16:1 38:1 47:1 77:1 98:1 #
-229.78419340727850794792175292969 7:1 28:1 51:1 76:1 88:1 #
-405.81143071444239467382431030273 5:1 26:1 50:1 76:1 88:1 #
-68.702762580243870615959167480469 5:1 34:1 49:1 63:1 88:1 #
512 9:1 36:1 41:1 67:1 98:1 #
166.06799192688777111470699310303 9:1 26:1 45:1 67:1 98:1 #
-314.9224454951181542128324508667 15:1 38:1 57:1 70:1 93:1 #
-172.84659040645783534273505210876 15:1 33:1 54:1 63:1 82:1 #
-126.98696195727097801864147186279 15:1 25:1 53:1 63:1 90:1 #
307.12814378828625194728374481201 8:1 40:1 60:1 69:1 98:1 #
512 16:1 36:1 45:1 70:1 98:1 #
-229.04641845409059897065162658691 1:1 34:1 46:1 74:1 84:1 #
-293.5539421761350240558385848999 11:1 23:1 56:1 77:1 90:1 #
-116.47147852015041280537843704224 9:1 35:1 43:1 76:1 96:1 #
-416.54904229493695311248302459717 20:1 38:1 54:1 65:1 97:1 #
-422.25216435096808709204196929932 4:1 37:1 46:1 71:1 90:1 #
-293.53807807393604889512062072754 16:1 36:1 56:1 76:1 90:1 #
-183.44010516087655560113489627838 17:1 34:1 57:1 66:1 99:1 #
-267.98221867561369435861706733704 1:1 36:1 57:1 76:1 95:1 #
-206.1576093194307759404182434082 8:1 34:1 56:1 74:1 88:1 #
-189.90277050787335610948503017426 15:1 21:1 41:1 64:1 90:1 #
-23.757222065469250082969665527344 10:1 30:1 56:1 70:1 99:1 #
-80.939393695007311180233955383301 10:1 34:1 50:1 61:1 90:1 #
-82.038453264976851642131805419922 20:1 35:1 56:1 64:1 91:1 #
-52.104616426373468129895627498627 18:1 27:1 42:1 76:1 84:1 #
-28.554767059889854863286018371582 18:1 22:1 53:1 76:1 82:1 #
-16.088109450822230428457260131836 6:1 34:1 57:1 76:1 87:1 #
-0.99248773083672858774662017822266 17:1 34:1 43:1 76:1 89:1 #
