SVM-light Version V6.02
2 # kernel type
3 # kernel parameter -d 
0.125 # kernel parameter -g 
1 # kernel parameter -s 
1 # kernel parameter -r 
empty# kernel parameter -u 
100 # highest feature index 
702 # number of training documents 
204 # number of support vectors plus 1 
1.2266221 # threshold b, each following line is a SV (starting with alpha*y)
-0.014361988975408301882907835533842 16:1 33:1 49:1 68:1 90:1 #
-0.14537181293749079635801990662003 5:1 38:1 47:1 73:1 88:1 #
0.68203400632198929454119706861093 19:1 24:1 50:1 63:1 88:1 #
0.7075438657794183017202271912538 3:1 21:1 59:1 70:1 99:1 #
0.96552267808387826075744442277937 19:1 37:1 49:1 63:1 98:1 #
-0.10250958852594799219914989407698 9:1 34:1 50:1 73:1 81:1 #
0.80823083409838925028623179969145 1:1 33:1 59:1 80:1 99:1 #
0.97319641156138636528538654602016 1:1 36:1 59:1 70:1 99:1 #
0.29376749847222949352243404064211 1:1 36:1 59:1 80:1 98:1 #
0.45185897110862038861256451127701 2:1 36:1 59:1 65:1 99:1 #
-1.0511205668143990266116816201247 1:1 21:1 59:1 71:1 95:1 #
-2.1016555678442587762333459977526 16:1 33:1 41:1 65:1 99:1 #
-1.1664149966201264874143816996366 3:1 36:1 48:1 70:1 88:1 #
5.715099713059236918866190535482 9:1 26:1 57:1 70:1 90:1 #
0.46186705974125152884823819476878 19:1 24:1 51:1 70:1 90:1 #
2.7225566306216864020939283363987 19:1 28:1 50:1 67:1 90:1 #
-5.0177477021802943113470973912627 9:1 30:1 59:1 65:1 90:1 #
-0.50158096161650367328377342346357 9:1 36:1 57:1 69:1 90:1 #
-2.3560388347052461099906395247672 9:1 28:1 50:1 70:1 85:1 #
6.2338365048207737828533936408348 16:1 35:1 53:1 77:1 81:1 #
4.9069324890900833935347691294737 10:1 21:1 57:1 65:1 88:1 #
6.0840831570672602168770026764832 16:1 37:1 56:1 73:1 91:1 #
-0.51545300169239327559012053825427 2:1 22:1 56:1 65:1 91:1 #
-1.6247834193582781914244606014108 16:1 36:1 56:1 73:1 82:1 #
-3.8363207231560942922499179985607 18:1 26:1 53:1 70:1 98:1 #
1.723282044608519525397127836186 5:1 30:1 46:1 79:1 85:1 #
4.5422005523906525681354651169386 5:1 30:1 46:1 65:1 85:1 #
2.7713874851644901831093648070237 19:1 30:1 46:1 68:1 85:1 #
-1.9594846857269754281105633708648 15:1 26:1 57:1 76:1 88:1 #
-0.59538913264681614379014717997052 19:1 30:1 57:1 78:1 89:1 #
-0.24943473926887049785250383138191 3:1 32:1 57:1 80:1 88:1 #
5.232993892797205504052726610098 14:1 36:1 58:1 64:1 98:1 #
5.1705453464196260426888329675421 5:1 36:1 56:1 75:1 98:1 #
5.4489805387398035918522509746253 16:1 36:1 50:1 63:1 98:1 #
-6.6985689359864233338726080546621 5:1 36:1 57:1 63:1 98:1 #
-4.5728473139781673495463110157289 19:1 38:1 46:1 64:1 98:1 #
-0.82264946974469266294249791826587 5:1 38:1 47:1 73:1 98:1 #
4.6187380040920746893107207142748 17:1 39:1 48:1 79:1 95:1 #
1.9918472157250832754726843631943 9:1 24:1 59:1 67:1 88:1 #
2.311031602154367980972438090248 15:1 26:1 57:1 75:1 98:1 #
0.21667788728314418822407105835737 19:1 24:1 51:1 70:1 99:1 #
-4.9726367691947723770340417104308 16:1 26:1 50:1 79:1 99:1 #
-6.2955390908834045760045228234958 3:1 24:1 48:1 79:1 90:1 #
5.0775002350079159185725075076334 8:1 36:1 57:1 70:1 98:1 #
1.7036699568279420891059317000327 9:1 36:1 57:1 65:1 98:1 #
2.9971297243762164974612005607923 19:1 27:1 50:1 78:1 98:1 #
-2.6305383974758735909915685624583 4:1 36:1 50:1 78:1 98:1 #
-3.3271101741876480950566019600956 17:1 36:1 60:1 68:1 98:1 #
-3.089032078455598462340958576533 15:1 36:1 54:1 68:1 98:1 #
7.5447120076176279468427310348488 3:1 24:1 55:1 79:1 90:1 #
1.8180456155067199475183770118747 3:1 33:1 59:1 64:1 99:1 #
1.2499507111833674244394387642387 19:1 22:1 48:1 79:1 88:1 #
-0.87574458482152739424719811722753 12:1 27:1 58:1 77:1 85:1 #
-2.6507325550476812381361924053635 13:1 33:1 59:1 64:1 93:1 #
-2.3827851013913887712192263279576 3:1 24:1 56:1 67:1 98:1 #
2.8103544049108517555168873514049 15:1 33:1 55:1 63:1 98:1 #
3.4477822630595191810698452172801 16:1 26:1 57:1 69:1 98:1 #
1.2507260233259418491513770277379 12:1 36:1 59:1 68:1 98:1 #
-3.5619180432068966446479407750303 8:1 21:1 57:1 64:1 98:1 #
-0.85811657495758741909241962275701 11:1 36:1 57:1 63:1 98:1 #
-1.6169764167640865437647335056681 10:1 28:1 57:1 62:1 98:1 #
1.85018492453205496417467657011 19:1 38:1 50:1 75:1 88:1 #
1.8567879519230252594041985503281 19:1 38:1 50:1 79:1 90:1 #
2.4135229430310651821400824701414 6:1 38:1 59:1 68:1 88:1 #
-0.59313705145118778006008142256178 6:1 37:1 55:1 75:1 95:1 #
-0.048922948812424787989883157024451 4:1 36:1 55:1 65:1 93:1 #
-1.7604575965984055052615531167248 6:1 37:1 51:1 61:1 88:1 #
3.1815847396540792857422275119461 6:1 36:1 58:1 64:1 98:1 #
3.3185526830647624763059866381809 15:1 21:1 51:1 80:1 98:1 #
4.253115865472014256454258429585 10:1 33:1 58:1 74:1 98:1 #
-5.2018619360292710496196377789602 14:1 33:1 58:1 80:1 98:1 #
-4.1054813497747337791565769293811 19:1 36:1 50:1 70:1 95:1 #
-1.7064346134388732600939420080977 16:1 36:1 58:1 77:1 96:1 #
3.1459129750532279778951760818018 8:1 25:1 60:1 79:1 98:1 #
2.5016304276538363637882866896689 19:1 37:1 49:1 70:1 85:1 #
1.3715248991753821172778771142475 18:1 24:1 59:1 70:1 99:1 #
-1.7217510577447880937285162872286 16:1 25:1 59:1 66:1 84:1 #
-2.5967997138895499986688264471013 8:1 26:1 59:1 72:1 91:1 #
-2.0097890887619422883858533168677 5:1 25:1 45:1 65:1 85:1 #
2.0092009632226277560107519093435 5:1 33:1 59:1 75:1 86:1 #
2.7060495452002304439531599200564 17:1 26:1 48:1 74:1 98:1 #
1.4549583572165676326193306522327 13:1 33:1 59:1 80:1 99:1 #
-2.9737889874801193279552080639405 10:1 26:1 41:1 75:1 98:1 #
-0.51897176221802820972328618154279 1:1 35:1 49:1 69:1 98:1 #
-1.3296551901200053258378375176108 11:1 30:1 46:1 75:1 98:1 #
2.1266048727673365625889800867299 19:1 28:1 51:1 72:1 90:1 #
0.65991867191218900323690377263119 19:1 28:1 50:1 77:1 88:1 #
1.9137107520142107031091427415959 19:1 37:1 50:1 72:1 90:1 #
-2.7944231072436904739220153714996 19:1 36:1 53:1 79:1 91:1 #
-2.0348953946590402352967430488206 19:1 21:1 55:1 72:1 89:1 #
-0.81491725055742680883241746414569 14:1 37:1 50:1 74:1 90:1 #
0.90051592098078669934579920663964 16:1 26:1 46:1 65:1 98:1 #
0.84650947330922465816627209278522 3:1 26:1 57:1 79:1 98:1 #
1.3430569547030060117975835964899 10:1 26:1 48:1 65:1 98:1 #
-2.7302744685862747608950940048089 16:1 24:1 57:1 76:1 98:1 #
-0.80162356206557949800384221816785 10:1 26:1 51:1 74:1 94:1 #
-1.8276668613195141688265721313655 9:1 26:1 49:1 63:1 88:1 #
1.778106736953918298738130943093 6:1 25:1 59:1 68:1 99:1 #
1.3421694204469356570541549444897 9:1 21:1 59:1 63:1 98:1 #
1.3785247858237057450025986327091 9:1 31:1 59:1 77:1 99:1 #
-1.625993148923765119207018869929 16:1 27:1 48:1 74:1 81:1 #
-0.98874106368092018470861148671247 17:1 39:1 46:1 77:1 97:1 #
-1.3639068952857593686189829895739 1:1 35:1 48:1 72:1 98:1 #
3.1005484395242639550360763678327 9:1 26:1 50:1 70:1 98:1 #
-1.7044216861826615438957333026337 6:1 33:1 50:1 66:1 98:1 #
-1.4504009424640953440643897920381 6:1 21:1 44:1 75:1 98:1 #
-0.30216355057925770033477874676464 6:1 30:1 43:1 69:1 98:1 #
0.8920410505779110543755905382568 19:1 27:1 51:1 68:1 88:1 #
1.9706487257074207786189390390064 15:1 24:1 48:1 65:1 98:1 #
-1.1505789017408074581538812708459 4:1 37:1 47:1 70:1 99:1 #
-1.0264640500957453728148038862855 8:1 37:1 56:1 68:1 81:1 #
-1.1193561442249393422798675601371 15:1 32:1 59:1 62:1 83:1 #
1.2012728707136544059608240786474 3:1 33:1 59:1 72:1 98:1 #
-1.2411183712834079617692850661115 11:1 35:1 48:1 63:1 98:1 #
-0.96354369785180971064164623385295 1:1 25:1 56:1 67:1 98:1 #
-1.4847607415460704061160868150182 14:1 31:1 50:1 69:1 98:1 #
1.631613064469168428161083284067 17:1 36:1 59:1 80:1 88:1 #
-0.16646472800202727349017095548334 16:1 29:1 46:1 77:1 86:1 #
-0.57416954985241841491472314373823 16:1 29:1 46:1 70:1 90:1 #
-0.87864473990240532508266824152088 5:1 29:1 48:1 73:1 88:1 #
0.88199551493249539468877173931105 15:1 21:1 48:1 79:1 98:1 #
-1.1475113632896558613083470845595 17:1 40:1 57:1 61:1 98:1 #
-1.275064674431526823283888916194 15:1 21:1 57:1 70:1 94:1 #
-0.85121939451897166151184137561359 10:1 21:1 46:1 71:1 98:1 #
-0.74532212134941688841394125120132 3:1 23:1 49:1 65:1 85:1 #
-1.0040372715458771857299780094763 9:1 26:1 55:1 80:1 92:1 #
-0.889863803268344799590749971685 10:1 30:1 53:1 79:1 81:1 #
-0.96810780138472773970192974957172 10:1 32:1 56:1 75:1 88:1 #
-0.95299808029027899269891577205271 16:1 30:1 56:1 65:1 100:1 #
0.22537657764377561075974654158927 19:1 37:1 55:1 70:1 85:1 #
-0.71982272183454476532915577990934 5:1 37:1 49:1 68:1 90:1 #
-0.70357016162584484764153103242279 9:1 35:1 52:1 77:1 90:1 #
-0.87734979796665801821120567183243 17:1 27:1 55:1 78:1 90:1 #
1.1185340897938660376098596316297 16:1 26:1 59:1 65:1 99:1 #
-0.99823803044900449865650671199546 6:1 33:1 55:1 63:1 86:1 #
-0.70452510164077497556434082071064 18:1 36:1 46:1 75:1 99:1 #
-0.48872497089720456919792468397645 10:1 37:1 55:1 68:1 87:1 #
-0.92124119543745064397910482512088 6:1 21:1 58:1 74:1 85:1 #
-0.59855513226437062623830343000009 5:1 35:1 53:1 65:1 96:1 #
0.62853743118225258168507707523531 15:1 23:1 59:1 70:1 99:1 #
-0.49765280376288689723196512204595 15:1 37:1 47:1 77:1 86:1 #
-0.51978358788269929391390178352594 9:1 38:1 51:1 70:1 89:1 #
-0.64947982010749316650333184952615 7:1 33:1 56:1 79:1 97:1 #
-0.72001159261323166571600040697376 3:1 30:1 50:1 67:1 88:1 #
-0.94957879228168706742252425101469 3:1 28:1 57:1 75:1 90:1 #
-0.56002771468437573254561812063912 10:1 24:1 56:1 77:1 85:1 #
0.72198728229301822878483108070213 5:1 26:1 57:1 79:1 98:1 #
-0.63109941689049242619091728556668 10:1 27:1 45:1 78:1 98:1 #
-0.23627085758336871523788147442247 12:1 35:1 45:1 78:1 98:1 #
-0.88019449588364429004627709218767 8:1 36:1 44:1 70:1 90:1 #
-0.84570458822668526099874952706159 9:1 26:1 50:1 71:1 90:1 #
-0.39993278260354386821617822533881 9:1 23:1 50:1 78:1 88:1 #
-0.32643822099089941923821811542439 16:1 38:1 50:1 73:1 87:1 #
-0.43754130739091401380846946267411 15:1 25:1 50:1 67:1 81:1 #
-0.59616244879193569516928619123064 16:1 33:1 58:1 70:1 94:1 #
-0.3793728994526209263860039300198 10:1 32:1 43:1 80:1 98:1 #
-0.2634362388295556911543826572597 17:1 33:1 58:1 64:1 92:1 #
-0.45997996432405208189209133706754 15:1 38:1 43:1 70:1 90:1 #
-1.2571735564009638430604809400393 15:1 37:1 57:1 69:1 90:1 #
-0.48653925792359753454974224951002 2:1 22:1 57:1 79:1 96:1 #
-0.22209126703774692557225023392675 9:1 24:1 58:1 64:1 82:1 #
-0.53903501819874322098513630407979 17:1 25:1 56:1 74:1 85:1 #
-0.23065528577537008914077887311578 13:1 34:1 55:1 70:1 100:1 #
0.81998449616886115443037397199078 10:1 26:1 57:1 79:1 98:1 #
-0.44681464463682907251040887786075 6:1 36:1 46:1 79:1 87:1 #
0.87280474532439744628220523736672 4:1 33:1 59:1 65:1 99:1 #
0.35142076944403033422759108361788 13:1 33:1 59:1 68:1 99:1 #
-0.47908029577544775090558459851309 10:1 32:1 57:1 65:1 82:1 #
-0.22450090501115213537097758944583 5:1 21:1 52:1 66:1 88:1 #
-0.35664478554072975846622739481973 19:1 30:1 49:1 64:1 84:1 #
-0.45291455956031601015610021931934 10:1 23:1 55:1 68:1 90:1 #
0.16040489643577279799124823966849 7:1 33:1 59:1 65:1 88:1 #
-0.5293766834176806268530413035478 6:1 38:1 49:1 65:1 85:1 #
-0.26270305083296496828637600629008 9:1 26:1 56:1 77:1 92:1 #
-0.51159015135442464927706396338181 16:1 29:1 57:1 73:1 90:1 #
-0.38195717227926817560756944658351 17:1 28:1 58:1 69:1 81:1 #
-0.25824950008733416062511878408259 14:1 29:1 57:1 70:1 90:1 #
-0.25502115016147419712666533087031 10:1 34:1 51:1 76:1 88:1 #
-0.012164319426336528406906722921121 18:1 37:1 46:1 78:1 88:1 #
-0.2657571936552365898798200305464 10:1 22:1 52:1 65:1 91:1 #
-0.12630199855903129213530178276415 9:1 36:1 57:1 74:1 84:1 #
-0.26580919129264490852193603132037 3:1 38:1 55:1 76:1 99:1 #
-0.23786991891222991624132987453777 16:1 35:1 54:1 65:1 82:1 #
-0.17927779704911303571002179069183 4:1 23:1 56:1 72:1 98:1 #
0.55755788200806277732368698707432 15:1 36:1 57:1 65:1 98:1 #
-0.096046568238466134559416786942165 6:1 26:1 41:1 79:1 90:1 #
0.27196609154755746473597355361562 19:1 25:1 51:1 63:1 98:1 #
-0.30535457663193227295650444830244 9:1 35:1 56:1 70:1 97:1 #
-0.20821837816977073476465420753811 12:1 22:1 58:1 74:1 91:1 #
-0.16711108050883316522572386020329 7:1 39:1 54:1 70:1 81:1 #
-0.34572814328696938046547870726499 7:1 36:1 56:1 73:1 85:1 #
-0.2234817570476111958654996669793 5:1 30:1 42:1 77:1 91:1 #
-0.15421434179414039711275563604431 16:1 24:1 53:1 69:1 86:1 #
-0.26236803652448081880521613129531 9:1 37:1 53:1 75:1 90:1 #
0.20478840369874240501246731582796 19:1 37:1 50:1 63:1 90:1 #
-0.088487749583054595148290388806345 8:1 29:1 59:1 64:1 94:1 #
-0.19471355549192237432976071431767 16:1 26:1 46:1 74:1 96:1 #
-0.11988822794885001243869737663772 20:1 23:1 42:1 70:1 90:1 #
-0.085417606043015986694300067938457 15:1 24:1 41:1 73:1 85:1 #
-0.090083414560589658570677329407772 2:1 24:1 44:1 62:1 98:1 #
-0.10101481720607413672397001391801 12:1 26:1 52:1 70:1 83:1 #
-0.032371274042209519095081304840278 2:1 34:1 42:1 69:1 88:1 #
-0.038421761599610526616288552759215 17:1 37:1 54:1 77:1 95:1 #
