SVM-light Version V6.02
2 # kernel type
3 # kernel parameter -d 
0.00012207031 # kernel parameter -g 
1 # kernel parameter -s 
1 # kernel parameter -r 
empty# kernel parameter -u 
100 # highest feature index 
186 # number of training documents 
67 # number of support vectors plus 1 
1.2420135 # threshold b, each following line is a SV (starting with alpha*y)
-168.88842351884522940963506698608 15:1 35:1 60:1 63:1 99:1 #
-400.40630345314275473356246948242 1:1 33:1 55:1 76:1 98:1 #
35.90862099988589761778712272644 8:1 24:1 57:1 67:1 98:1 #
-346.51195334794465452432632446289 6:1 23:1 44:1 73:1 98:1 #
-512 6:1 24:1 41:1 61:1 98:1 #
512 3:1 24:1 57:1 76:1 88:1 #
512 4:1 23:1 56:1 63:1 98:1 #
172.59196336336026433855295181274 4:1 24:1 56:1 76:1 98:1 #
398.74426456494256854057312011719 6:1 24:1 57:1 77:1 98:1 #
512 7:1 26:1 57:1 76:1 88:1 #
-512 15:1 24:1 57:1 63:1 90:1 #
-512 18:1 24:1 52:1 76:1 88:1 #
-512 16:1 24:1 56:1 69:1 98:1 #
512 10:1 34:1 56:1 61:1 98:1 #
512 11:1 38:1 57:1 64:1 98:1 #
512 14:1 34:1 56:1 72:1 98:1 #
-512 18:1 30:1 56:1 76:1 98:1 #
-512 18:1 21:1 56:1 72:1 98:1 #
-512 9:1 38:1 43:1 76:1 98:1 #
512 9:1 24:1 57:1 61:1 90:1 #
512 15:1 24:1 56:1 64:1 88:1 #
512 9:1 24:1 56:1 76:1 90:1 #
-512 9:1 24:1 59:1 70:1 88:1 #
-512 16:1 29:1 57:1 66:1 88:1 #
-383.58728437245008535683155059814 20:1 24:1 49:1 64:1 81:1 #
512 18:1 23:1 57:1 75:1 98:1 #
512 15:1 28:1 56:1 72:1 98:1 #
512 15:1 28:1 56:1 76:1 98:1 #
-49.35306917343405075371265411377 20:1 21:1 56:1 61:1 96:1 #
-314.5658805381390266120433807373 19:1 31:1 56:1 69:1 96:1 #
-442.04385145194828510284423828125 20:1 30:1 56:1 76:1 100:1 #
512 16:1 24:1 57:1 74:1 98:1 #
512 18:1 24:1 57:1 63:1 98:1 #
512 9:1 24:1 56:1 76:1 88:1 #
-512 8:1 28:1 41:1 79:1 98:1 #
-512 16:1 35:1 56:1 70:1 98:1 #
-512 18:1 34:1 44:1 76:1 98:1 #
512 12:1 24:1 56:1 69:1 98:1 #
512 9:1 24:1 56:1 70:1 98:1 #
512 15:1 23:1 56:1 78:1 98:1 #
-382.13229618954937905073165893555 7:1 24:1 54:1 62:1 89:1 #
-106.55288149826810695230960845947 17:1 24:1 50:1 75:1 81:1 #
-512 15:1 31:1 50:1 70:1 98:1 #
512 15:1 26:1 57:1 76:1 88:1 #
512 15:1 37:1 57:1 73:1 98:1 #
148.09804245713166892528533935547 9:1 34:1 57:1 76:1 98:1 #
-370.13239054508449044078588485718 16:1 40:1 57:1 73:1 84:1 #
-64.587426670848799403756856918335 15:1 38:1 47:1 78:1 94:1 #
-315.38030160521157085895538330078 15:1 38:1 47:1 76:1 93:1 #
512 8:1 24:1 56:1 63:1 98:1 #
493.86371506370778661221265792847 10:1 24:1 56:1 71:1 98:1 #
-512 18:1 24:1 55:1 73:1 98:1 #
-225.04120659633190371096134185791 17:1 29:1 56:1 80:1 97:1 #
-234.24243311840109527111053466797 18:1 21:1 56:1 74:1 88:1 #
512 10:1 24:1 57:1 76:1 90:1 #
-512 10:1 23:1 54:1 72:1 90:1 #
-354.65094886883889557793736457825 17:1 33:1 56:1 66:1 88:1 #
-222.5267338686971925199031829834 16:1 36:1 56:1 63:1 84:1 #
-129.69533406279515475034713745117 20:1 24:1 48:1 67:1 82:1 #
-69.272748851286451099440455436707 9:1 38:1 44:1 70:1 98:1 #
-53.556699755135923624038696289062 20:1 36:1 56:1 69:1 87:1 #
-60.153935904498212039470672607422 15:1 35:1 55:1 70:1 98:1 #
-118.11473478871630504727363586426 20:1 24:1 45:1 71:1 81:1 #
-20.536400398210389539599418640137 16:1 24:1 50:1 74:1 90:1 #
-0.84332472895857790717855095863342 17:1 24:1 44:1 75:1 93:1 #
-0.43004314173595048487186431884766 19:1 23:1 58:1 63:1 86:1 #
