SVM-light Version V6.02
2 # kernel type
3 # kernel parameter -d 
0.0078125 # kernel parameter -g 
1 # kernel parameter -s 
1 # kernel parameter -r 
empty# kernel parameter -u 
100 # highest feature index 
486 # number of training documents 
112 # number of support vectors plus 1 
1.0280864 # threshold b, each following line is a SV (starting with alpha*y)
-0.48407321405306191763884271495044 10:1 35:1 41:1 70:1 98:1 #
-1.6365394190808721930352476192638 12:1 32:1 45:1 68:1 95:1 #
5.4341910809910700663749594241381 4:1 23:1 43:1 79:1 82:1 #
-4.9707772073403582169248693389818 1:1 33:1 55:1 76:1 98:1 #
8 15:1 29:1 43:1 80:1 98:1 #
8 1:1 30:1 52:1 77:1 98:1 #
8 1:1 35:1 44:1 80:1 98:1 #
8 1:1 36:1 52:1 80:1 98:1 #
0.94396500446432440867283730767667 13:1 36:1 55:1 79:1 88:1 #
1.3404469952232389573509863112122 3:1 26:1 49:1 79:1 98:1 #
-3.0253432733686764777303324081004 14:1 35:1 52:1 61:1 98:1 #
-0.23830138460073158057639375329018 15:1 36:1 48:1 69:1 98:1 #
-6.6753798795445220548572251573205 20:1 36:1 44:1 72:1 98:1 #
8 15:1 23:1 54:1 76:1 88:1 #
8 9:1 24:1 59:1 70:1 88:1 #
8 4:1 22:1 55:1 79:1 85:1 #
-4.6028780496989014636710635386407 15:1 26:1 51:1 76:1 88:1 #
-8 15:1 26:1 57:1 76:1 88:1 #
-0.77815556218416048750441404990852 19:1 36:1 45:1 64:1 89:1 #
8 11:1 30:1 57:1 64:1 98:1 #
8 10:1 32:1 43:1 80:1 98:1 #
8 9:1 38:1 43:1 76:1 98:1 #
-8 9:1 24:1 56:1 70:1 98:1 #
-4.4244676005352356895627963240258 11:1 24:1 56:1 70:1 98:1 #
-4.4126453489286205922326189465821 17:1 38:1 49:1 68:1 98:1 #
2.1448374428210046360732121684123 17:1 26:1 57:1 79:1 98:1 #
8 16:1 26:1 57:1 79:1 88:1 #
8 20:1 26:1 51:1 79:1 88:1 #
-8 10:1 26:1 41:1 63:1 88:1 #
-8 6:1 34:1 60:1 79:1 98:1 #
-0.21669532285335435517481528222561 16:1 26:1 44:1 76:1 88:1 #
8 15:1 23:1 56:1 78:1 98:1 #
8 9:1 38:1 44:1 70:1 98:1 #
8 17:1 29:1 52:1 80:1 98:1 #
-0.8020513207269974742530393996276 4:1 36:1 58:1 69:1 88:1 #
-8 4:1 23:1 43:1 69:1 82:1 #
-0.63034350893121349201919656479731 19:1 30:1 43:1 74:1 97:1 #
8 18:1 36:1 60:1 79:1 98:1 #
8 4:1 24:1 45:1 80:1 81:1 #
-8 20:1 34:1 57:1 80:1 85:1 #
-8 15:1 36:1 58:1 77:1 98:1 #
-8 15:1 36:1 60:1 61:1 98:1 #
8 10:1 26:1 48:1 79:1 97:1 #
8 10:1 26:1 57:1 79:1 97:1 #
7.5405571043648613738241692772135 6:1 26:1 58:1 79:1 88:1 #
-3.5694892631698280638374853879213 10:1 26:1 59:1 78:1 84:1 #
-4.5934914345838819826894905418158 4:1 26:1 57:1 78:1 90:1 #
-8 10:1 26:1 41:1 64:1 98:1 #
8 9:1 32:1 41:1 80:1 98:1 #
8 16:1 29:1 44:1 80:1 98:1 #
-6.5381619791397422858381105470471 18:1 29:1 52:1 66:1 88:1 #
-8 17:1 34:1 50:1 80:1 93:1 #
-0.95976933654510021565187116721063 5:1 25:1 42:1 65:1 98:1 #
8 10:1 26:1 41:1 80:1 98:1 #
4.3077864974007988863036189286504 12:1 26:1 45:1 79:1 93:1 #
4.3706922550596463139527259045281 20:1 26:1 57:1 79:1 88:1 #
-8 10:1 38:1 57:1 76:1 98:1 #
-8 16:1 26:1 54:1 66:1 98:1 #
-6.6737002166041889950065524317324 16:1 26:1 51:1 64:1 98:1 #
6.4927826972868505350788836949505 17:1 36:1 43:1 79:1 88:1 #
8 15:1 37:1 45:1 79:1 90:1 #
-8 9:1 36:1 41:1 67:1 98:1 #
-0.64827181757450702548339904751629 4:1 23:1 54:1 70:1 86:1 #
-3.1013449594454627344930486287922 9:1 37:1 44:1 72:1 92:1 #
8 10:1 37:1 46:1 80:1 98:1 #
8 9:1 24:1 60:1 80:1 98:1 #
8 9:1 36:1 54:1 80:1 98:1 #
-7.9473498017227690581876231590286 2:1 24:1 44:1 62:1 98:1 #
-7.7126364685796406917006606818177 17:1 26:1 48:1 74:1 98:1 #
-3.6636000601785072561256129120011 3:1 35:1 48:1 75:1 98:1 #
8 16:1 26:1 49:1 79:1 88:1 #
8 8:1 28:1 41:1 79:1 98:1 #
8 16:1 36:1 59:1 79:1 98:1 #
-5.6059529118752422505167487543076 16:1 21:1 43:1 63:1 98:1 #
-6.0669192725260927545605227351189 10:1 32:1 45:1 73:1 95:1 #
-4.8700994222663780419679824262857 18:1 25:1 45:1 77:1 88:1 #
8 9:1 24:1 45:1 80:1 81:1 #
-3.3795753651049551535834325477481 9:1 24:1 60:1 65:1 85:1 #
-2.6872290211159537420826382003725 9:1 37:1 49:1 65:1 84:1 #
-3.4113680884617831878813376533799 18:1 23:1 46:1 71:1 81:1 #
-4.1005570679542326928412876441143 20:1 29:1 43:1 70:1 100:1 #
-7.5932453408749118750620255013928 16:1 37:1 55:1 70:1 88:1 #
-1.7440439464515797851618117420003 8:1 33:1 52:1 68:1 88:1 #
2.9417882622880693332945156726055 6:1 29:1 43:1 80:1 98:1 #
-5.5457449427747214087958127493039 9:1 32:1 52:1 67:1 90:1 #
-7.7406257643610381080634397221729 9:1 24:1 54:1 69:1 97:1 #
-1.8964229592076051744697906542569 9:1 38:1 49:1 78:1 96:1 #
8 18:1 26:1 55:1 79:1 88:1 #
-1.9920794666123669003354734741151 9:1 33:1 49:1 77:1 97:1 #
3.7857715953699937472265446558595 20:1 26:1 48:1 79:1 98:1 #
-6.1011795956016836584012708044611 18:1 26:1 43:1 75:1 81:1 #
-0.74313554960042083052940142806619 18:1 22:1 45:1 71:1 86:1 #
-8 16:1 35:1 43:1 78:1 88:1 #
-4.2326427188300925763542181812227 1:1 29:1 52:1 72:1 94:1 #
-2.4334378139140859786948567489162 17:1 30:1 58:1 73:1 98:1 #
-6.1900900237955518434773694025353 18:1 26:1 59:1 76:1 98:1 #
-1.4633616713854564750363351777196 7:1 22:1 41:1 62:1 88:1 #
-8 1:1 30:1 53:1 74:1 98:1 #
-0.84698763788650488493203738471493 15:1 28:1 56:1 72:1 98:1 #
-4.6832448811378908359870365529787 8:1 36:1 41:1 64:1 98:1 #
-1.6970364164086850777835024928208 15:1 32:1 56:1 73:1 98:1 #
3.8914330939977830325915419962257 9:1 35:1 43:1 80:1 98:1 #
-0.7140131902472610647691908525303 16:1 23:1 55:1 65:1 97:1 #
-1.4373192880027545470511540770531 9:1 28:1 44:1 69:1 90:1 #
-1.9272312240202711386416467576055 20:1 40:1 44:1 70:1 98:1 #
-1.3610938537390460112419532379135 16:1 38:1 47:1 77:1 98:1 #
-1.1461704760752340348517464008182 6:1 23:1 50:1 61:1 88:1 #
-0.38263955731155618877892266027629 10:1 22:1 44:1 78:1 99:1 #
-0.57616881060292612914963683579117 11:1 37:1 51:1 76:1 98:1 #
-0.24490836196576637462385406251997 1:1 30:1 57:1 78:1 87:1 #
-0.074260959765296341572593519231305 17:1 29:1 43:1 78:1 90:1 #
