SVM-light Version V6.02
2 # kernel type
3 # kernel parameter -d 
0.00012207031 # kernel parameter -g 
1 # kernel parameter -s 
1 # kernel parameter -r 
empty# kernel parameter -u 
100 # highest feature index 
114 # number of training documents 
49 # number of support vectors plus 1 
1.088624 # threshold b, each following line is a SV (starting with alpha*y)
-435.71712674028822220861911773682 14:1 34:1 59:1 77:1 99:1 #
-419.49825677718763472512364387512 9:1 21:1 58:1 73:1 98:1 #
512 19:1 38:1 45:1 65:1 98:1 #
319.88561615627259016036987304688 3:1 38:1 59:1 65:1 98:1 #
512 9:1 28:1 59:1 65:1 98:1 #
512 1:1 26:1 60:1 65:1 90:1 #
512 15:1 38:1 59:1 65:1 98:1 #
512 3:1 28:1 45:1 80:1 98:1 #
512 3:1 31:1 50:1 76:1 85:1 #
228.99185731216857675462961196899 3:1 38:1 45:1 65:1 98:1 #
-512 3:1 23:1 45:1 78:1 88:1 #
-512 15:1 26:1 50:1 65:1 85:1 #
-512 3:1 36:1 53:1 79:1 98:1 #
512 18:1 30:1 59:1 75:1 90:1 #
512 10:1 25:1 41:1 77:1 90:1 #
512 15:1 30:1 58:1 66:1 98:1 #
-403.51283055788371711969375610352 10:1 30:1 50:1 72:1 98:1 #
-132.23754552849277388304471969604 1:1 26:1 41:1 71:1 90:1 #
-489.67367275670403614640235900879 1:1 34:1 51:1 75:1 98:1 #
512 8:1 34:1 56:1 70:1 98:1 #
512 7:1 33:1 45:1 65:1 92:1 #
512 8:1 33:1 54:1 65:1 98:1 #
-512 20:1 32:1 57:1 65:1 98:1 #
-512 8:1 36:1 46:1 65:1 84:1 #
-33.43489618244348093867301940918 8:1 37:1 49:1 76:1 100:1 #
512 18:1 36:1 45:1 76:1 81:1 #
-512 15:1 30:1 45:1 67:1 87:1 #
-512 13:1 25:1 44:1 76:1 98:1 #
-111.15404866251628845930099487305 18:1 25:1 52:1 74:1 90:1 #
190.98700458160601556301116943359 6:1 28:1 59:1 65:1 98:1 #
512 17:1 28:1 59:1 65:1 98:1 #
512 12:1 38:1 45:1 65:1 98:1 #
-262.73869126697536557912826538086 17:1 38:1 43:1 78:1 81:1 #
-457.59874658309854567050933837891 10:1 39:1 59:1 68:1 90:1 #
-134.30281549887149594724178314209 10:1 33:1 53:1 68:1 98:1 #
-346.36588911173748783767223358154 7:1 38:1 49:1 75:1 89:1 #
-310.00062607839936390519142150879 12:1 33:1 55:1 63:1 90:1 #
-281.02384701145638246089220046997 11:1 24:1 58:1 74:1 98:1 #
-111.23885590262943878769874572754 16:1 31:1 48:1 76:1 95:1 #
-85.578611224947962909936904907227 9:1 29:1 56:1 66:1 94:1 #
-95.456105642690090462565422058105 5:1 34:1 45:1 67:1 85:1 #
-107.85193156982131768018007278442 17:1 38:1 43:1 63:1 83:1 #
-46.203278807330207200720906257629 17:1 33:1 43:1 61:1 90:1 #
-161.75289266064646653831005096436 9:1 24:1 44:1 64:1 98:1 #
-125.31283009517937898635864257812 10:1 40:1 50:1 61:1 98:1 #
-128.37861553897528210654854774475 18:1 21:1 56:1 74:1 92:1 #
-121.88137871259823441505432128906 6:1 38:1 53:1 73:1 90:1 #
-34.950985138668329454958438873291 17:1 25:1 56:1 76:1 95:1 #
