SVM-light Version V6.02
2 # kernel type
3 # kernel parameter -d 
0.0078125 # kernel parameter -g 
1 # kernel parameter -s 
1 # kernel parameter -r 
empty# kernel parameter -u 
100 # highest feature index 
120 # number of training documents 
47 # number of support vectors plus 1 
1.0046751 # threshold b, each following line is a SV (starting with alpha*y)
-8 5:1 26:1 51:1 75:1 95:1 #
1.9379853474870039065081073204055 5:1 36:1 45:1 79:1 82:1 #
-0.7544027570827793738317268434912 4:1 26:1 48:1 80:1 98:1 #
-2.6517614278967656105123751331121 14:1 32:1 49:1 61:1 98:1 #
4.5315730279340185049363753932994 5:1 37:1 59:1 65:1 82:1 #
8 5:1 21:1 42:1 73:1 95:1 #
8 5:1 39:1 45:1 79:1 82:1 #
8 5:1 37:1 59:1 70:1 82:1 #
4.321168180998034458184520190116 5:1 23:1 59:1 70:1 82:1 #
-0.41943785258309951302635454339907 9:1 32:1 42:1 76:1 96:1 #
-8 20:1 35:1 54:1 65:1 82:1 #
-7.3620413391773755762415021308698 10:1 40:1 59:1 65:1 89:1 #
-6.6999868600205738644604025466833 5:1 35:1 55:1 77:1 92:1 #
8 16:1 27:1 57:1 73:1 98:1 #
8 16:1 25:1 59:1 72:1 82:1 #
8 6:1 35:1 56:1 70:1 82:1 #
-8 16:1 24:1 56:1 66:1 82:1 #
-8 12:1 27:1 47:1 63:1 82:1 #
-2.6160922023560750915294192964211 10:1 33:1 59:1 73:1 90:1 #
8 5:1 26:1 53:1 79:1 82:1 #
2.087226404540714952418056782335 5:1 26:1 45:1 79:1 82:1 #
-8 5:1 39:1 57:1 75:1 90:1 #
-4.8317471071953761452277831267565 5:1 35:1 57:1 77:1 99:1 #
-8 3:1 26:1 60:1 70:1 84:1 #
8 19:1 23:1 60:1 65:1 82:1 #
-2.0783213669558335823239758610725 13:1 37:1 44:1 73:1 89:1 #
-2.857710118001538290855023660697 9:1 37:1 56:1 70:1 99:1 #
-2.374417295829604590551298315404 16:1 34:1 53:1 69:1 100:1 #
8 5:1 26:1 60:1 65:1 82:1 #
8 5:1 32:1 60:1 65:1 82:1 #
4.6941589396150096291648878832348 5:1 32:1 45:1 65:1 82:1 #
-3.9590624684015836010075872763991 19:1 30:1 60:1 67:1 96:1 #
0.96906173061177725003290106542408 5:1 26:1 59:1 79:1 82:1 #
-2.0171401587670274579977558460087 6:1 26:1 53:1 68:1 96:1 #
-0.88912300256441056944822776131332 16:1 33:1 42:1 74:1 81:1 #
-2.1860083913119141563186076382408 14:1 32:1 42:1 74:1 88:1 #
-1.071205914221096122673770878464 2:1 40:1 48:1 65:1 83:1 #
-0.79433808381603121517855470301583 13:1 38:1 54:1 65:1 83:1 #
-1.3121866173624106011175172170624 11:1 37:1 50:1 71:1 86:1 #
-0.94393669553467418609216110780835 6:1 30:1 57:1 72:1 94:1 #
-1.0803856420363615598034812137485 8:1 36:1 46:1 65:1 90:1 #
-0.76013663065825376463635620893911 7:1 25:1 56:1 78:1 81:1 #
-0.94280322847497588512055699538905 18:1 27:1 45:1 77:1 93:1 #
-0.51464036259656609217927325516939 16:1 21:1 50:1 66:1 87:1 #
-1.1024903754280144241306516050827 8:1 32:1 48:1 73:1 89:1 #
-0.32179773291432245407861501007574 9:1 21:1 46:1 70:1 89:1 #
